{"Layers":[{"Bias":[[-0.05739202100453563,0.05972274582393681],[-0.018604475157974792,0.0830228802156991],[0.13027472893903358,0.15638774141925116],[0.01659065560528031,-0.3826436174585864],[-0.028198147776539968,-0.17272741763561505],[-0.178771171399727,0.029477577769083295],[0.02902033377912297,-0.05142200515272788],[-0.0369822761556125,0.11353890902571694],[-0.061652250892972306,0.21372836528236092],[0.10080615985930236,0.10753976911076239],[0.27496557625632834,0.21432098551463943],[-0.1529499743567221,-0.056867254617032396],[0.05702194489299827,0.10148085569895257],[0.07069541819035144,0.1556381633989142],[-0.03829023325995159,0.02500920244325404],[0.004309905739960868,-0.11212399857044812],[0.1482424675834532,-0.011091249118618814],[0.22024123944335128,0.05412613092724239],[0.03601965765746538,-0.004128763578410182],[-0.011138497250443911,0.022143355498598655],[-0.02827148795163221,0.02063543829642248],[-0.13153675349099278,0.15390150836776648],[-0.01303134737990218,-0.04177674541922192],[-0.005150684589988699,0.17012425006112267],[-0.04102316755281695,-0.018136348739023433],[-0.02004541169351063,0.026798126289069246],[0.04982611747383558,-0.05886376051784301],[0.040067363427694555,0.010461545678265061],[0.1332121671169689,-0.007141110775764233],[-0.08123281922934562,0.0667348653068878]],"Inputs":60,"Name":"FullyConnected","Outputs":30,"UseBias":true,"Weight":[[[-0.039342694457221015,-0.08321316506515247],[0.18198073482925706,-0.04343858425783758],[0.005994425384479354,0.014936712677812613],[-0.10412328995938215,-0.00024852605139586597],[0.042237127222434875,-0.003798394830403277],[-0.011342353711885862,0.06513643593226415],[-0.2252441433818612,0.10887587302630021],[-0.1087862961486629,-0.0050604808592352325],[-0.028121734653204646,0.035303292319954035],[-0.014285023339528188,-0.02686651497664622],[0.04192666552446968,-0.1733774290843191],[-0.07091475339783995,0.08059409725220631],[0.011087696669956102,-0.0585488556720494],[-0.1317926288354405,0.1513503487019138],[-0.08937081742079232,0.012111427065124825],[0.0041578354287157525,0.11570512349339115],[-0.20111409870642608,-0.005592852018252332],[-0.09104427370407978,0.0147877932140029],[-0.1280366592600146,0.021969351681230233],[0.1510642115530505,-0.010587383338480102],[0.2753126885872229,0.17563534123478317],[0.3350583193597697,0.07916277477402547],[-0.06647028815989939,0.1563771127366117],[-0.11966556254893078,-0.09355985378499099],[-0.022094861669778976,-0.008509993763630343],[0.1291028624843066,0.09556432440473661],[-0.012583381724635455,0.1777687894892579],[0.09905764484408272,0.05920305738386821],[-0.09814074243132692,0.13676827006470432],[0.03111226892216133,0.011390507250480977]],[[0.0021306394019527295,0.4086516122952703],[0.08695807087275163,0.1715634444634087],[0.07513715583932182,-0.10014681987278526],[-0.0613117541222698,0.04860131209194244],[-0.1092453299476767,-0.05663430939087669],[0.09314412242866145,0.1094027976856422],[-0.1081327070844021,0.1452474300607843],[0.0998679967327668,0.09953240484858071],[-0.0816225113692882,0.010051645370413078],[0.07289649437824804,-0.15914783641111016],[-0.01655643928952972,0.16238009219100386],[-0.04385860334748328,0.10821124156742598],[-0.035180721156574016,0.11474427357788893],[-0.05410925609162893,-0.11957165452688304],[-0.06692738191661048,-0.056292471317374145],[0.19397789388739278,0.015304896707655254],[0.03169144231787416,0.10735703582324176],[-0.005794560493688891,-0.09880306631305595],[-0.0264560839177082,0.021392077086448857],[0.0029416296986818514,0.11645444048914377],[-0.10112323126724294,-0.09371813001716278],[0.0954203330089389,-0.17453869512047632],[0.04372184574134785,-0.2846435022154463],[0.0441955546615048,-0.04200101286647955],[-0.06110106819474072,-0.10620895785940904],[0.08705251133028925,0.17946555532555136],[0.04287759902120862,0.09255697344113925],[0.02142988744984407,0.22540860552656714],[-0.027066703522808554,0.0759766299245695],[0.12758222545916353,0.08621763132901278]],[[0.056835999581518686,-0.10894404731759265],[-0.02142789596148548,0.1559814154573955],[0.12624762306137974,0.0555213607464037],[-0.0129158199679037,-0.05233827662019209],[-0.06895298094185208,0.1985660240441801],[0.054972549549359234,0.11456543382602385],[0.04878667854008015,0.10704422005247773],[-0.09530844840584887,0.04060325294095935],[-0.00017493459033437152,-0.1135062405492588],[-0.010438117616504459,-0.10993163555505432],[0.036282257430594086,-0.028528207458792282],[-0.0030779374971906114,0.060126493091693635],[-0.0005637779419305323,-0.05030065674912102],[0.09551039670919627,0.05979070199516497],[0.028559977768981212,-0.06187174730249928],[0.059716885061041315,0.11813603474593481],[-0.04949769102503765,0.030986086480804077],[0.14256205109559886,0.006027201337910247],[0.14352832656154624,0.3043999751234564],[0.03971762816017009,-0.11016542765313289],[0.031152246890401723,-0.06482090631226307],[-0.1875018673635342,0.13526738497462548],[0.03249450723250804,0.04957154081641089],[0.007296145077579396,-0.012708417890955968],[-0.002621655630995934,-0.09118552102930355],[0.11623684780340271,0.2013364089316626],[0.0709919442956563,-0.032015878445109794],[-0.0941523902580928,0.17609798941873525],[-0.0795446250982076,-0.051740606337371126],[-0.02632931707962551,-0.013297952434771122]],[[-0.01597544746134542,0.07606431081617261],[-0.0833700257496563,-0.10751300609115778],[-0.014468404034675829,-0.21223050119774964],[0.029883055388916228,0.029311072998105175],[-0.017493829476457372,-0.05265589479366068],[0.20353530728040226,-0.13007849935608373],[-0.013997640021701948,-0.14920732443542054],[0.007675830152850829,0.015388735990449183],[0.23089826771348151,-0.0038573698827075705],[0.004135698544251731,0.1792423843624506],[-0.11071200006140257,-0.057432190760132604],[0.06391613313343808,-0.04702394712349815],[0.03166105261778868,-0.23940906420349925],[0.17422469879059144,0.016772182923525135],[0.05014227420703174,0.017600741384352792],[-0.008537900522975927,0.026393146583008526],[0.0745022057257543,-0.028041739212118937],[-0.06654839028043458,-0.21101713351730786],[0.0651113171830611,-0.2577098538568647],[-0.19875883070074976,-0.023962237494544653],[-0.13573215018487278,-0.03023064580408437],[-0.03213567467211728,0.26985792542634457],[0.0035278515162534612,0.059115958911062215],[-0.010280152882512156,0.06919295524624478],[-0.02210109565230853,0.1337575705120093],[-0.006949752996422291,0.02004189052210042],[0.2584668060152251,0.10192398471448742],[0.06359954824980323,0.029033302526345825],[-0.08229169516384961,-0.06957030942602556],[0.19376004753603984,-0.15145015096279316]],[[0.012275501319152785,0.0650386640723688],[-0.0010694109593132775,0.03240465330115756],[0.07602650603503078,-0.18764708267358218],[-0.11681786235189857,-0.019890821930722787],[-0.043288386161468684,-0.0823192619327729],[0.0446364488735087,0.028005099740232353],[-0.13928755433062467,0.08898230089134734],[0.004780950965727504,0.10304463079868172],[0.04792255738265689,0.05164777766460388],[-0.2090766047404399,0.0495130513740953],[-0.0669161964408796,0.035328118278212285],[-0.09687591872920749,0.05633802809866404],[0.19455081345637498,-0.04574323012612315],[0.0031339139214238525,-0.09936664047148469],[0.18258304202353015,0.23686437624464837],[-0.0827557543615794,-0.1083989375184041],[0.09523943398250202,0.011491858863113076],[-0.19199255361591122,0.013993159394580429],[0.00525906511938017,-0.11088620556260737],[0.044878708132462856,-0.019589373168565998],[-0.21036144441534269,-0.029145931271425316],[-0.059207062551536384,0.00029347542583532915],[-0.10195569827995853,-0.15745341444629377],[0.2557427563847069,0.022274988169076904],[-0.08777993970859609,-0.07354464787352492],[0.03445475304516935,-0.3792366715294601],[-0.013531280147477598,0.03165420385226511],[-0.16714052881950778,-0.022043858487315496],[0.15521916681475245,0.008420471549423417],[-0.0738969007679237,-0.24960332516397885]],[[0.043743753232560884,0.07595453254228045],[-0.1005557030489764,0.0013571760031586746],[0.06325681462212024,-0.17480478516766249],[0.19464105202079626,0.08913423520357305],[-0.26087166827002295,0.06700504169513462],[0.01419820481692977,0.09792365381166981],[0.033797588959946334,-0.07393524321927464],[-0.015769185962242974,0.06416668596264644],[-0.040626393511197255,0.04483029879810216],[-0.05490300186741321,0.07548533177381675],[-0.11150155792903754,-0.24415309741858415],[-0.17071900770474732,-0.009755610331785106],[-0.09432003306368951,-0.15910509635615222],[-0.3265616507092455,-0.10694641902020745],[-0.05949919947290276,-0.10346232992875466],[-0.05795255932293934,0.07023223541377477],[-0.06446421817578309,0.051196167831056585],[0.019137423667505697,0.1588395719184282],[0.07597054606945385,0.11838377367454198],[0.28459718408834467,-0.1286975244428996],[0.028421852661687785,-0.13331247038404387],[0.045201589411602794,0.0016550980740715074],[-0.07052290437732045,-0.07579410882184699],[0.06518684639103646,-0.009464265274862878],[-0.1744677208165366,-0.2170831315586177],[0.059064342709337574,0.1423163429426105],[-0.045063613171509635,-0.024386025426116946],[-0.033896620731308336,0.060841132588438894],[0.19333614959047243,0.07166021871708976],[-0.010665275229049429,-0.018823023840487858]],[[-0.12291877028980715,-0.0508135193568307],[0.15605161762052636,-0.059306043888885586],[0.017942263595477546,0.13079913913345664],[-0.16099034374670546,-0.0025635320362975417],[-0.0419326011637925,-0.13500958539677835],[-0.04518638709802589,-0.0863869103906401],[0.013164381515259165,0.13606739937488369],[0.045008971904166584,-0.16346498166391668],[0.1788762757006533,0.13906569784552653],[-0.10629261287804433,0.006417135876581022],[-0.005104609117327287,-0.11102365800431883],[0.09320827100738405,-0.2003309736542244],[0.10489954555782698,-0.06524646011536261],[-0.027224308150631437,0.12388398438020737],[0.03783706687750078,-0.037744521258737805],[0.0752627926986358,-0.06359049586427427],[-0.1415487206423029,0.036867851463725274],[-0.01785714580123627,0.05875910591800584],[-0.23901447839540516,0.23952318923212082],[0.03927369405500176,-0.07458723123985744],[0.03422991700575498,0.1841596159959348],[0.035288383791735475,0.09990019908677845],[-0.008996299933233127,0.03202415474988975],[0.06926925784750748,-0.17135389023327408],[0.01683157635832699,-0.050133672224610085],[0.09471578136440247,-0.08166273383581595],[0.10704643339031039,0.012693033431908142],[0.13254539544466448,0.07626549888752744],[-0.03343610866684384,-0.10655300683213612],[0.12759949560180261,0.05287419992367942]],[[0.15633976287808346,0.13359526910292474],[-0.1178033539058466,-0.04845114181073175],[-0.01108009554720588,-0.11298802629065412],[-0.19678455430727312,0.00017076928258076448],[-0.35834213774951934,0.020314360796339845],[-0.10306200116624516,-0.029527763129126645],[0.04943294178431807,0.03424617480019348],[-0.10033467965501508,0.010784297121018947],[0.1282560415023222,-0.1868827630339536],[-0.07389271509239856,0.01479415678552118],[-0.21967097544858735,0.016131878123457725],[-0.034064308709954645,-0.022721662178182365],[0.11600058100564765,-0.07951176852637178],[-0.1532900916730845,-0.2086303079037515],[0.1119540840919306,0.07317864992734466],[-0.07033541904598108,0.1711918267746043],[-0.010941031971273238,0.08953826721076157],[-0.13163573524577632,0.0036420862155420175],[-0.019583085086440518,-0.1279722649517465],[-0.1442929970515507,-0.07544155551403996],[-0.21406899363909326,0.13962726819689147],[0.0986543594160854,-0.030244075345542003],[-0.07795248534872355,-0.27534409659478426],[0.04113879926488531,-0.021268066176420186],[0.14810151543438055,-0.05348889378221398],[-0.06929355652102774,-0.07654067571469535],[-0.12445957541412485,-0.022232301530281953],[-0.024740482563999484,-0.003200215418495654],[-0.13749874573363538,-0.1366374719889082],[0.07749378901445009,-0.021080544457109628]],[[-0.0668977034112605,-0.06821032733860284],[0.07306484315615187,0.11506469174131824],[-0.06740731525455143,-0.040164297946837915],[0.05810135347486107,-0.13551533734790586],[-0.1320913421019002,0.026750935738961302],[0.1350288229524561,-0.02348775791143062],[-0.15618046452227938,-0.10042162957654277],[-0.036162548555688796,-0.014517950470389403],[0.045900871585503766,-0.06898032818235827],[-0.17332606443851828,0.0035707825309813698],[-0.16575976665346506,-0.042514444518092595],[-0.22469096212803316,-0.09772950642072913],[0.1838029186930498,-0.02179622300425216],[0.08845719437677516,0.15904085036303794],[0.05173235973029542,0.027487683292893722],[0.014941510663524024,0.10303057125435452],[-0.25027304435280645,0.06376023627934538],[-0.10494281303198863,0.15032056291310564],[0.05633848113924979,0.06898170751594529],[-0.09132190406507014,0.13845709283091873],[-0.1082882501267654,0.05185406673646172],[0.19527146392271283,-0.007074741191680096],[-0.08098295572102085,0.030570690502621584],[-0.10945612421126547,-0.22009008990499543],[0.19504985215064993,0.013232882514633379],[-0.10782880428847523,-0.06553342093296216],[-0.10168568818599359,0.05529637568685735],[-0.061257489845729506,0.0556248389059436],[0.13825487084404706,0.1373573382763695],[0.051930495458903776,-0.26710964533347054]],[[0.10521690674958716,-0.01198077184155713],[-0.05903787994694025,0.05945253632809673],[0.0822474062989526,-0.09008138142596395],[-0.19812569379876024,0.055260890534407296],[0.12368240128722896,0.06997419512529122],[-0.08615835978030131,-0.011792036025621939],[0.08543026587126694,-0.08790140224694774],[0.035304874255181126,-0.17839301316658637],[0.08043209024104798,-0.1142605938534786],[0.08523697413810685,0.12218477135739006],[0.057331845675268174,0.049371067125341325],[-0.1660887777524298,-0.01263902400453902],[0.3640524112992215,-0.026306622224079652],[0.0902318387694008,0.11370918870229756],[-0.08344865953997789,-0.02221396622342747],[0.061917434965318034,0.02366134663938223],[0.07879422069095685,-0.15150217607352295],[-0.07566533279030012,-0.04227463340019973],[-0.18502741542326534,-0.08407393755141271],[-0.10979694784437863,-0.005217556961391083],[-0.08296837362112984,-0.1618297943873685],[-0.03339090888439158,0.052987174653646746],[0.1309520545135882,-0.22184130847808037],[0.1376854814374201,-0.19068096747010038],[0.07023192612417023,0.11650176382265036],[0.06938917429756468,0.033646651830666466],[-0.031093783305542695,0.07243566613468246],[0.05453017115397071,0.041904306691050934],[-0.02641616504154997,0.2396970362787404],[-0.19571660744209501,-0.19584482979366014]],[[0.0589329231916517,0.08850251394721055],[0.033117676330873355,-0.2434144937433515],[0.043006326690239,-0.016381072672217258],[0.06910356680555314,0.07577475632601714],[0.16023928210610636,0.02716987140693822],[-0.26954875178650844,-0.14704673008110955],[-0.22762286461776202,-0.008100785516976978],[-0.057966784138917433,-0.05822871192464269],[-0.0022332394191276698,-0.1058679754258162],[0.1779077540431111,-0.151602286154007],[0.14799761312945248,-0.014312127562579706],[0.014863195755066198,0.02607058036718461],[-0.012780501067091263,0.029590939484958844],[0.012050145741951913,0.1728724875932672],[0.23352721778161706,0.026192842156615728],[0.08267053343715558,0.040560884802487235],[-0.08662164817998629,-0.07705482201720182],[-0.11521782867040122,0.06360493721477031],[-0.1501547951563248,-0.029849592957805284],[-0.07867551693725396,-0.010543641150212684],[-0.03567931352046897,0.18287102375312503],[-0.11977305439047656,0.1135695645576758],[0.08814570882925381,0.10437140752896183],[0.04890393315612505,-0.06750728305319938],[-0.04572238215089578,0.11518091180434094],[-0.042508739813062406,-0.053363009710162154],[0.16085609334561599,0.009079018349918349],[0.08314600323845904,-0.039344103480959514],[-0.25123030332758484,-0.23494696291995437],[0.19199384353762455,-0.04818305664596693]],[[-0.02445951430625651,0.20068437958001098],[0.012370875281472347,0.033591179653877874],[0.15295369722248398,-0.16816207469005887],[-0.1503521042769894,-0.08292694201040304],[-0.19876588463210193,-0.053084183049952396],[0.051559971624197086,0.17565910582233876],[-0.015975020917299597,0.059759258700258305],[-0.06217566816090423,-0.040637589946280764],[-0.030467074261396263,0.1824412173388779],[-0.010591220224515328,0.0746300476048308],[-0.03990754342106435,-0.1460588578029465],[0.05660430342939171,-0.02248721658369814],[0.03808343790121877,0.018443747807817],[0.09660509051224668,-0.1228022917079053],[-0.08820034443032214,0.04086304042262248],[-0.08401281482858619,0.136126486066886],[0.09862779756311765,0.08640951407191545],[-0.01619509246134401,-0.039357355555106444],[0.047642838459800434,-0.10813553262381903],[0.2895099435974286,0.022924385144237645],[0.016249394653578844,0.1994685889419619],[0.03097513108176972,-0.05318956827435151],[-0.044820916307099404,-0.02559942104525696],[-0.014719496111240241,-0.15510050217977317],[-0.07627466601446456,-0.06350507870444827],[-0.025333770509155973,0.011110769519250777],[-0.08551050601516731,-0.08065272451319642],[0.10738917293610135,0.009081322493437297],[-0.06320307857821185,0.0605852836826384],[-0.13775477618690407,-0.020251317537798515]],[[0.05545523483279944,-0.020681632483077975],[-0.022587184367230652,0.07672036735727306],[-0.009131129477529705,-0.12281979033813195],[-0.08547147173332402,-0.04871151564980264],[-0.009479804185322528,-0.1289035972393496],[0.04797310726989262,-0.02555968955495743],[0.12133821542436651,0.06089193595210216],[0.03153110281428393,0.08454113409861858],[0.26005846327986076,0.08614304656208721],[-0.08888153968876814,-0.06471451764350979],[-0.2904431547912844,-0.16119921604132437],[0.13763739484033258,-0.06150381760005689],[0.22817813999867934,-0.004981508798805102],[-0.027829042741722335,0.2242222817860034],[-0.13434205926140808,-0.19497382621337322],[-0.09135394284595932,0.015917778258962335],[-0.2997725021770989,0.06407954661743524],[0.08678576513254543,-0.03230937377290165],[0.04543974868373804,0.19603919804563225],[-0.1065758436682885,-0.2635213431991538],[-0.10297476704270875,0.15200263271854467],[-0.09884996551292081,0.10002542914544385],[0.014143186753670801,-0.08804969309935619],[0.04872703958139859,-0.170415475360577],[0.10763277301255465,-0.23299952105473856],[0.10205117852912726,0.02490161718945818],[-0.14238402721030272,0.25511359300099146],[0.03581331062651433,-0.030797597276438167],[0.08430388517306309,-0.19855193394820556],[-0.011773582036880567,-0.07916922642457237]],[[-0.03021969115411246,-0.17592878492257316],[-0.019548485576016857,0.18160401184415326],[-0.03914575664984309,-0.07638060732194991],[-0.11929143989184911,-0.13846209972101406],[-0.04148351934840008,-0.059934921209190264],[-0.036157428137996404,0.053492092770104645],[-0.09811753180089243,-0.0014812927879440314],[-0.054336685084304205,0.08878948543412035],[0.1133574681014269,0.1720583921097818],[-0.15173673716338523,0.12325709090304109],[0.22066351222406194,-0.10123073621942051],[0.00036289045760315235,-0.036340462967632915],[-0.14134483739590292,0.010247590994236028],[0.12393281026192095,0.058134667979289616],[0.11799135245836406,-0.13451927670751784],[0.0001786603736673925,-0.10855938514686966],[0.007382587613262159,-0.06118177434086094],[-0.34810083206069675,-0.03983594138869747],[0.014795957514778283,-0.004344394053751676],[-0.09632195604156936,-0.045277175258863656],[0.07530248021515833,-0.056606898060777275],[-0.20338530475618205,0.00615308913893563],[0.01903515906239403,-0.019586536406374023],[0.04375785873940182,-0.01839197160884991],[0.07033074908275506,-0.012438634507765391],[0.12894847332133816,-0.11678083131955226],[-0.054815879264784005,0.1798505675031805],[-0.02221301919677689,-0.05272121662808891],[-0.05989288704722619,-0.00197469810518832],[0.0462423771836705,-0.3315558523674928]],[[0.1369094711747817,0.048121170468994445],[-0.0945014503603929,0.047327004467495375],[0.06280434072237344,0.07678286087651218],[0.10046881245073823,-0.12648383910586591],[-0.10515814794400584,0.03930745906875017],[0.10107480234211763,0.03645350890464805],[0.02310152164425774,-0.07131827043190328],[0.04505095248749313,0.12621843255483253],[0.05101883846448628,-0.09401125694519041],[-0.033973550727799784,0.059390212883649054],[0.1032370515767818,-0.15493720226947988],[0.07599881058303161,-0.19387560349962615],[-0.02842401484625888,0.09934490661954708],[0.2012566469588974,-0.09239899364551327],[0.06789446140515565,-0.24666583433070588],[0.03363402449555559,0.4262540841335143],[0.0069074324894151775,0.012780709565595775],[0.11897152980279588,0.07202163237344429],[-0.027945444671059156,-0.033126071004159104],[0.1164203673454529,-0.15374328739790127],[-0.19893070676690633,-0.0634377594755171],[-0.08947056297022424,-0.07388320035286283],[0.1053357193080029,-0.20447703856031568],[-0.0948690494415262,0.001842661683666857],[-0.2428013283072043,-0.09454740952819364],[-0.03359990605291028,-0.09853850394461783],[0.26224485510322687,0.04672601579713401],[-0.021485606784491195,-0.055408315264136934],[0.20040678455589675,0.04132882349617956],[0.1316220196913052,0.1320412721863697]],[[0.05491658659909509,-0.047843020209877095],[0.03579394666026476,0.03457682574781775],[-0.06257665635432826,-0.0783375806682252],[0.0874511649681927,-0.12021632142329572],[-0.2719918926211461,0.1542822962029779],[-0.001050619646254519,0.21058505554705584],[-0.0666760764528979,0.08882810230709137],[-0.001615631771150168,-0.01705111170334434],[0.07555670992981547,0.16822923890987368],[-0.13972630522771734,-0.07477127421516078],[-0.09509370943190863,0.05786125523665315],[0.011513524640682022,-0.007436124208306043],[-0.20709863934771394,-0.039301102388604764],[-0.016195444497664132,-0.16468453366673338],[0.04429371688877472,0.04842554339499525],[-0.09099323270710764,-0.17850185271992403],[0.09484710819342583,0.20899748659000314],[-0.002061212617618956,0.01619429583746293],[-0.06866644355303962,0.047103225472703354],[0.08497903107590661,0.04637201574798744],[-0.05772396460909951,0.052372579940443725],[0.05516709296579968,-0.14311373006557523],[0.06245222545379613,0.011196205129249966],[-0.09663755496505078,-0.08685061350309733],[-0.09898439911000821,-0.10081320246089834],[-0.014700977369812608,0.19338869988524854],[-0.24110284272925542,-0.17352489779216312],[0.13384487807995007,0.002284962827796634],[0.021646166926468927,0.03534533854696914],[0.1515133720897135,0.04991557933050325]],[[-0.14653111990766876,0.18115852325157056],[0.04668755080760032,-0.23353233794247588],[0.06456130971366746,-0.024004546141234328],[-0.14785753606323726,-0.07356601768584092],[0.0955997885796138,-0.05669191164776413],[-0.10210675045463102,-0.12038451525700358],[-0.007660775234502641,-0.017887690687788473],[-0.09933493541789025,0.058260445111586075],[0.13831744008599575,-0.004075743305591527],[0.09113798197766243,-0.10994700545070848],[-0.03793344090305992,0.07355334670036373],[-0.12282230042421581,0.16119462077120658],[0.17592731948258844,-0.015633717902283448],[-0.016282807849994592,0.036744323569016996],[0.2944734719117685,0.16532199509340165],[-0.064357469704362,0.06289050528129264],[-0.05705858508781007,-0.09530704153550575],[-0.17340520237460022,-0.010010290448907121],[0.05427051480909978,-0.07075143434408708],[-0.16013616857821023,-0.05277590212991338],[0.10331154830821601,0.11333975232970812],[-0.05490680240242874,0.30307464329114947],[-0.00920664764680583,-0.07043493087755184],[-0.24847178836995512,-0.011729497438472137],[-0.06114875420389547,-0.12989996319730657],[0.01820062522043876,0.1027382652897334],[0.11262701352826772,-0.1694451480128557],[-0.08703933422732439,0.05438236568714473],[-0.08592111243837758,0.04301030124747715],[-0.1327477677602777,-0.023027376007475255]],[[-0.050442351901800304,-0.029010438066852058],[-0.090634796518524,-0.16375173140799273],[0.1677147617870097,0.10691028493779493],[0.023798164255358682,0.11785978891931524],[-0.16983305127513768,-0.05033219184466194],[0.05213877101513505,0.08709283488261631],[-0.14432766593571053,-0.11520576063538385],[0.3648544313396824,-0.14374841630250054],[-0.10301011263309086,-0.07480156271934925],[0.16104204503798714,-0.14088509053889486],[0.12944099230989756,-0.07265073585875699],[-0.07370503218376306,0.07711590870381026],[-0.18671969166193594,0.03096397793040388],[0.1382529718350427,0.11501975020169378],[-0.04906133023907205,-0.08843477542973494],[0.17866498855543675,0.19761655087400137],[0.24967825626368376,-0.11959454578827555],[0.1025761899874438,0.0859900854019561],[-0.021393394330126807,0.012451499728340606],[0.037965709684345796,0.07830530960150506],[0.0843062178789388,0.06164639930408031],[0.10980367686794767,0.11899268381331214],[0.012798085418197234,-0.09895820638748432],[-0.1504941778405894,-0.1358460290974757],[0.1881629640848878,-0.05804150313104293],[0.08090898781743219,-0.04365643008508039],[-0.055648911615203106,-0.07280837535854957],[0.041220900180023036,0.012865264445002616],[-0.0682611524820465,0.1520437516719008],[0.22004665107391772,0.11957792524432213]],[[-0.018417414332488974,0.04535130541905075],[0.09696307005600105,-0.04757626935182327],[0.03628576180607333,0.0346351356686164],[0.020475719177005046,-0.03097212257346113],[-0.07485745890142972,0.09925900376801125],[-0.21561188509505985,-0.04175496090898638],[0.13300423018515473,0.03897839915144454],[0.1146253692036938,-0.03822259288732492],[-0.05324766568009972,0.09259444867411136],[0.054663606428274975,0.006920309976524936],[-0.017225784157778576,-0.012334895212770283],[0.11878332292438856,0.16678433491852773],[-0.17910280692605085,-0.16585588448682795],[0.16404395591202464,-0.10901178788944496],[0.05269951789094533,-0.018727355477173968],[0.06108142459512559,0.15606068676108648],[-0.07855811536146215,0.11362422608108151],[-0.06569563063631058,0.14439266873550688],[-0.06726807981474733,0.05235928634070799],[-0.0400485622564755,-0.14752415600756832],[0.1777701192472949,-0.010281707747971486],[-0.19802773548958036,-0.1284509963091897],[0.06883025308437705,-0.036670606284412335],[0.15893937667291774,-0.09540933070501477],[-0.11779297514482504,-0.057714492798113984],[-0.0260146730282615,0.21602140582016457],[0.0073950254085565015,-0.05898704082753068],[-0.12027863046088084,-0.05646234495932727],[0.06620634472336445,0.022485427125920988],[0.2674778464108854,0.11851962818572317]],[[-0.03306666393003729,-0.04923011401388621],[0.02372898624748454,-0.03424369473837639],[-0.08631214157208675,-0.012617446493430214],[-0.019988483487960968,0.030506527096237804],[-0.080888936456982,-0.12369705174732876],[-0.03168237764468131,0.14912691152159682],[-0.02616578054466038,-0.036241241396792065],[-0.11331961721145661,-0.15009609915734165],[0.042918224762924825,0.05843222113468239],[-0.03913145966020262,0.014769056907954034],[0.003425150444525072,-0.13224953936337847],[-0.013933944306627016,0.06938739801044022],[0.29963878291664575,-0.0015012136190088276],[0.05053102228350988,0.14288689465856672],[-0.12468230832365454,0.11599530038057214],[-0.06808625231360255,-0.030616666650279352],[-0.15366734408321675,0.10159521754242601],[-0.0544838264015425,-0.008080360993516097],[-0.14173207303456545,-0.21396677296046293],[-0.012609687853941077,-0.010667851832683753],[-0.07484833419077616,0.1356365936738711],[-0.016228948669157674,-0.03437885339163498],[-0.03206502937357379,0.017361114210776917],[-0.10563576881601132,-0.04901273744380768],[-0.08982876945794711,0.03158641258201254],[0.02421005332542014,0.1659752674510307],[0.0011778533575757288,0.004186396126918984],[0.0965352514006527,-0.07903859848973903],[0.05689190525201153,-0.07204679761944968],[-0.10866499878957109,-0.24735455468052023]],[[0.13365706172698066,-0.16334924947583446],[0.011149149298125874,-0.07366242800402314],[-0.1525921172160493,-0.11279892138442477],[0.035142420077745325,-0.1224920546103463],[0.05053123220721113,-0.024282621285714276],[-0.1922128084012756,0.045342539074728315],[0.07867764813382247,0.12002639630321604],[-0.06196761852220998,-0.09441607806991563],[0.03880777185355647,-0.19413225258501052],[-0.049846783090356755,0.0971331999843764],[0.10211425172802306,-0.012999707529272759],[-0.028569389730244893,-0.00032290887612403606],[0.07139799005326317,0.03673082730993601],[0.10587017482023697,-0.0595935924981836],[0.03841128783715163,0.09102887979702394],[0.10313258836082566,-0.03921482111938613],[-0.14054223280991957,0.002078053488746004],[-0.1653374091225149,-0.03000268873744533],[-0.06315993767339047,0.2187821447582164],[-0.18293474334379067,0.013871133821520724],[-0.02532852720066752,0.09238981520521208],[0.022968379787123617,-0.04401435744774643],[0.036828534487156527,-0.010440517188969397],[0.34261265220661374,-0.01235032365797126],[-0.04998021344296047,-0.004372953438073813],[0.003110046161136202,0.1841783181700632],[-0.05745174404225201,0.18084543716749452],[0.036596093931100485,0.11820498846025349],[-0.1262224880780198,0.032600179960675615],[0.00663373922133238,-0.07526069874002717]],[[-0.007433714264632983,0.015764807235701717],[0.06315515619347196,-0.07052222905671106],[-0.06367587562573761,-0.1189235191808044],[-0.07730320882372223,-0.07388920573349707],[0.05898646369234055,-0.08955800023423179],[0.06051223852233016,0.008343148965386822],[0.0584977270543988,0.02910369419417366],[0.17079329208427854,0.004932051606038484],[-0.005488184901804159,0.24599283204650774],[0.008405686133321072,-0.06655997458339223],[-0.23100571632180752,-0.04300163187503671],[-0.09308344541620633,-0.10459169752023355],[-0.003535557855158039,0.08830019923744348],[0.1424121687061212,-0.21000132182060965],[0.13842478857800264,-0.011285988555330051],[0.07937774581437941,0.11051318927442053],[0.1923478047701235,0.028110513214884867],[0.024163439533109923,0.05099566585027299],[-0.06640049325974558,0.03535909770836159],[-0.05815772464229952,0.005788331918436302],[-0.05779098167348148,0.07967828601285376],[-0.04678674797726343,0.15208372593707778],[0.16466214644158733,0.05052375862240553],[0.10670980249999498,-0.04252161368036378],[-0.0335375589869689,0.04554040800548007],[0.09952429248138935,-0.10846733295722363],[0.20537360097634275,0.08435667973676779],[-0.09413331421755963,0.2060976664939026],[-0.09705570716425263,0.027219355606600954],[0.182023774985448,-0.06611320923137978]],[[0.005202764476238034,-0.08490469135130692],[0.07337402551087707,0.07662527345461852],[0.11439575746759513,-0.04904172015638524],[0.00972782481411292,-0.039633571556013054],[0.14754039232118699,0.09973986465414601],[0.23546535446253553,0.12146674655139902],[-0.12745200276366486,-0.2544252345090347],[0.18044377865891834,0.13759144459032321],[0.011882416220517432,0.04283252673465821],[-0.09498870507721284,-0.012097211784375214],[-0.07347760983842606,-0.10518882160781462],[-0.18250975041337378,-0.15335067036760086],[0.07423684698456538,-0.12741154365118854],[0.09619239186290567,0.09434965503534634],[0.08934312797065522,-0.059466394563086236],[-0.009730101700342301,-0.13690960189456342],[0.044692873645587716,0.08053165198022447],[-0.29083241649315894,-0.16320778806437256],[0.01484132975297271,-0.008194274665572678],[-0.06565279081621002,-0.021838651443158445],[-0.06770247354033886,-0.14543073070321122],[-0.05473519215379662,-0.03911391263303386],[-0.006790728137805613,-0.02626690209366074],[-0.03540591211649374,-0.020328801225187328],[0.01654626751058883,0.06231128522593526],[-9.9801163386829e-05,0.08653139300386561],[-0.009923222396210327,0.1020174223026152],[0.1075637618865833,-0.024835493266645043],[0.21157886812074217,0.053214926852859966],[-0.1261279805702137,-0.1533894791515757]],[[0.14439474544947145,-0.18997112619943043],[-0.1313139526565204,-0.05674663550182122],[0.11170956268291786,-0.05016409447983924],[-0.002447404803679698,-0.09790676846425929],[0.16580919518238155,0.08230143087518417],[-0.11376645575436942,0.05569616235353886],[0.0852661182128528,0.06709610174039515],[-0.05075594932728578,0.03830673742144251],[0.06293655517165204,-0.07759316380080204],[-0.09910235623986927,0.06969181334277186],[0.08199194842256578,-0.1001918096656235],[0.04144784316701962,-0.026715574052368036],[0.16658127795780656,0.07509989524911002],[0.017590366600634642,0.040933809925863957],[0.03965030439560147,0.13224722863906263],[-0.1420583541406859,0.12980725226499318],[-0.142762215958676,-0.036445502721533414],[-0.05744270527473721,0.18852313597627812],[-0.0050830949943174355,-0.04588161029269585],[0.12794920144055988,0.09425848076160788],[-0.012437018674097609,0.10365156857216537],[-0.03423336190629124,0.09240773995578198],[-0.02490173816759279,-0.07526033154403522],[-0.19228305655324068,0.007536714718365898],[-0.01739413649264544,0.051390548925739146],[0.13437968570327596,0.014606414438810455],[0.12559325053328635,-0.16165963294348384],[0.24266989081718718,0.16300252749540234],[0.08769445918922128,-0.08878735302182565],[-0.031153124158749476,0.028205331794425505]],[[-0.02641236320355272,-0.05204586327207032],[0.17415914218190207,0.09132491350410575],[0.1073538577471319,-0.127993405850386],[-0.10736030696933119,-0.042879360250607984],[0.1286685132472797,-0.1881158703881687],[-0.14538298421099757,0.14606891053679427],[0.24024662018372364,0.08342217894615447],[0.041663909290574425,-0.06565643184515473],[0.20177820358731155,-0.12139368972400622],[-0.1635713832208036,-0.07190151004381903],[0.03101718886694437,-0.06234149491335086],[0.10718923804448097,0.04840333097508858],[-0.01546124235446863,0.06319982994338982],[-0.2007379357697827,-0.1525868436960677],[0.07078332316998766,-0.05889084401696433],[0.0853279061674977,0.068676670398186],[-0.02683716320854271,0.022920506963231772],[-0.37708811556208544,0.008082922382325448],[0.032484308801350226,0.010764161913987992],[0.04602438650606164,-0.10857244341615174],[0.07746667628502144,0.13241646086556733],[-0.00908663931747878,0.0008866845233704035],[0.09262352971776647,0.07549594909568919],[0.0010197224679201042,-0.0835183378886293],[0.029643639199033758,-0.041574169554635984],[0.08341628197351594,-0.019682993751425425],[0.12845019887893072,0.10729214850263445],[0.19055227642045924,0.027766236851730523],[0.10452422616714892,-0.09872610477976065],[-0.013921763980058522,-0.09699506480592263]],[[-0.026369852140620195,0.06678051704238394],[0.1803775949004234,-0.02980213585288307],[0.12193963156375183,-0.1265981661995675],[0.18818808302495324,0.04794355903492451],[0.11636681197772787,-0.05932156571778674],[0.000421473710108333,-0.03754632503984656],[-0.06691138679931816,0.06479212010487187],[0.027322017208764645,0.019988715318481193],[0.007475042492494872,0.03682654399977971],[-0.04534572314780653,-0.07704768776178579],[0.1478640494643615,0.027356803444429277],[0.03639574517064398,0.00790258299578397],[-0.12156550828759989,-0.01736876815734097],[-0.05878774551134075,0.10157965946898405],[0.048772186173930525,0.15539286269572145],[-0.11062963977244239,0.023961112184807207],[0.03143804308334063,-0.10772645199707406],[-0.026630487531019417,0.14498707228399785],[-0.05237377690406509,0.0166706369741709],[0.16851865893814066,0.08395990905509929],[0.11738695211675669,0.010680233938282917],[0.13101858250093695,0.09822393616966425],[0.052466380798376046,0.019376624916730995],[-0.1322516421653631,0.005955997469628246],[-0.25046164854867087,0.11869373351473322],[0.15915409916126175,0.14305791901308],[0.13544347616986602,0.10740142022068072],[0.054375621481112545,0.12947492972526853],[-0.017742336183398197,-0.08615694588263176],[0.16595282239495576,-0.038948815365990465]],[[0.07866547598990625,0.08615219876902308],[0.06341744813541603,-0.02065248582172131],[-0.04297735187885431,0.05210049746075961],[0.01834317165072569,0.11034862456925777],[0.1385104090746322,-0.02673831790501843],[0.040077911764425156,0.06659721712696239],[-0.06527072601888938,-0.11876464992030886],[-0.05272319453222107,0.12606096777165693],[0.014367825533904184,-0.014516309758877986],[-0.02925778487981692,-0.036741707934286286],[0.16051092528913877,-0.07263307088591381],[0.08818316214694887,-0.004507613019364767],[0.17771618732157426,0.08845944871874448],[-0.012687638361667149,0.19290017042670582],[0.03214290579377485,-0.052298794381301],[0.22716206120690202,0.011259336080613528],[0.07406589041111981,0.04408909878985009],[-0.05547121291351754,0.01709416224042297],[-0.007662735447547424,-0.11528400996308508],[-0.08764042069015665,-0.03837593529119885],[-0.12258443218968079,0.147730832375701],[0.19302069686502063,0.062370088418386684],[0.23230176122343638,0.016944634501960567],[-0.1437848151497819,-0.05801909424321202],[-0.0633754766106428,-0.029739672854600385],[-0.10711203863069076,0.27238961390183686],[-0.08445819114600518,0.09179232850224149],[0.22732395409889058,-0.037480386213870336],[0.1220685850063556,-0.06681711437428628],[-0.002398562263597491,-0.05495609794909497]],[[0.025793831527885558,-0.04565648507870944],[0.18104932906708857,0.03294272108921059],[-0.07136798023012379,0.066993163261196],[0.09579967457610097,-0.02186630334212883],[0.021779398508550405,0.05737191162934534],[0.006873061104927219,0.1741938311419046],[0.12670829465445105,-0.09136144232445319],[0.21947853430330488,-0.05585440755624839],[-0.014216875525681402,0.03633483991287397],[0.10664076820552262,0.04038321570601907],[0.1599760143795876,-0.1435539446673015],[0.025717136861802506,0.10070412074234818],[-0.041442108378820466,-0.05469637819736794],[0.048472559285086966,0.1192938761335307],[-0.0009837076190848547,-0.11179917099361836],[0.059893512110581,-0.02105458002595948],[-0.03391163137609916,-0.17565956025587148],[-0.04200567222259376,0.18528411397026176],[-0.09561402984488858,-0.056531297972296744],[0.00969640113906443,0.04494964017484612],[0.1568521315432595,0.16572465720911203],[0.09437852722122089,-0.0260457905644183],[0.13301697721440137,0.013592786845556246],[-0.14078346798446859,0.04016190556101564],[-0.026681875082423173,-0.011955972770956405],[0.035248578753994016,0.01842217847932924],[0.10174444913302164,-0.020348579287094767],[0.10435664610979609,0.08287146630783962],[-0.010796021664115207,-0.06518222895634813],[0.26887225981481716,-0.04948314303032797]],[[-0.16152171114260594,0.0075957596914254365],[0.19310298125888767,0.017639268591478865],[-0.031111297143214485,-0.007792247322773426],[-0.05075323112244267,-0.12976936374938725],[0.015580282922274195,0.10174799395823976],[-0.16347248655175087,0.1279762232198492],[0.2501521390739564,0.03535324951309092],[0.15165706060911038,-0.01319379269153046],[0.012239221686025797,-0.13973755735041288],[-0.06312705850120258,-0.027302157442859885],[0.16223379512662478,-0.16055023447610528],[-0.04649272789428545,-0.1054884381291199],[-0.009558730142065151,-0.07222001099894099],[0.1215849629025443,0.07065871892350337],[0.01517863545889718,0.08326721522418691],[0.033471655733479544,-0.03956630958253059],[0.03758592117674551,-0.027935085627657136],[-0.055155649841012976,0.05455100990219911],[-0.219130607637135,-0.017089050337862004],[0.007779324578415859,-0.03365597072887151],[0.18208551704455186,0.26956904850374536],[0.05756272124179572,0.10278790992109971],[-0.05153344276148875,0.07009862221084202],[-0.19491504139685906,0.03599469776249338],[0.06293006067004972,0.0918677406665519],[0.08937740837837092,0.22219278238892415],[0.005584300814953225,0.18929326366716626],[0.06621737763034774,0.029286862920557762],[-0.029652512980768937,-0.16216311190344257],[0.10868216483960134,-0.016618942804083957]],[[-0.07155838072609051,-0.047374995970482774],[0.06285717687500887,0.12566019121244168],[-0.079047114932048,0.059638326438427966],[-0.050587542457921124,-0.18379301697579722],[0.18070260340931069,0.07813845114828928],[-0.04119838289300243,-0.06805660050495119],[-0.02927045057799087,-0.0674545349971032],[0.12707081702575315,0.17807092321656232],[-0.0030549348852499762,0.0606969296817051],[0.04108228513170946,0.10844089836020261],[-0.02574512997483294,-0.049148277236456143],[-0.038883768091319444,0.060949510425454975],[0.19185806106792638,-0.04474417665446026],[0.08442653678804816,0.04281169393233999],[0.03932941817136356,-0.021114299697117575],[0.01883518027119955,-0.013173130987506713],[0.02321331169386225,0.18059945999657515],[-0.19873295476392525,-0.07045882159589982],[-0.1575775769210756,0.058095255487065914],[-0.036784768641519756,0.04952512419150121],[-0.041381260738712324,0.11898699775089765],[-0.0016419433541719477,0.07718117095599643],[0.11873101738746492,-0.07161479099865187],[-0.1348820490761265,0.15815015007693073],[0.02431964606153004,-0.037131997890206055],[-0.011184497809994849,0.05623900228235678],[-0.017999584482640052,-0.1639647768888161],[-0.047363811371265316,0.04734790298414679],[0.05861347123024471,0.08123261701528821],[0.055082334388257166,-0.29704136861490377]],[[0.015444652678710667,-0.07944509320040206],[-0.21712695980238078,0.02115392806732792],[0.20737341964598108,-0.27490360853879914],[0.08173571117527752,0.013246966906489764],[0.11602595609523941,-0.10550176596786502],[0.11548839493444465,0.05361662226826028],[0.056566011296483816,-0.13187407630720174],[-0.08758158156749297,0.07457268179454803],[0.012192913922981816,0.11979912143254547],[0.18288300966601173,-0.00733210470692195],[-0.14122583373256314,0.1607556842545681],[0.10841123065693341,0.14399676369433365],[0.13551124911608886,0.027689195855552948],[0.1689746441017335,0.1460909311065236],[0.05011161996745478,0.08777302342495578],[-0.005662061854742301,0.1179800283350937],[0.04404085033985608,-0.1201934835678702],[-0.07837295222953254,0.2154539585602899],[0.014340238318820824,-0.05787492598512958],[0.1870259075973895,-0.0638638115750485],[-0.07389225163348903,0.05312376621790643],[-0.33576034354948914,-0.134629308748264],[-0.13851524978251625,-0.04856657866790778],[0.06647825221102735,-0.04950955254733713],[-0.22739700728452003,-0.06785954243339408],[-0.015296706257468916,-0.050265878591970674],[-0.01024209797708758,-0.12249505173426439],[-0.12107433650543965,0.03974124438385998],[-0.14755278406325073,0.08158834287260723],[0.0747721153711135,-0.0667360652024313]],[[-0.1484999968822898,0.025537178358528746],[0.05038422986557894,-0.012953840890716465],[-0.18420477051627315,-0.03873629268993615],[0.002515776983948358,-0.08337397399419819],[0.022097094513159603,-0.19950400552571973],[-0.24218940425246538,0.07487276984711044],[-0.22659174145757444,0.054836241230190735],[-0.03230227693082889,-0.0560580841331642],[-0.2542362474119917,-0.06750276554496584],[-0.10583022616950485,0.03121727341540803],[-0.09836494697572655,-0.16494514092786494],[0.1058292032833888,0.03637129358251132],[-0.11287208478035912,0.1289788589626429],[0.0286093889169189,-0.0008112482895720244],[-0.2433531206865364,-0.08270609043031518],[-0.10597219323571626,0.08917136739235948],[0.16160357304984393,-0.1799714101171545],[0.009188948043435757,-0.258630051961485],[-0.05608856678129162,0.0374986280238548],[0.25093984088152294,0.039846704487645095],[0.1489365939723541,0.02495832974099526],[0.017625196720846358,0.2653164850613852],[-0.02640650511054015,0.08295320383004025],[-0.23558234375884263,-0.019623163745693152],[-0.003412005685434739,-0.10270528866117536],[-0.07168469737305144,-0.11467567978181549],[0.17554456802307905,-0.19096971382769243],[0.11301003185112143,0.1920721670600924],[-0.15238999948759643,-0.08149249175369848],[0.14746784692469828,-0.1487155968006576]],[[-0.22361849445215884,-0.08724813538457049],[-0.10359662530120095,-0.176865516413223],[0.16123655412044557,-0.19176818020237343],[0.05789178239359836,-0.06564805990754236],[0.04343611438245855,0.12050534042171765],[-0.15847574843212012,0.1437607723231684],[-0.009873500792943211,-0.07812238535128352],[0.05914664377468115,-0.045453841641030654],[0.010252019306152087,-0.08957161172913258],[-0.012902716212472133,-0.11160816340399697],[0.03452539843444636,0.10543134271286835],[0.03179809904039986,0.17174835515893636],[0.11874521507922971,-0.05027721319272331],[-0.0995481334799542,0.04277369274770729],[-0.03538328843825492,0.08884109384348705],[-0.015745734056918825,-0.11164831887355262],[-0.01367353569001592,-0.00829698217656702],[0.10788987665329951,-8.075720817729948e-05],[0.040697850063628735,0.05122075627842422],[-0.027646303324472966,-0.05977319145782642],[0.09723235031548601,0.10826035207564384],[-0.026925069000482985,0.11278860416942121],[-0.002029711962106156,-0.022095322081554243],[0.16038828822979856,-0.10915634836795592],[0.10588671126182567,-0.08177005458500854],[0.09939707953644664,0.15461324478369853],[0.06768111859734609,0.04435560295462223],[0.07078257495371805,0.020605001666229472],[-0.026520550465261035,-0.13655755540375059],[-0.08571982256688683,-0.19677993710382868]],[[-0.07977795861277373,0.14725772221966882],[-0.04805464056443271,-0.0025487777799314774],[0.204204872895993,0.15215480758503286],[-0.040366623132905295,0.2116636684739066],[0.06027039541867975,0.052375450497189134],[0.10275842800153709,0.027948578853105387],[-0.24347118512387567,-0.11206199939140553],[-0.09177576077356667,0.08959964456015515],[-0.1309645234349113,0.008834530446814712],[-0.1496682947708274,-0.0531451564675855],[-0.15086985275942755,0.03544654805000008],[-0.10225878782405794,0.1376378600342762],[-0.07978064142191581,-0.15283420283645444],[-0.03210478732523492,0.03176097790762883],[0.13110097868837076,0.1186279898067884],[-0.13451364232709018,0.0382359170634161],[0.12052735496868294,-0.0985042779318827],[0.018532195897382638,-0.1074051632167497],[0.07363668820912056,-0.13399607044924364],[0.04440642391867741,-0.05533632812324588],[-0.19012028849318513,-0.035885749037678466],[-0.2543624697618791,-0.010316795436524352],[0.20737656820222225,0.02613253435845241],[-0.03377600363458047,-0.01632687048960588],[0.06854638953975453,0.00648215712575624],[0.010992225259456633,-0.056349469532451325],[-0.09257764825026386,-0.10269514166500124],[0.1399382758303136,-0.09828316875103023],[0.030847497285098127,0.04153968777437776],[0.02053762972135975,-0.16626583012859064]],[[-0.0965738424687307,0.05333581348538453],[-0.16889855527757888,0.020146695106639995],[0.009307073152060022,0.006491091396667324],[0.16434673101508088,0.03814353574944012],[0.19424515872752607,-0.13114135726678539],[-0.02356924002494863,-0.028901001420759142],[-0.07383160154091838,-0.03685401035396536],[-0.1642669597083286,0.08416189633169016],[-0.0025400592267547993,-0.0879796133325817],[-0.18344672236693726,0.12955581123816165],[-0.0008501375218553723,-0.01946577286243663],[-0.16651163453338116,-0.16742642503779534],[0.06732615136141615,0.03978284742712379],[-0.053984754131224874,0.03083896305659028],[0.04972735497539414,0.07885528839099484],[0.02980211704009333,0.05055212790865356],[0.03246261259454961,-0.13028932112598668],[-0.0480183898485514,0.06440196304862186],[-0.04745559391428765,-0.1558069474014499],[0.0034527429685408083,-0.058677621388394594],[0.030621184441481285,0.14446738272322074],[-0.021790327429285505,-0.030999327186691163],[0.07019456429449682,0.11661068847840848],[-0.1725984616858271,-0.08377605432917687],[-0.24855644291787968,-0.2265097247768255],[0.07755183824389839,0.13540320504354625],[-0.0317458937256817,-0.17026732100610933],[0.12278357833569506,0.01849710074818441],[0.06067054202758507,-0.04860027946618206],[0.04979713338396663,-0.08018111244936471]],[[-0.13607134944967483,-0.03824540801810244],[-0.20949626077211977,-0.18468405528219992],[-0.01612393053242916,0.0970243073218275],[-0.07484737031278563,0.10154728785184931],[0.19038558453006058,0.03592328083334883],[-0.041771265888794464,-0.022951332086765877],[-0.1920355134932377,-0.02087001461429042],[0.1124726386525297,-0.0132599985892236],[0.2368667485780013,0.0953582824380953],[-0.10619559621844156,-0.08304428534077452],[0.02766114207244624,-0.1105183825663371],[-0.07989393445762302,-0.07229106536760643],[0.26358701402774837,-0.08395342163784994],[-0.024513521103544836,0.20902981289360356],[0.09363250969443651,-0.01468502259542412],[0.22055787561074824,-0.1912252464298139],[-0.12699971769641605,-0.13727010233496625],[0.0548874459540789,0.08767080842194337],[0.02290013207735281,0.0012866296007297336],[-0.033846836330062254,0.10346869020962048],[-0.005082250720130074,-0.032017481574191584],[-0.06197711952351104,0.052205668102027515],[-0.019460707631713533,0.12760850192318118],[0.0654072880276146,0.05432305602491723],[-0.12675721812098895,-0.10971587973720227],[0.09885431988861094,-0.06434961289131957],[-0.05121391243984394,-0.07410713223596284],[0.0695070354779744,0.23723803038118813],[-0.07014000844945463,-0.1353156934612567],[0.01189537283515203,-0.0645721437910514]],[[-0.02755525814808474,-0.008096521170374696],[0.12088413735205464,-0.028204417141716034],[0.047321308111599035,-0.002532014214358368],[-0.10518754073072183,-0.01195957829235616],[-0.11905173987846429,0.1196960664926058],[0.07195371286017065,0.005249966538390583],[0.15343052791646053,0.07052783018988344],[0.08459492292144621,0.030594012343256843],[-0.129010734840676,-0.02008543454495753],[-0.20568894269885615,0.05476420018592564],[-0.022867069875585105,0.19319075104180666],[0.06448693000873672,0.008419937599083877],[-0.10158045571887019,-0.12389312997856991],[0.040741795090043914,0.1590216272950847],[-0.06434021026099476,0.12810212618983652],[-0.14499354878085316,0.023365630477107602],[-0.006814954647112795,0.01923267757362727],[-0.16699537990921656,0.020434291178807722],[-0.09534348076624889,0.02425385377948342],[0.06310095422551967,0.044272199809438736],[0.3722333668348591,0.19563403356322512],[0.04765446235949421,0.10288361920734539],[0.10324181801018636,-0.018946991411254967],[-0.11389646980732611,-0.09546894407314989],[0.06130495764167063,0.023409420363395494],[-0.10611313531386078,0.0029156910351850825],[-0.08767824844281168,-0.08938368516993925],[0.06453558454549692,0.07708009359801808],[0.09368042363610529,0.14180340812847117],[0.15546407022968675,-0.0693594823471905]],[[0.3242336529806045,0.004988259648584992],[0.03992672849293432,0.04917524680243091],[-0.07703558954073138,-0.083332834307882],[-0.0800456373865598,0.05488641387346699],[0.021338786552195968,0.027789667537221157],[0.22274182780355734,0.027789865123497775],[-0.12121897191609837,0.08970559872768068],[0.16206563128756876,-0.03170270214515096],[-0.11715660085085003,-0.07477212178702884],[0.05290857835613896,-0.13069027564485783],[0.10431725473081063,0.07192559052339034],[-0.02470776697930076,0.0152372753524882],[0.02539465387856845,-0.12165130210392452],[0.026516495108165315,0.015551239415376585],[0.005440955696940604,0.24201128403490418],[-0.04654407094900505,0.14854233414739942],[0.0010349113782557727,-0.005347539897355287],[-0.02885679632185583,0.10971335067428968],[0.22151806780058356,-0.2176283192062016],[0.12896862881766333,-0.031463804837628694],[-0.15679595703919275,-0.05965068922959904],[0.0998283311184782,-0.24298647502999848],[0.17841901231017385,-0.1294476708475193],[-0.04772157783563984,-0.08485608090186915],[-0.15062232785941992,-0.0773294407076139],[-0.033809755744240846,0.019339852482503986],[-0.05451417930443125,-0.02952940437582345],[-0.19010007919457977,0.07878148756797619],[-0.0037746228098196714,0.04753499610888355],[-0.03740919532206365,-0.1894090067339278]],[[0.24944833640211703,0.2312509038993949],[0.11045591289226034,0.28510590254718793],[0.0702990445476377,0.056061120766415624],[-0.11163888430001662,-0.11591616638605999],[-0.07798332084381866,0.053130871421950276],[0.06553584048961521,0.0011885017483817745],[-0.10222170399795524,0.14629547081013403],[-0.11256384099734552,0.038926104510536706],[0.14198366441531707,-0.14248184781324252],[0.10495713909311936,0.08193157693789456],[-0.051304371595174904,0.02641758709837842],[0.040295381853440546,-0.08087930657949287],[-0.05671557453026434,0.16009716039639205],[0.0029482758946640917,-0.0058753992291960795],[-0.08790242380601235,0.057556921582686334],[0.010550955582118392,0.22017575709016404],[0.41413985930414976,-0.04597695256292706],[0.19855118662938026,-0.011219704502286371],[-0.16325537025705453,-0.07263930355236518],[0.11002874888320686,0.0690726069216755],[0.059688206641015484,-0.07001152018495947],[0.011848511321671822,-0.1935668169393199],[0.013120976980117926,-0.2233921366619535],[-0.09351023100658085,0.036701854617137056],[-0.20795831430181383,-0.05582694764271819],[0.3184897971044295,0.11654814164287418],[0.17284255139749302,0.034658161562358146],[0.1690290955769104,0.13160200669500122],[-0.05770061060336616,-0.032876603331322474],[-0.03439406636037807,0.08905183405926981]],[[-0.04731022825959312,0.036861959676365214],[-0.0833841519233709,0.016967003379946884],[0.032863908906166424,-0.07991907708519204],[-0.23210048977928854,0.2918701600969878],[0.01553770720963054,0.06599403198974861],[0.03231473553566175,0.045704953891519996],[-0.06445168828814522,0.09299239567756167],[-0.08708970651232069,0.04593096292034267],[0.10726900393767104,0.15304014684062983],[-0.11230603071418599,0.017979611847009136],[0.06878615957278018,-0.10386219566170259],[0.10205393728337406,0.08322280407400591],[0.005559967516761335,-0.11371397846997644],[0.05415819740077163,0.29923355878224894],[0.10885099351885494,0.11656171377581939],[0.1272396493674819,-0.1837267535550468],[-0.14015942389173264,-0.016532368671000046],[-0.06468107510869112,-0.12737604103442518],[0.01974127544698379,0.052219829805436414],[-0.08081560148009606,0.022363872205682738],[-0.09831130538462673,-0.08395867278340788],[0.11024797924621801,-0.04885826540105692],[-0.03468717908311393,0.024638607117389473],[-0.1244466487245058,-0.059470388944046146],[0.11507006545937395,-0.16764570071759324],[0.06267541668598606,0.08822064123088161],[-0.081847282679365,0.059512408037781094],[-0.14348113304672697,0.10610714349069877],[-0.0012595744430547455,0.10968431320713773],[-0.06441824248723942,-0.11876008426029047]],[[0.01760523972345541,0.05470792772648753],[-0.017212944937682054,-0.04242399802297039],[-0.11206874037941164,-0.14555924911565196],[-0.14353471086976116,-0.046029847945946244],[0.10991326689309068,-0.12254232621193106],[0.003691641910683188,0.012729953652695875],[-0.057697765113120796,0.07650842561911261],[0.08810830311232966,0.06064082442195009],[0.07497992858356987,0.062129980881011855],[-0.14394494837185892,-0.13697326586491604],[-0.08994818105958634,-0.04478409857635777],[-0.14705477724279822,0.060941367899754795],[0.007795661110974771,0.051761948040865036],[0.0445598089113049,0.0689010532631064],[0.02132076719561075,0.1469416307248035],[0.07468329260399775,-0.04989077344330563],[-0.09227673161210637,-0.21611480109201608],[-0.07487103169706241,-0.01897759135431432],[0.18755629655044226,-0.08430671701401651],[-0.1332785683500193,-0.03650268734260614],[0.0810598112976621,0.024171919722391546],[-0.12997534310813819,0.12254933641721283],[0.07292334585905881,0.05535680868392535],[0.23424170605066486,-0.19244357141225502],[-0.04063636813120071,-0.01565647190486631],[-0.1766440185661478,-0.012557456778710686],[0.1406595986092624,-0.02551993437076873],[-0.014237175762178577,-0.035647177163452226],[0.04318756789067546,0.04167571582345023],[-0.12828446879283126,-0.22101143497696726]],[[-0.10091004835328103,0.1462146112257069],[0.10342721998198404,0.0565419704113987],[0.04438047596990648,0.07077737634266104],[-0.03443675737649904,-0.015445936122946383],[-0.06914917198858832,0.09748184330905435],[-0.04156243471202557,-0.02756786662407863],[-0.06708853983621461,0.006879731867868433],[0.13978841532243957,-0.05124594634965541],[0.13611322520885422,-0.26211720836695296],[0.052489835662690894,0.0327644787874688],[-0.09839146340498127,0.03486157938163794],[0.19050002366409338,0.008677459790259313],[0.04061744052291272,-0.21810141883096668],[-0.12868320167759442,0.15459299350236824],[0.03667357736724892,0.2225997921781943],[0.18870360635795508,-0.07171346138406512],[0.07617978432219286,0.03379885031133308],[-0.12901753610112307,-0.12669090417558057],[-0.006614156066703254,-0.04280563551418611],[0.00834227111972756,0.01921288834897688],[-0.09572115860114334,0.053912586471285495],[0.17367564103377858,-0.03647129647729746],[0.06953315852694368,0.05897484040452784],[-0.013688614068711337,0.07511294793054],[0.08511676735867478,-0.087352017060773],[-0.24547592436342883,-0.040288880418705625],[0.015017757577781603,-0.08666374809885805],[0.1649088237669735,0.03391551637684825],[-0.010688644778625977,-0.04883945805358406],[-0.014360573345664113,-0.2896840706965078]],[[0.08724828051841389,-0.2192018591682582],[-0.019611631032335854,-0.08125415482283875],[-0.09785811752697599,0.0668703348049606],[-0.10064744463574808,-0.05932002828679787],[0.02247645012140376,0.09596451109597443],[0.0777847844185808,-0.007064228417998911],[-0.2974258955861955,0.0404352981796138],[-0.0030060775755915035,0.2690250609790026],[-0.15491196809188887,-0.0430442829216235],[-0.00822992251815442,0.048476114951536295],[0.001047812582394588,-0.041942681092025834],[-0.13653691685099262,0.021784291187647475],[-0.07737588435436706,-0.0701790712082564],[-0.140652621878458,0.29822776078383684],[0.045485349672860956,-0.11032057692180963],[0.11108796432565571,0.16462864402373895],[0.14049261381988568,0.06019166053028771],[-0.007242540766864594,-0.2826081179360803],[0.014025323422318324,0.15377695526604426],[0.2852992152308483,0.11208614211724492],[0.2280079366825012,0.11555368487156334],[0.10186412062360391,0.1978363495896402],[0.13873258624640075,0.08390562186040866],[-0.05902499571333105,0.060827016279751636],[-0.09656969170856093,0.06834673272467721],[-0.16009139938758837,0.0018877628835465901],[0.0705787968778069,0.11774630925677625],[0.11752651544300091,-0.22712279212584727],[0.028341787213601272,-0.07833904049932507],[0.03593197285807398,0.03642371898445039]],[[0.004561614241333644,-0.09457943310367437],[0.039738119793997266,0.03029368357109266],[0.015491500934056511,-0.11320832983630276],[-0.09134077819322162,-0.03725821572969941],[-0.10855504635745519,-0.03257990706445072],[-0.14667215751893625,0.14386057095353855],[-0.06461402905410567,0.050165092321181146],[0.06632939179203234,0.04040793090118667],[-0.12386071348154465,-0.18186842402136127],[0.0017476448588347624,0.12205382415884707],[0.10001726370372457,-0.05431272328337307],[0.2829728535121264,-0.030464328177234663],[0.0723091611900763,0.17308292601538972],[0.1878269242735618,-0.06247020092899675],[-0.09430833119522923,0.011480560671170799],[0.15951545892427152,0.16954495120913693],[-0.1286971121577197,-0.08632249853313546],[0.010216840660222139,0.09042917891540501],[0.048412069647354894,0.02483846731160317],[-0.025237353295903143,-0.03318718397774103],[-0.05018472775146441,0.024058615995091476],[-0.18628727807324114,-0.19224610282959356],[0.0756007669884291,0.008586002194005316],[0.0446838399554982,-0.07062335441767585],[-0.06022795114735495,-0.05111870664828018],[0.024840771296034278,0.012184113100327394],[-0.08021666172433055,0.019113564462908388],[-0.15399631835672375,0.21635117299093976],[-0.10296264889213104,0.16689725367355704],[-0.00716951267405024,-0.06474747141113885]],[[0.023968528276260774,-0.10415493755776245],[0.06193494746324224,-0.05208304800730593],[0.00581103355217004,-0.016591849371761995],[-0.15824153542718933,0.05769411432363515],[0.028429339467193823,-0.13535357035509465],[-0.09524146943926755,-0.03061080455368032],[-0.10802273149999282,-0.033254518753298504],[0.08055679849349251,0.12461007239174894],[-0.07446018178278398,-0.060743405378399264],[-0.022012452361228608,-0.07971730925812344],[0.005809073167337463,-0.08775418873010445],[-0.1203635288659616,-0.10536549159130018],[-0.18060608414618937,0.11063855418740555],[-0.04431998765636137,-0.021970206239962604],[0.19764021226734035,-0.10475368667598772],[0.1547257306874144,-0.04838156827746152],[-0.04499121471422278,-0.05110903822684249],[-0.23044893968210164,0.14724432998025697],[0.027996100808459237,-0.05550615360041946],[0.2630214354236637,0.15760849929906112],[0.1607343350953342,-0.15920200729162862],[-0.036455741697265,-0.031217605306556474],[-0.009259484293617296,0.10592877787328144],[-0.02229483357460338,0.03142054648035099],[0.015360157267604839,0.05931373435451305],[-0.017321792781904904,0.01731114674400236],[-0.17795917409631581,0.16910877031360444],[0.005053399712461735,0.15627343148808565],[0.1680216051979682,-0.22662943849049536],[0.07308549014555173,-0.21670664946672633]],[[-0.20375500323676832,0.09876791223380156],[0.08315899626978838,-0.08702681504532653],[0.08878713432443942,-0.07474562515536579],[-0.06758959139405409,-0.2097953082395783],[0.13100183518353256,-0.1235795878106253],[0.03714127916588985,-0.07665426403180714],[-0.09474309212920062,0.08335245755536036],[0.31048356439780395,-0.09518624238361607],[0.11347974382785089,-0.008465932405929643],[-0.021070131189785794,0.046438675571817356],[-0.0312375044776125,-0.019437208797220887],[0.27916868003689915,0.06889433870871207],[-0.30207485919031585,-0.04082871571692771],[0.11262723334183922,-0.0468548779398288],[-0.28232462055479773,-0.01582344525393934],[0.00885320422615757,-0.10103983727444563],[0.0175536856423651,-0.008581964668849756],[0.14712167181865798,-0.21294546568672287],[-0.15189759343855808,0.14839034147632738],[0.08607897607510456,-0.04748830245992063],[-0.08435513237456183,-0.10388970341192005],[-0.058528139560662475,0.3088201700737099],[0.18910545744531565,-0.05199068852631132],[0.07775484608727927,-0.19456446878688402],[-0.07274056706829464,-0.20530542194444631],[-0.07539100831327102,-0.015429772120596567],[0.004823304890257046,0.08693421033343195],[0.12302498799476208,-0.03515628133175249],[-0.045885098276167116,0.12265660009502494],[0.09359374426390822,0.05750987419339622]],[[-0.08964812233883726,-0.10995905028672921],[-0.03641324014683839,0.09943218872912127],[0.03594224402683338,-0.16460505230476855],[-0.06814290020211995,-0.20264338653403838],[-0.003300444354268473,0.4079974329553647],[-0.1594834217895453,0.048013454856379735],[0.10626254472762695,-0.18143364965928413],[-0.032064247570527525,0.14262478350423993],[0.12264030263255447,-0.028802241692682775],[-0.04476728393026188,-0.13297112162499478],[0.09374248522802017,-0.14412731046393656],[0.0941525634619631,-0.027647308992625703],[-0.013252017592878432,0.03636649603971366],[0.12808178089664168,-0.022450734724836933],[0.1823898453490841,-0.1201697485676808],[0.03192103836291049,-0.0377302880239398],[0.03127211746770263,0.03541771991814513],[-0.10389423006082073,-0.055396310331792584],[0.012326929035788862,0.11293281426565502],[-0.1957603258818486,-0.0335803137922116],[-0.030886305240899057,0.018375797190101656],[0.023792280226052755,-0.09537698392763407],[-0.01876220288990385,-0.0905645694102929],[0.07227610596500718,-0.02163948936410714],[0.08895329640628989,-0.08490909569311769],[0.13797609729448923,0.14270148538282462],[0.10096853022376914,0.14488963569496577],[0.06795754918832032,-0.05788151246980441],[0.004301097905119082,-0.20260845222566093],[-0.09785313551933335,0.09820954779622813]],[[-0.2269030046143547,-0.24651444663155103],[-0.0194368600801646,0.16714278457947102],[-0.16618165145487518,-0.13931386408163876],[-0.004820022739063738,-0.12919274218544108],[-0.06088175850833455,-0.03659283929444854],[0.04203322954276641,-0.0744357056705471],[-0.05647814809292934,0.037894015375785996],[0.12289205129458003,-0.012344758087925607],[0.19102473000367254,0.004121840214064794],[0.0001585543333483895,-0.07920443927368526],[-0.024532820968598174,0.1412717147046797],[0.10189288362362796,-0.09118736665378566],[-0.21676721019864983,-0.05876422969111837],[0.09696610084544699,-0.05963961266089222],[-0.10712582694952563,0.09871956459598956],[-0.0793276585110857,0.03897671501909944],[0.1567187535869325,0.15864271237896188],[0.0041164149991536995,-0.2616644666146003],[-0.05164788002417699,0.054544276836845824],[-0.030536515735865192,-0.1969841483070169],[-0.01076289132178973,-0.03270616363667862],[0.008712920734578933,0.014795942747531982],[-0.10878015663936609,-0.19458443093465497],[0.02597813568152352,-0.03100342236738882],[-0.03379611981054222,-0.31262958423179044],[0.10614509024572485,-0.10802941537838641],[-0.036517346412700394,-0.21546869310291902],[0.04244876626178737,0.003026820653782051],[-0.030478766844756817,-0.16853357556376292],[0.09912602511082193,0.046182331472221824]],[[0.07149428047347522,-0.11568322790526565],[0.15778647960365821,-0.07149176598758596],[-0.09135005321022652,-0.1646979055821675],[-0.09136341198996673,0.03776797474670713],[-0.1753207135165704,-0.0013906006806274347],[0.11216291025329549,-0.0595993106391912],[0.004493164503640957,0.09784570021085529],[0.039360670233650245,0.007541060946543378],[0.06861128694746536,0.06347618003339545],[-0.11797820237080978,0.06076921755246377],[-0.023036307414594778,0.1435186325590752],[-0.00982402940460873,-0.04904083127650968],[-0.09323172940342163,0.16976855188203258],[-0.03421678096692935,-0.06638824553693075],[0.02942170427987473,0.03600829068747541],[0.02415537942658471,0.12464583497313028],[0.13265822721367712,0.1574775021844891],[0.20811017453348163,0.033410498297177224],[-0.06676438280055995,0.11235628593756312],[-0.021909163611648,-0.0443149953066793],[-0.050690512459255994,-0.09068145409237188],[0.007972551707748405,0.0011092152184331034],[0.10199916735979796,-0.10806402128894758],[0.1749250190442316,-0.12504988224348748],[-0.07726254431274757,-0.09694946742386205],[-0.0025116219371165054,0.15854283545994555],[-0.08892291366265696,-0.07207736269766787],[0.043021219768529316,0.018550286391839317],[-0.09938457743913068,0.022845612921246504],[0.026020730948967757,0.10508902324283949]],[[-0.06029100201794492,-0.2763041746514501],[-0.01724930242072408,0.11225930440339352],[-0.18724110175497158,-0.1758146069690463],[-0.19353045607499408,0.1068145358596181],[-0.19400572052257475,0.09969657888570402],[0.06385466624861295,-0.1575234545535689],[0.10930693232093174,-0.15177870216466197],[0.07012675921579169,-0.014959824056791046],[-0.033447279448578,-0.009500063083497708],[-0.34087796732069653,0.09409220283416515],[0.04113519278822615,0.022858367434195948],[0.06985768253175809,-0.15057401748784505],[-0.21148067395821227,0.0055407308690744],[0.18913240927922417,-0.029910650584655665],[-0.03651227996107157,-0.01243897238783674],[-0.01937388080398869,0.08322490962301721],[-0.0849855459195298,0.01794996168653936],[0.1776536438806695,-0.034580827238577826],[0.03399466826438313,0.1332170713107141],[0.09350068885494354,0.1578567497572596],[-0.17181653501258112,-0.026580354596945917],[-0.012805679962693543,-0.08919243566627288],[0.08581573434199598,-0.12013232278565332],[0.14969763508118517,0.11975830774504484],[-0.2180256954908495,-0.16460508856078884],[-0.042898270708764716,0.028996792875764916],[-0.12182476690603657,0.23343120934683692],[-0.18817095500448092,-0.08889170100787809],[0.19167647020894021,-0.029372669703605976],[0.08461130315764188,0.05784387012778257]],[[-0.13738894782211974,-0.07338891433217136],[0.22743453592990467,0.09834672671604609],[-0.06502947587402161,-0.05494929859084388],[0.03648557061497127,-0.09104740932151253],[-0.05559250495465622,0.14761443618236342],[0.2997060731056868,-0.09179727880206341],[0.05081690895516086,0.0490632202753051],[-0.11586662994855808,-0.08160242492779031],[-0.08054551157028336,0.011816848041080717],[-0.10540884602513509,-0.15587069345853777],[0.07257476989009515,-0.018076360283152966],[-0.3171079499512442,-0.06021951209563035],[-0.017735786426026582,0.01557765932216221],[0.025481855620018028,-0.11193363227065156],[-0.0923746632080298,0.036486754402528285],[-0.10575507584850216,0.2770933243894638],[-0.020595191388009654,0.04305626284911362],[0.01485013913837841,0.1273026458045856],[-0.24945861081289966,0.1771552735324845],[-0.059304233414314816,0.02946954102486019],[-0.16978306922896658,-0.10386981114389064],[0.034368391800105036,0.05663113248428214],[-0.002511244513312659,0.01198143426643703],[0.06601638923388227,0.042450799602146205],[-0.18115688021588255,-0.05084751406149001],[0.12586912339962011,0.11520928482744079],[-0.03684894075178121,-0.14656727606398584],[0.09246226488021235,-0.04239247919241029],[-0.05512475426027741,-0.1140451370700695],[0.025491856625440724,0.21920817071555648]],[[0.12561946065535676,0.019988304337605227],[-0.06759262492334395,-0.017109143457534223],[0.09734313373715309,-0.043272477315404526],[-0.08603772471883361,-0.04528425059924266],[-0.060502563823799003,-0.176082704749184],[-0.1260986508910847,0.02215415673228177],[-0.09744175857739075,0.013716782408836465],[-0.007225669379962521,0.047621093138462814],[0.07147947787192714,-0.010690644782574591],[0.046474646576066016,0.04213901730371471],[0.09657830612639161,0.00959705373075899],[0.15902121784453926,0.0039147663910519236],[-0.16743881953422352,-0.04424367400107383],[0.21680946896999728,0.15955778469555887],[0.027640602435949697,0.1121220547109515],[-0.043034326775911916,0.10345451933643508],[-0.14503977962143944,-0.04950479539168569],[0.04906435126088466,-0.05732367810314341],[0.12671405794961355,0.17937136635017495],[0.17996461186540852,-0.039047659721168894],[-0.020987301657591956,0.015347762927656095],[-0.16403030622505893,0.07794778501361124],[-0.0762774302978517,-0.04894132467040334],[-0.16170332724377182,-0.2506151556968845],[0.031069854421477378,0.061536691272839276],[-0.048415189030223175,0.09708870193332322],[0.11514326960637761,0.12286711895429077],[0.09203574571426658,-0.055814467661630736],[0.05446925097128132,-0.12411356858912843],[0.06172160925643195,0.03281474435261478]],[[-0.05827189745676808,-0.18403521114854776],[0.14857767249510928,-0.00990916137173782],[-0.17595810845951568,-0.04017404645493059],[-0.04123973461079534,0.07705247106858769],[-0.1298914158778296,-0.06157828536879708],[-0.041216486313400566,-0.09884465878656362],[-0.019230013850860112,-0.0573851283219196],[-0.012614597651109987,-0.10021001887061065],[-0.021432950268063782,-0.20650910506803427],[-0.06608651638753237,0.08559061026607073],[-0.05734441166405899,0.12179878249116577],[0.14722853188358867,-0.06712820119896236],[0.11109931888204773,0.009173282446822579],[0.027670160887343358,-0.024516886027759446],[0.08219799089640842,0.08597026063266948],[0.12337149463257074,0.08344996071927882],[-0.010372133604840886,0.004227865946958515],[0.11142195753803313,-0.07952830668717355],[-0.10215061430533265,0.1572705264985138],[0.03873136187656133,-0.20471523063855498],[-0.09167781155409165,0.04638341686113542],[-0.06309066735804675,-0.18989188287187295],[0.11805357254790705,-0.041944258772012806],[0.23473353107901124,-0.07198089963844448],[-0.1849149189820558,-0.08732190577556251],[0.114430609805009,-0.044825344592261444],[0.10241526287045087,0.03934042806415848],[0.01717635222298592,-0.0022820239531114645],[0.037927464496039294,-0.036169390266569866],[0.13077009535767334,0.33334289319043936]],[[-0.19641033078030448,0.02688923100711361],[0.14391409086291185,-0.09387843122711526],[-0.23116473792322312,-0.06708388219592855],[-0.005119935929463238,-0.03912874410111187],[-0.05300737158050033,-0.004307679838394443],[-0.05587728020899566,-0.02210296188756621],[-0.03794880974983422,-0.0902604650277246],[0.06046009639049126,-0.06714617000937789],[0.17051228484510458,-0.1041850989450008],[0.042291812384958216,0.15022861850759603],[0.01862002906830681,-0.037987149624383265],[-0.08782483415430384,0.07042025575002622],[0.010420871698493829,0.09942909794683236],[-0.035905718245196096,-0.11357441777795159],[0.03973854526780944,-0.07813672982705189],[-0.017843442353330366,-0.00706849410816571],[-0.07775070197473206,0.033299990876635946],[-0.053267360147398496,-0.06733531006439943],[-0.1727400143671236,0.04359426063356771],[-0.043150112728995986,-0.10963803955344154],[0.04961396106892702,-0.02568996626284116],[-0.07018556514898462,-0.08785738263293842],[0.07678148713995372,-0.01845130089358102],[0.061148400222461506,0.08279939535014076],[-0.06876978110990094,-0.09002192111260446],[0.014682374954507856,0.26597092077746654],[-0.19803308201962547,0.08328042780436135],[0.10871122103430546,0.05176502381470576],[0.025844787182540522,0.008351591969028254],[-0.016939892452505094,0.09780350541930223]],[[0.08934764657357078,-0.09944134265050468],[0.036239799283357,-0.05666714835029904],[0.1115609296649585,-0.01296557454171585],[-0.06048486823899928,-0.001955250181718167],[0.10745903411558634,0.06219782252171016],[-0.02556762320033132,0.20238711036139423],[-0.27060651513234035,-0.2073221807990478],[-0.014917975434136917,0.20447489648015946],[0.07099224363849783,-0.10812358642525707],[0.021397208818789534,-0.011177470297472078],[-0.06359702543525068,0.020694081892931523],[-0.12989850848046924,0.19748210932827698],[0.07076570110139373,0.019387807376572048],[-0.0401202389697812,-0.18389102231959711],[0.07012550100709208,0.07689888996710244],[-0.062409396575581914,-0.2088435243207356],[0.1551411429070005,-0.06608743133777739],[0.09382275973253389,-0.055401971025048],[-0.07334944258150951,0.12695801000309948],[0.023417022849177245,-0.03087805698210225],[0.21351949187434488,0.10375382146483353],[0.06897723108746429,0.08411404317131746],[0.14252529493352348,0.0025711919743669196],[0.07112158836203952,-0.013234377843569123],[-0.08408062457313271,0.08771708442500502],[0.0006869930956310146,0.033411514059525214],[0.1016230002379446,-0.15069083476770312],[0.1046591953463379,-0.061041061910426166],[0.3332963145223575,-0.0853510207838141],[-0.015660844548125077,-0.04510858210671854]],[[-0.011078653397279946,0.017343683131500403],[0.08279587528356673,0.06207798294671108],[-0.004869137002118169,-0.09207768556378876],[-0.22003564143677262,0.04420650836164793],[-0.21703662800337656,0.10221746389788647],[0.08595866324664177,0.07095286962223414],[-0.09258511370841822,0.04580330134973994],[0.08331879524194084,-0.0129325325934595],[-0.007903170502462382,0.04500875051243726],[0.016676102874753965,-0.13941059145217802],[-0.027453229607932353,0.003962843998194485],[-0.049563610139672414,0.10476994894345014],[-0.24228013490699138,0.08917964790452988],[0.1169020140021468,-0.0795724122414907],[-0.20906132166068828,-0.09750028723190353],[-0.020413266691478246,-0.0393438680144413],[-0.1453231022914036,-0.1036609943962964],[0.04843020694058947,0.13042127968660924],[-0.10787840729452192,0.10686837778596037],[-0.018811181811185306,0.14219518721562918],[-0.23719395622813172,-0.1686532315924747],[-0.04125292338816778,0.21272270670979215],[0.034272763092904,-0.15881915417867923],[0.0924526197026137,0.1421815381600257],[0.10357902569130417,-0.04642218728952245],[-0.09652191385997906,-0.10583891746743217],[-0.13398538292730683,0.1500971680559083],[-0.0040493374282995495,0.08390046117031634],[0.06649115014415095,-0.01636685366020185],[0.15263239094026493,-0.0505958798260022]],[[-0.03869956745004749,-0.08107100406961898],[-0.13852552658669776,-0.05831850829206569],[0.047562218806065516,-0.0121751696154168],[-0.22973183074875195,0.18921641451351653],[-0.1251521729079478,-0.035312236126648376],[-0.1430317721098001,0.13667448011298092],[-0.08787651099846691,-0.08683148340690419],[0.11034936550483505,-0.1048874398937614],[-0.12448599052100434,-0.10708885465926231],[0.05661414883367015,-0.11526207315417249],[0.03738060343345642,0.06239396276862875],[-0.14165562026094553,0.05921784464221147],[0.1694561882476499,-0.09141070127826495],[0.11161330162030965,-0.01744082511678292],[0.17027634850939077,-0.11113972957250214],[0.07954771291432068,0.0644902116282938],[0.18655259838795804,0.00872603556191078],[0.004326625920081134,-0.08900177774217805],[-0.00435782072436645,-0.2769391471895045],[0.004467048033262695,-0.0237390646583064],[-0.13646303754195505,-0.14189011773912613],[0.04937953291606762,-0.09959300587307211],[-0.04210293510792733,-0.04821963407640402],[-0.04759207555876109,0.04863558916588064],[0.03493260076195972,0.06652742868371317],[0.13151778657727442,-0.017307974329330473],[-0.1650375755804675,0.045265229573744604],[-0.06325217410867044,-0.023295903307746987],[0.10588919213883939,0.07537546396639921],[0.15905976321399645,-0.1505123876373232]],[[0.045749629563863865,-0.07419353773305923],[-0.0005943348099574668,0.10568010345612802],[-0.07310895317671738,-0.16687258090330112],[0.07982664839402438,-0.028437315898277495],[-0.08282317249199948,0.21236549886272024],[0.10314772192442008,-0.016926090695536435],[0.13613711374794352,0.024434386350318773],[0.13600617880306268,0.101382481142003],[0.056127059459136666,0.09025889904385347],[-0.036670542125271544,0.059215143065301505],[0.10328604991677078,0.12746022233336307],[-0.046004019843393223,-0.1116887841311066],[-0.10557295083066623,-0.10930061389531733],[0.19559617479670888,0.009372529439968249],[0.1147589843421915,0.10215317322171082],[-0.14089613512911428,0.15831289695536094],[0.05882508492601683,-0.14385947251616793],[0.1570384442864863,-0.016108411764606975],[0.2016514225295733,-0.006909536030499788],[-0.061656523959507666,-0.014125413115233574],[-0.14174455580406328,0.04765081222426039],[-0.07468252059432055,0.04035459007547524],[0.1328467816672469,-0.05678624286533753],[0.2421692143104776,0.017622199883298818],[-0.07443322085701709,0.02048085841616352],[0.018868074025052087,0.1467129240898014],[-0.014881793366269927,0.00022465860476915498],[-0.043052581396532355,-0.03644386758554912],[-0.01775670513751633,0.04352632323862516],[0.028222553259248082,-0.18560855531507575]],[[0.07318196775609029,0.01966748143107108],[-0.10142909133614034,-0.06828804989292232],[-0.06493141342581918,0.1573331747011783],[0.09688049408867731,0.020357616268174544],[-0.016706325088282306,-0.0890679739086746],[0.13860477269072027,-0.09519662812782992],[-0.12276268780925795,0.09787793623422444],[0.04360058849711231,0.09668073264086322],[-0.0029916570204733244,-0.07567953257106247],[0.018957091770256927,0.1626154451362411],[0.04808619070260204,-0.18345159267552014],[0.027829410503697666,0.050663773443239864],[-0.1011077682882963,0.10519548560365324],[0.1719001657127832,-0.013531709008255427],[-0.02815687532704858,0.11355703629853782],[0.19256160752088,0.10801866577171862],[0.15771073993926943,-0.028031572969027505],[0.013085080917394883,0.17464824453571345],[-0.04259778840796214,-0.04096174221914564],[0.05347004448799472,-0.04943009931216102],[-0.07376460709873836,-0.01988722310417314],[-0.041402559195422246,-0.08920714154792844],[0.23259672005669058,0.04835653708699458],[0.10362710620408208,-0.022966775415884252],[-0.028991243013998767,0.17191158630862122],[0.09922003855300895,-0.06158248870618187],[-0.2509615908052326,-0.17809318522146897],[-0.012341459823437683,0.41650423885030863],[-0.19876568252671165,-0.029626066262981043],[0.17681459757661938,0.03380324338014548]],[[-0.008733359306921564,-0.09603989366591544],[0.12422164998781351,0.09176378814737915],[-0.05228701386521361,-0.06436878100281812],[-0.004582992449267404,0.1801039971258993],[-0.005064028013074414,0.07339305297770433],[0.1019625210508698,-0.00488304937141288],[0.0705508718279023,-0.07190111927768537],[0.01767732694502327,0.03280944182987159],[-0.07236690820473977,-0.1075708933566741],[0.1739171552791979,-0.03442177327887853],[-0.11236470416683592,-0.08230918187856355],[-0.08315667715256383,-0.14354261832287188],[-0.22508141635819023,-0.04508633281176512],[0.18813665390756343,-0.1694113331300686],[0.023633281697371313,0.07999431679137178],[-0.1769485254580268,0.02551065503656839],[0.014232639889152746,-0.0998622852169717],[-0.013947209274634288,-0.122116290217667],[0.13290338278038405,-0.021793387018021214],[0.16992278353182064,0.1227214730411558],[-0.21659740592538965,0.08640591272851474],[0.012565332327467144,-0.04963714955378201],[0.08931321794973471,-0.19952044859879545],[0.0929836361728489,0.031859428567079046],[-0.13804020019123955,-0.041776397885251504],[0.1427522984897405,0.012280714619292444],[-0.052898558947623006,-0.12345108838851704],[-0.1158569377693348,0.1780381833112536],[0.16284089302486127,-0.027009520004608496],[0.0053005283772375065,0.118983674224017]]]},{"Bias":[[-0.07445204934951048,0.08904288873880714],[0.06919829486671135,0.07786542319579653],[0.06372157876423365,0.12184485724464479],[-0.01852055489282131,-0.3693914045587704],[-0.016906854583019548,-0.12646907151700756],[-0.13987738025426763,0.02032336006645182],[0.0050849719670245435,-0.07493301504046962],[-0.07706564028133935,0.0866499606258264],[-0.06138355448354509,0.21488400716708875],[0.052764270398999745,0.07535402032001728],[0.28782755621537004,0.17597032283134614],[-0.15673993394335795,0.03335273653968786],[0.08857635787036981,0.0751320855780054],[0.10697714537311268,0.16378530339676992],[-0.02093339717971502,0.058446197921005145],[0.017964990229563566,-0.08044174276649792],[0.12897089934853426,-0.0616913278007593],[0.1260152247022421,0.032661444455636984],[-0.02873706651705373,-0.006093778629257665],[-0.003547427766019108,-0.016550516885219465]],"Inputs":30,"Name":"FullyConnected","Outputs":20,"UseBias":true,"Weight":[[[0.03297825368354103,0.06528930882443583],[0.18305575985848224,-0.1792373768400882],[-0.1625556766697128,-0.046815306360977776],[-0.014854989971428709,-0.10842335001351301],[0.2120975681525451,0.07096667587009212],[-0.16834014970886507,-0.07276833552306637],[-0.03937435991097612,-0.013843255640947842],[0.09840990353994646,-0.027837280134679572],[-0.041283034161979884,-0.029431659854393766],[0.11429710272534124,-0.03242880636314476],[0.10647058242215801,0.15525049351242506],[-0.09286253906348937,0.05773570393054371],[0.2996393491925183,-0.028204137881196256],[0.024226872740607374,0.08272187285189866],[0.029273417936962243,0.09267399718401988],[-0.0389549491486394,-0.06485647876684696],[-0.14343149530601254,-0.10218176155740585],[-0.019387294889229544,-0.03161259940298483],[-0.132878209951382,0.0522535680171898],[-0.028770252850264435,0.07356980043701757]],[[-0.11197747947281857,0.23268961841279934],[-0.01872776647016755,-0.0390943333579545],[0.1347418093317788,0.02753867321593956],[-0.00014311500162824477,-0.03464854590508375],[-0.1213272898880922,0.027086266665978333],[-0.13518642356618857,-0.1147093678816225],[0.14948001429070354,-0.04430956362091446],[-0.16720043549670208,-0.08086339745707165],[-0.10044673204379459,-0.06892168137688424],[0.029648862202795827,-0.051108274172194317],[-0.1506295477449223,-0.19545648628761983],[0.05740225845788253,0.007873212391304093],[-0.16036447993305017,0.01330526006101203],[0.0948974925270976,-0.0887664356380373],[-0.08197042977716504,-0.009125760332021643],[0.10268589145659034,-0.03315467633189472],[-0.08535506750617133,0.0849469985048347],[-0.02605559915173792,0.3884551885343142],[0.13940191766169702,0.03745361483274796],[0.0022652500086255186,-0.06882810985309187]],[[0.10724810797551007,-0.05090001850155069],[0.025605592329154683,-0.16010385523131537],[-0.0528244262539515,-0.1794356417677169],[0.2304428619546229,0.13674739858380303],[0.23528544259746526,-0.08730399116090946],[0.15927842034316647,-0.06203165822123588],[-0.13587998168915696,-0.017574872413322663],[0.1176819314698398,-0.032042467934619526],[0.007962552860830575,0.12871944632514631],[0.11837007155062411,0.17607728004625414],[0.08568339299386392,-0.06124442879329087],[0.26097490204891777,0.06412543653761969],[-0.04763338696714154,-0.1342316716193904],[-0.10896107856974244,-0.3225989992587912],[-0.10800031844383713,-0.0488895149479494],[0.1667747181353504,0.15829336046154],[-0.09277187124207355,-0.1031882943890283],[0.018424452842834744,0.07133647738881614],[0.024577102478625865,-0.1533371405773895],[-0.11647385213112056,0.05150042505256517]],[[-0.07493416195902704,0.20907930694081306],[0.27783773479116086,-0.18135484079851358],[-0.12427248838474901,0.016526285259291788],[-0.11450671014967903,0.006003732594495152],[0.17861631785349508,-0.08770011435523203],[0.18477876563286408,-0.03693610548284699],[-0.22142191866824576,0.018931741429607584],[0.13332659190662327,-0.08111730823492266],[0.09482730832568498,-0.0038096063501106207],[0.1601191333851764,-0.02218362711766286],[-0.055185829742590245,-0.04281827286440845],[-0.05040194124818463,-0.05578341838060134],[-0.001410399554867374,-0.08329509851511138],[0.09519251830871119,0.15155051237288703],[-0.09380545231108565,-0.13335809077271552],[-0.03212119380896954,0.06469625327143948],[0.08739247436370026,-0.07116521090407318],[0.02548204264953912,-0.16038913973538196],[0.17013702619856488,-0.15795595110930372],[-0.06398074520241577,0.00165251542811836]],[[-0.10954899590274653,-0.09280462019707925],[-0.03018409486281037,-0.002431560318123193],[0.3179101290417552,-0.1383843777618797],[0.15616793612478963,0.07463436193925765],[0.09618063072003255,0.0010018576599689028],[0.07057905918344529,-0.06292699915518309],[0.15688702345714153,-0.04480204427405777],[-0.026049680339698504,-0.06110231420276941],[0.015022578962351115,0.06049310618646944],[0.14587278494625797,-0.19438123073796149],[0.08888836519802767,-0.07819919004699365],[-0.12793520363496125,0.15606529406092898],[-0.05406230675447126,0.2537226785463953],[0.2035879159027831,0.02104545895670028],[-0.2667607991586467,-0.22604222211633698],[0.024232615336984717,-0.046274910428833874],[0.010337948203350834,0.18317357519768251],[0.25759017780905896,-0.2026189602321044],[0.05714253745951195,-0.27295670956518725],[-0.16808121001275303,-0.08787561478257741]],[[-0.06472330017305111,0.10438428111825852],[0.06363723730226536,0.13305151624749156],[0.028198851796820922,0.06915969834439775],[0.21355763409750145,0.06417339103308592],[0.07107084299155655,0.08879676055745285],[0.026387127187973865,-0.11874536969639489],[0.001393257800979649,-0.07498486266282446],[0.1780243794087504,0.1463728164846588],[-0.15858993024641674,0.05229237256119147],[0.06454007232658357,-0.028225104495711136],[-0.16071993434730455,0.2220296187611303],[0.13834653821427953,-0.1719503205853977],[0.21991103260530398,0.05064030567489286],[-0.046282297967927155,0.11307088044162439],[0.0008471883021721836,-0.03346680825686741],[0.13576638713281242,0.01635451944517579],[0.059984386545325966,-0.05597639527732199],[0.045778028993754445,0.0026780863067274213],[-0.14477231319092515,0.20543467006306823],[-0.03536557608640088,0.01960071823395032]],[[0.11219981024655737,-0.03428603805765315],[0.1406926434399262,-0.026228729310536512],[-0.1376811195656005,-0.0599463804370904],[0.0033520448342193305,0.010388956543658463],[-0.20819032433941476,-0.07665740105886527],[-0.06653227935256775,0.002825769972249174],[0.13573599697130667,-0.011120983573815689],[0.08496513862129353,0.0001642228034952191],[-0.2142731602727078,0.11175331898120856],[0.024345693987022275,-0.03833739041815569],[-0.07485682192936197,-0.030281167864812216],[-0.036932564355182225,0.0132609522241757],[-0.3253260722257185,0.155149826968849],[-0.013232571639738011,-0.09319743827908102],[-0.02810214943394671,-0.04878102047650434],[-0.08436234510071541,0.10978821789428488],[0.04564167160454699,-0.17270902832176438],[-0.006537749016529151,0.06307612014155815],[-0.006696235803370603,-0.11802554638452613],[-0.07053422007797455,-0.12216246052184739]],[[-0.0003210931384397113,0.09417364442300091],[0.10939726286465427,0.02411396368255429],[0.05999448336620857,-0.24519494266582273],[0.017158908331590537,0.05371131022996614],[0.00960740451142709,0.10958146177651712],[-0.11824343652922205,0.05966595281249375],[-0.026769808042941476,-0.10995796214049665],[0.09302143799511445,0.05937460532318384],[0.10373062554604569,-0.20333145251715987],[-0.005405776882060948,-0.012427934380967613],[-0.10637351169969483,0.22750679228572643],[0.06493759494226313,0.08756175773259423],[0.0364716484508686,-0.17661797437214657],[0.14722765279691397,-0.11483678793994674],[0.19319756466425658,0.09769426814206478],[0.18726146773182675,-0.11584404048916272],[0.17381125477134549,-0.0011964367935489546],[-0.068498368936443,0.09076652554860032],[0.11071532886600202,0.1639028281074528],[0.1349854660818872,0.01995800825863756]],[[0.14969260749807148,-0.11839989426219577],[-0.17328868366476216,-0.04840849114877419],[0.0411301787304394,-0.0017735251948313002],[0.205534018752204,0.024056043855407893],[-0.12292178661675258,-0.11512625293167046],[-0.13124741932056153,-0.014098298149570991],[-0.06788508185259254,0.1217226788074509],[-0.050875943278633796,-0.08155047278231882],[0.16749735221308454,-0.0044580643847298256],[-0.06352355631573248,0.2113016835582871],[-0.004166707672161238,-0.05962484842621689],[-0.22370800373276079,0.10358938596644543],[0.024020349467324294,-0.0677243416359024],[0.20196322318133134,-0.03831973384298626],[-0.12599924172491322,0.16745594319487675],[0.12977215013041601,0.03628127530648046],[-0.015754989513999795,0.19092186907367317],[-0.01275741895803783,-0.1815146860391033],[0.11613584398206744,-0.06241156156350847],[-0.05706156826020803,-0.021420698870507245]],[[-0.08138683081764508,0.05544912402319327],[0.04095785298269209,-0.0930010811103458],[-0.03782266553707497,-0.09388386434253619],[0.050303326181999786,0.18759781415412272],[0.19278399614249034,0.14721326670411877],[-0.0018740243347592543,0.03117032902194983],[-0.05929464062720351,0.02663558521550796],[-0.009445514382179991,-0.2144574886930594],[0.00418236661715019,0.25028210606105467],[0.10812241343556475,0.09489962899668852],[0.18731526222975065,0.09231905291991867],[0.03558408495114585,0.04679635690081257],[-0.03205173463954304,-0.027284474530474702],[-0.004421328482311543,-0.04905657103953951],[0.043696813160630114,-0.004927282582939548],[0.0954887863781081,0.21249273542808939],[0.08572823393899628,-0.049238379250957205],[-0.04223222570632636,0.14538902095298178],[-0.07222536905810893,-0.1405574950183899],[-0.027218880739193565,0.0033471613629214745]],[[-0.008389416855475184,-0.03754598143522398],[0.13260660810158464,-0.25226245090738986],[0.17538061599885155,-0.011962073773678862],[-0.1930190260129423,0.07835108409860252],[-0.01455522340770958,0.056739682303008965],[0.144312373932162,-0.2538340371039023],[-0.09486416282720439,0.033519376010322885],[0.06922038763475775,-0.09600091358104211],[0.012562507512150966,-0.06398382948153894],[0.022431077612035576,-0.18072896426222135],[-0.007597246585637421,0.061519363576300806],[0.0900303412656012,0.010092418887313832],[-0.1926429144510345,0.17178650577678078],[0.10995094316396183,-0.09964686263342232],[-0.09596664034658356,-0.0357931998305909],[-0.00628954427040591,0.11038892157923497],[-0.07966397371878313,-0.04346244277822943],[-0.020267744392601744,0.18974775641956584],[-0.004590661845173254,0.0034365211518589977],[0.07832300105670946,-0.032814360283747616]],[[-0.003659434460480563,0.42986308002690304],[-0.13533476767025462,0.08173224780885165],[0.09085847526101708,0.058329793332829644],[-0.060609689199950946,-0.01757264403284324],[0.11296549228218496,-0.0989599783484685],[-0.14472418734244405,-0.06310228594707468],[0.004194157448681841,0.06637422082811921],[0.0016353127140210893,-0.19044649374932288],[-0.061859715727591955,-0.12625443641427098],[0.06043495897666854,-0.25001101613098614],[0.024744511596810063,0.14780180566724416],[-0.24290218904367888,0.0803856010702719],[-0.13098738996097622,0.13240747051687435],[-0.14054956966713136,-0.04468161552259335],[0.0231696434413714,0.038877723983088676],[-0.05447978411650132,-0.12619787597393753],[-0.051192590189259195,0.01499477666363444],[-0.30020038323829806,0.022064313817564365],[0.11680362173238547,-0.2707630629872007],[-0.06401100328942155,0.03223524272188256]],[[0.1323739087212518,-0.23087316517113982],[-0.18343939008496526,-0.14676529172124791],[0.06999668118052602,0.15535740795256187],[-0.01335516576552182,-0.26821153217019444],[0.23599900841531438,0.12322643100722351],[0.1472061969461453,-0.06640076182092727],[0.09297609857971513,-0.10850887553102088],[0.1707618780040019,0.0483229135654997],[0.10359084261228063,0.26129597881017463],[0.1394453303197451,0.19083192343667107],[0.15138882088048491,0.04467586357241334],[-0.12863903757843223,0.1070711877082963],[0.07871433141929397,0.2678242835268162],[-0.10886173285149725,-0.06440921496724727],[-0.16275373753678796,0.06256984273746766],[0.0943612711451478,-0.046447146763614826],[0.024725055726349397,-0.10917079301249427],[0.038732706293450214,-0.1490941808562176],[0.01983372852108463,-0.21296409322421014],[-0.0029394736152309462,-0.05709954317463783]],[[-0.11821079424835926,0.02447700567898219],[-0.07377555548909193,0.16092077087349455],[-0.13999932075957375,-0.1747251123724617],[-0.009992151974281943,-0.003230607533639921],[-0.03610807545372109,-0.29186034685400497],[0.1068849286066976,0.24994326594295363],[0.035609241761682585,-0.006790450867478897],[-0.020848078346969067,0.25077164273152613],[-0.10087958483565689,-0.22043438509889648],[0.024020349584451883,0.11967473444540074],[0.188844032764857,-0.02913322894280475],[0.00845430567483093,-0.042397603648455365],[0.11296079503332093,-0.16287993673560283],[-0.3647368885085284,-0.0856108717683333],[0.041170825401739095,0.09017380596665397],[-0.06416239694369856,0.07604422340784313],[0.3149167751788597,-0.004210144823671615],[-0.14976055649523956,0.007058713019949374],[-0.03855619828595899,0.20822830309741633],[-0.1375639396729137,0.05267477406371933]],[[-0.04461975876454049,-0.06358141835923346],[-0.17774154434590278,0.04011233593675863],[0.11363028572345937,0.014293823916848563],[-0.10902888029056265,-0.054793531508196255],[0.17338047609722582,-0.21761843998469813],[-0.07494934581914513,0.12626463124855275],[-0.069187598327509,-0.12299411153523505],[0.24709572797830712,0.056466902173319594],[0.07693025574467528,0.01336503454852928],[0.2904687249320386,-0.14579155434860855],[0.028334268258783473,-0.04661860956893028],[-0.0516323660206999,-0.11578848329894886],[0.037528859904682736,0.16788107803010352],[-0.10336638063339566,0.004580583922301039],[-0.019924635492992417,0.10063006494330491],[-0.1257230743170225,0.057096607957548555],[0.014403471117018389,0.11075079233683222],[0.07022867528549011,-0.13019779976853255],[-0.20058295053414188,0.11853763263020733],[-0.11431356546620644,0.2093066889277006]],[[0.08599817008910801,0.18453236686918648],[-0.15701757552948797,-0.11816116295065848],[-0.019414059171417152,-0.08264774510953082],[-0.211726716873932,-0.19462940465567072],[0.09104836155254793,-0.053507723907272924],[-0.0247416195753642,0.17533130072040587],[0.2244346969939719,0.15503351656121353],[0.06794962887096727,-0.023817974822242495],[-0.3039935751881776,0.011446799400943996],[0.27266032877537816,-0.10367882444318233],[0.10222583944816982,0.11785498958158029],[-0.11200135488397854,-0.11601150447880555],[0.15810661498210254,-0.10160596139755916],[-0.05913010380754783,0.006421320569373344],[-0.02942827270318362,-0.07848477587086174],[0.16213720659916553,-0.13259014560838842],[-0.11434605979384256,-0.02726698694282335],[0.21025413152859365,0.15681834351367752],[0.0019115197888761898,0.13199443038791212],[-0.0301541303895967,-0.08588582923065773]],[[-0.16971016739036082,0.10714790687257092],[0.09700936238845251,-0.010995361876838382],[0.1158678931270563,-0.015089761850293652],[0.01937456028396472,0.0713513337820272],[0.0798105458065843,0.14341549721754585],[0.1359429932315338,-0.02772350787659015],[-0.11547037728072311,0.050631440531058704],[-0.0973204136107809,0.10047087804246596],[-0.039213489082654755,-0.031155876997950627],[-0.11442288901165941,0.1963418277927007],[0.08395663270808781,-0.14540249173670966],[0.22650129944471944,0.06148412820900266],[0.030752358911488996,0.027891110408226893],[0.10403327195370833,0.07071444869685888],[0.05814633987474781,-0.2005340619649959],[0.014070705128517937,0.0302236544211588],[0.17252195870593118,0.14372579095945587],[-0.17414860322496367,0.06872474198301612],[-0.14750257384123625,0.04965979975739822],[-0.21688320483178775,-0.011721162777405827]],[[0.09557996019559875,0.2958526800626554],[0.34354693514586837,-0.08180469386262988],[-0.10405372710996395,-0.0611710692748884],[0.01914765160542989,0.04718463822913856],[-0.017486506996788474,0.013300356753963556],[-0.05122850272550683,-0.11995138745055174],[-0.19323185904878573,0.013913014296727517],[-0.06414647110725918,-0.036293666509156865],[-0.2089086533402356,-0.05224944654213168],[0.17562480426668362,-0.038084661770513166],[-0.09852149799453314,-0.04952211323460661],[0.27394925703506634,-0.0006363141818545248],[0.06720653584860208,0.07281218467375059],[-0.03662097342436083,0.3525730513510695],[0.03367030520171398,0.006994779016443574],[0.2313122160337747,-0.051240963117427915],[0.10523735464780896,-0.2778510561658909],[-0.06029443135799542,-0.018527108014644505],[-0.13320917782181704,0.04705415617494013],[0.013826648101628869,-0.13931854220069131]],[[-0.06503986138524152,-0.155987482682057],[0.3015659434485592,0.23776178242937365],[0.1907063677771842,0.27127848728577153],[0.1460875173037681,0.2830280113518468],[-0.07261554955714516,0.07908535804893965],[-0.032174990699420467,0.10842338218164103],[0.20850418568027707,-0.22439072043946087],[-0.1279212577892091,0.026200558148962848],[-0.14754016305007975,0.2268928472041757],[-0.022655990776178355,0.17652097856871363],[0.14610740711893844,0.05493130835378867],[0.0776096828059341,-0.036370445417695185],[-0.18729062693410864,0.07064423643917087],[-0.09008225140899354,0.10400812058015896],[-0.06337821801827279,-0.004934849820019061],[-0.20508538252966294,0.06544324060710077],[0.06145378410733124,-0.05211047239079627],[0.2865029331109161,-0.0361563465793515],[-0.18733793122231682,0.04435385693408019],[0.058030784946595484,0.045551743377762854]],[[0.08881377773143229,0.08522286141398504],[-0.06472397747946348,0.05228212922607008],[-0.07741037782668556,-0.03603028650384375],[-0.0877390774205991,0.09011441065468156],[0.11493810714853665,-0.048157482911798236],[0.05603542503643585,-0.04838278345838632],[-0.20300280801799797,0.09974931149742594],[-0.2307679291630827,0.329018987233276],[0.14684193134322204,0.055989770585596024],[-0.06114619180539756,0.06666641280785668],[-0.10815077958090069,0.022492427061338176],[0.1310763565910185,0.05581903635842591],[0.15588685898203677,-0.12252287029601214],[0.0036068504724353534,0.13404889255220775],[0.0702453077994199,-0.23953607468557367],[-0.02917157565981353,0.020642162638472406],[0.05947175029361524,-0.0404284655428842],[0.0753982914277102,0.17866270937423215],[0.11454715549520733,0.15574581684173402],[-0.12279027597010934,0.04493303261916043]],[[0.14326489494973874,0.08628663020223622],[-0.03314719874414522,0.1619663331030394],[0.005186466076334332,-0.3138223125841316],[-0.0015732330279874028,0.1198350322011446],[0.06985929997640566,-0.07358284255611006],[-0.1240330273921391,-0.0778158236750451],[0.19601854123580498,0.048401199274510615],[-0.18727441714021242,-0.08387262359436362],[0.10303886186283955,-0.05146915814533562],[0.049884615807961614,-0.2167543841342002],[-0.3487662788119746,-0.1295314933371904],[-0.012929686013797551,-0.03291063491049807],[-0.18715242147600492,-0.0026980179440575336],[-0.022211525701374187,0.04511552161730819],[-0.13350151947996372,-0.08008090019799018],[0.10896123274461315,0.0557490645317363],[-0.05621735215373796,0.015174218860095944],[0.07964461947992849,-0.017782358940330208],[0.14192266982722543,-0.2508169845082843],[-0.16678459357280323,-0.08699210654526203]],[[0.030427993958631324,0.26078562461155275],[-0.0905143194067293,0.2562950692817011],[-0.07431450056263224,-0.06337348643787165],[0.08077855325562604,0.14498451418481478],[0.18876597926019814,-0.1513230038680717],[0.047582875663481565,0.0375303224520289],[-0.10337182192937601,-0.07986037849544643],[-0.09876168174074562,0.024703538643277366],[-0.1538367929457764,-0.23071419634315746],[-0.2193421830372315,0.05927396357347178],[-0.05190337493599635,0.2059396833910224],[-0.010050041010127889,0.06646769832603462],[0.02500962677266464,0.038254336871963286],[0.023600405754454105,-0.1375188027279395],[-0.13417006481901175,-0.05258375458693185],[0.07663920294508929,0.017256088779597438],[0.009767448473530827,0.2407396891311185],[0.06570970405351173,-0.2562345907012007],[-0.031369524198413205,0.06501523988270785],[-0.03276518394606281,0.03312500218626673]],[[0.06960958896091217,0.0245590295573268],[0.07825455467143821,-0.14926631153466155],[-0.08296397275387608,-0.05998092582786048],[-0.05847944799557156,0.04427632622968595],[0.10890617797436775,-0.18664689155412742],[-0.11890781286431559,0.06444577443454087],[-0.02301467361737022,-0.054643983646688064],[-0.13743086143742378,0.024286889884148094],[0.053366204911276804,-0.29974700168971513],[-0.11332575238472833,0.11398937594762061],[-0.03681512350018013,0.046258283228141336],[0.11460446189134978,-0.03773226260027245],[0.17676486929489738,0.04727711555332802],[-0.321673254361311,-0.05941479121054761],[0.01802138906684492,0.11365299491188101],[-0.025150675514248065,0.3031050766894411],[0.2234858739269764,0.14034987271428634],