{"Layers":[{"Bias":[[-0.30622923040060385,0.23492297181770153],[0.10137620917135348,0.0993766815438045],[0.050115604558135296,0.06640927292192499],[0.19879257547279977,-0.4034290787641559],[-0.22666389588764543,-0.11879106433263566],[-0.24985576661862857,0.11450885260905085],[-0.0931879731614314,0.09382542869068385],[-0.05221776530637533,0.12008059916673196],[-0.27158787501044285,0.12427917043356528],[0.13402622302591913,0.3503594005033198],[0.5280219697794295,0.13921704817692207],[-0.17420248133952218,0.023289670072559922],[0.28065748164744114,0.1074854561193482],[0.027020072982540593,0.2754316676852175],[0.08675065230039923,0.008677963995786958],[0.1124671140870914,-0.3196131748224211],[0.12501633786315883,-0.06959458822320215],[0.20746596784649357,-0.0022024208507910644],[0.23267056472728806,-0.12301556324974282],[0.07018274523662343,0.06205879573833648],[-0.007608229184016746,-0.11491622541945118],[-0.12566127532677993,0.5558851692732525],[0.3384426281194317,-0.009836365336955682],[-0.10821365644377168,0.1835453014187544],[-0.1407139280484943,0.08748141706736681],[0.1154951959419492,-0.08931958667093567],[-0.08044165616392075,-0.2536361127927183],[-0.020017987461968187,-0.10930446350458214],[-0.23279286821884876,0.09624842779296337],[-0.0625677785981658,0.15178120635998632],[-0.18520053184457472,-0.15560154342855406],[-0.09410565813382404,0.49564087706524235],[0.2526922840479764,-0.1803020812142005],[-0.02753199308840977,0.005298707094931109],[-0.1409517279749014,-0.023170549240981036],[0.42922961162385215,-0.14550177138408937],[-0.2102117475857561,-0.115276744682135],[0.4153473365451721,0.08587497720444148],[0.052358921542358404,-0.14463343786712082],[0.27418299918489125,-0.004769489965574482]],"Inputs":100,"Name":"FullyConnected","Outputs":40,"UseBias":true,"Weight":[[[0.028865894555922266,0.059864356543898045],[0.26372958300677773,-0.0017727634789850009],[0.03404494505861238,-0.06983201934157898],[-0.24628399861921865,-0.16909429372408324],[0.04594775445435347,-0.02379659601570606],[0.1416555674794251,0.044792867501281856],[0.1829930330077699,0.17215522461014787],[-0.264808902730142,-0.07153286796835392],[0.06455116440948332,0.19868019137611925],[0.04594727357018042,0.021060784343792625],[0.038273356938053345,0.04672962790501294],[-0.08609879924033735,-0.1071135620313425],[-0.11284292515276718,0.19479786315690403],[0.021826739869840572,0.155026799824559],[0.07322867921486477,-0.06936030583483563],[-0.028702524971313544,-0.14452077689127765],[-0.08817792116715095,-0.1679471467782815],[-0.15845677028921412,0.024092739939248556],[0.016026247382551654,0.0848814188644589],[-0.019538516955119236,-0.04382852955131926],[0.1841174049916444,0.027389129467171452],[0.04846378871803259,0.07871857047587581],[0.08832678732473336,0.10016366057466664],[0.08893689927850403,-0.13402923551902804],[0.13833186259572647,0.14539714121469102],[-0.010548728038081193,0.0687304302327776],[0.0762157708590631,-0.1978449099657183],[0.0030609437300714508,0.15393324744878645],[-0.06978267526258201,-0.03650650531777286],[0.02210621895807201,-0.144582233204797],[-0.05503135818338766,0.09777189829779973],[-0.12876023071306053,0.04286382028391833],[0.010102777234615775,0.10518827660479596],[-0.15946045213046212,-0.04719936623914649],[-0.05960573235153455,-0.08850964016684336],[0.08408255376615201,0.029346574702792984],[0.13918544085273982,-0.04570986906498268],[0.29126216272002864,-0.07905498595281309],[0.20117646751222834,-0.021798984616478095],[-0.025020548116370066,-0.07833221997587277]],[[0.04451362462727712,0.16881828180120334],[-0.12609496540306336,-0.0740511950116727],[-0.07033740438824053,-0.09023218917750042],[-0.026990571973266465,0.05659850813388885],[-0.026852758216835446,-0.018052934100354686],[-0.1352451833994938,-0.01903120885366916],[-0.005747934831990045,-0.052840075623873765],[0.11746576992325071,0.07457722698663306],[-0.05564607496599119,0.02250675115498053],[-0.08308101110548574,0.038503324918884224],[-0.1293034828928313,-0.06906150272044977],[0.07879985946151966,-0.05004921316611602],[0.05544841497529207,0.1430499209218947],[-0.20135225059548492,0.05951870977853456],[-0.1941194763828508,-0.0577513496322551],[-0.09196182827573542,-0.07469138958748112],[0.10521703181140578,0.10237280497382657],[-0.17041844195462713,-0.07556094679276909],[0.2657379009954232,0.05950498834881879],[0.05573340155895155,-0.21546140938171307],[-0.1769281014696499,-0.08513614035033912],[0.10946193512384628,-0.0057425790588022],[0.08392330528466602,0.017060063164061095],[0.08511028269301223,0.05914542134241991],[-0.048536622884306435,0.07125167627630938],[-0.15920731272448088,0.10240804527382574],[-0.04093098655948277,0.061542626813585716],[-0.012979579783338007,0.04066507051565599],[0.18006833082981966,-0.10658289810969836],[-0.00802584155271027,0.03378062557219551],[-0.1150634715930022,-0.01568959693479706],[-0.27058765731078094,-0.10649372977115933],[0.21943612855400577,-0.030287126187301096],[-0.18636707728635601,-0.025394848293232734],[0.20000288903567873,0.0014091847140259332],[0.06459470356421453,0.06582335614878786],[0.08460167364311072,0.3161626080159764],[-0.039497998491781865,-0.032109871474520386],[0.1395937492859611,0.2240956911658173],[0.010811799633387766,0.07898487931410754]],[[0.1509158115062864,0.06773084018210211],[0.11589095694109347,-0.06703865828268292],[-0.026847974010789498,0.010174617079243036],[0.08956207615701742,0.025973312625611197],[-0.029950999289882853,-0.04264170813711335],[-0.10618549804811128,-0.014965024186515297],[-0.2796105144163488,-0.2619040153203373],[0.16909467048791796,-0.0030189190387475574],[-0.015821511175033828,0.05391921988793749],[-0.04596462442676553,0.010135380597231071],[-0.06769073507887137,-0.10235675415353408],[0.11732328366225597,0.07665387661410879],[-0.0603727175203476,0.09238795441330895],[-0.05401728066020057,-0.16313409726413947],[0.10131490222169381,-0.16833769416863767],[0.06581818227582012,0.056259461985102156],[0.16196268488377158,0.09075284790770227],[-0.08573520064854381,-0.008353336526960195],[-0.15490037919592953,0.02430744852995502],[-0.010855625661828036,0.10250375969087623],[0.13873212402510718,-0.06592834112394136],[0.024101293238890303,-0.06810576941641427],[0.004526696970652732,-0.045518105027110366],[0.038805929706733834,0.07349018162199343],[-0.1253925896139531,-0.19660316590663962],[0.018627617279106678,0.05174950019366177],[-0.07690042868273105,0.13847057166843263],[0.08473328331496015,0.13354150276685198],[0.007331071090749771,-0.05391241879570553],[0.14674976291474667,-0.11569659609109845],[0.006177346805309884,-0.014276472436523848],[-0.06684723733595917,0.06108119915719933],[0.020715486913793747,-0.07083501891729754],[0.02306934036278335,0.030539833375034853],[0.08891299997099532,-0.06954042874687888],[-0.2611196581553606,0.2573027977097207],[-0.0028852497188049755,0.34794360044148737],[-0.15969610951985266,0.11974726494402277],[-0.15797297765052848,-0.06177965370000484],[0.13661590815733848,0.06200764420697365]],[[0.02540028474259578,0.009681459621069902],[0.05976221996805578,-0.11919786772838219],[-0.18940381148435195,0.2127011709991579],[0.03811355460827563,0.1744599553504008],[-0.09817953202485684,-0.0075787103571696175],[-0.09167908765144205,0.006099462725145084],[0.22361275662997854,-0.07298898345150683],[-0.09907342992852329,0.12165369750767084],[-0.14428105126121155,-0.03233722035350449],[0.04811429442553723,0.0010507684999105297],[0.06626895896406641,-0.06283517733465473],[0.05741879553209642,-0.15003139621291076],[0.08689270700744704,-0.1251932305894524],[-0.13969039801000754,-0.08976248726384113],[0.03377837264883013,-0.1328727335927818],[0.1582425017165551,-0.13143650016114497],[-0.18519922028808253,0.08069787332021468],[-0.03558279413648834,0.047349083496066695],[-0.04500493420681738,0.07672306740139384],[0.017811861249028733,0.01810667324345872],[-0.05837020250239815,-0.10464197035604772],[-0.013864242520191692,-0.11619109438874828],[-0.09908856097277384,0.050919539550253606],[-0.012003248577934543,-0.128849843034639],[-0.11530493704369928,-0.01490499536797954],[-0.1574524456859055,0.22594345827347379],[-0.035975207834925554,0.07372924193321866],[-0.07658921760359491,0.028945889570966082],[0.022146080586902494,-0.06045941413427805],[-0.07890549973997679,-0.0697155563079249],[-0.15923793955724755,0.059302350429216145],[0.11155862972921377,-0.10998560808950787],[-0.13116246885385988,0.038540145338938084],[-0.24485693848223117,0.024782017962345027],[-0.037120776489870014,-0.10225021464122849],[0.019142469669252076,0.050195295026248185],[0.0484214291799351,0.061075239963202695],[0.1444359115183295,-0.04242699016772256],[0.14596936019523393,-0.05640778036478768],[0.05020991013419177,0.06943546300576514]],[[0.10274126841002053,-0.06171049354767114],[0.10543472597947082,-0.0320363676037011],[0.2079920366969678,0.042834229100404124],[-0.0466711786386988,0.022307398709704163],[-0.11105812713398809,-0.261998178157739],[0.1330063758292314,-0.10929188524558854],[0.11652884982561365,-0.15714957537784258],[-0.011356009357405718,0.17918497732132938],[-0.03868592753398775,0.071140587711616],[-0.013889698389608126,0.2849930426049259],[0.04598377385782935,-0.047344024659089136],[0.027847679806972052,-0.13378524578183276],[-0.16940223399054977,-0.060104435915076034],[0.05509550060967368,-0.029196545987893736],[-0.22222420056464526,-0.07299643500942161],[-0.06463318016855914,-0.1027748535543278],[-0.024535430565348626,-0.23983447928211343],[0.010873867018017257,-0.10824215381919887],[0.05867201429908874,0.007343781304447084],[-0.16953025376394332,-0.11147894956989574],[0.044060994877970876,-0.0269959846414815],[0.04726111054449096,-0.004286409740822992],[-0.09943090917170741,0.019163388269475983],[-0.040060863561204085,-0.12513368651301762],[0.13933890502600565,0.07482425403774196],[-0.004030410235563445,0.04301347938414047],[0.186770804044872,0.15146937342487773],[0.004781048124365259,0.09435438647764728],[0.38418955295239954,0.03661248577419677],[0.0884388501471946,-0.03215705890920897],[0.29257359984920656,-0.04174447862794374],[-0.22996057533499614,0.0356196289991191],[-0.06382715310351697,-0.22446287867707276],[-0.015856479567747744,-0.020460254850769504],[0.12126981249471155,0.22493478294624625],[-0.1219136688330092,0.15061514309248622],[0.12973444305233256,-0.011269116156553162],[0.06796408053436499,-0.03445741174671046],[0.013353210661379643,0.03313317889647575],[-0.23699258359809242,0.05068591691431603]],[[0.08568992653114463,0.012556242052988153],[0.10682223763371095,0.05446421209183435],[-0.06378049849131517,0.034339404910290416],[0.02316322711440868,0.13907374128990774],[-0.04824662144530283,-0.016477730998505587],[0.22309883282397092,0.01781549626118807],[-0.1330059705551603,0.0847522029969578],[-0.07159891292777994,0.11961971737855667],[-0.03422600155206241,0.20984362414397814],[-0.05346647968955338,-0.20397441486070184],[-0.13469820218491282,-0.135328319527548],[0.028971625777820267,-0.023773603149738576],[-0.03697990642110688,0.06607663292188691],[-0.0840574489410884,0.2056691093030653],[0.07910704205000631,0.041173101415494476],[-0.006543110364268385,0.09763291238529559],[-0.19631511273242155,0.1738392238242287],[-0.1098277527506264,-0.1464327506523304],[0.1252967223659835,-0.040521633192516594],[-0.00840981912101794,-0.042425401757640264],[0.09133407893067158,-0.07664444983018151],[-0.008221805742529854,-0.0006972195721766433],[0.15809375318201216,0.01018934007588432],[-0.04515598430727221,0.09950587511551169],[0.05896250286781845,0.01713910962556089],[-0.10588779909828358,0.018909948126383587],[0.14096067054541472,0.010571968538769181],[-0.21115941522992113,0.016547187353336087],[0.0020190581636054163,0.27699349530565265],[-0.1207836592220542,0.07006239501901923],[0.07969756159598679,-0.02306244297993751],[-0.19318293131625647,0.15802626859324542],[0.09830882864428184,0.13428272325744298],[-0.06353576909154088,0.030461015400726734],[0.16285748484851045,0.0028906610475285775],[0.08609509365722529,0.013336365355446557],[-0.02103688217843009,-0.30426125848558877],[0.13482086919667724,-0.011270544601336276],[0.13589006199098538,0.010306646061197048],[0.019242232890533565,0.0743175500382965]],[[-0.139066514432949,0.057488916780870675],[-0.12101837741130553,0.03693856989840498],[-0.002590111227428102,0.07588673950088552],[-0.18013007504689507,-0.20594583533161684],[0.14057812824174523,-0.009944771702525624],[-0.12707720921251608,0.05351924471002358],[-0.1420282846918652,0.037110965689608824],[-0.08401218182766439,0.06326881821655553],[0.09337338521314147,0.08487999589278108],[-0.10955038753799536,-0.06914835794039637],[0.07662301972006276,0.0491199332254339],[-0.0513559506136115,-0.07681769206751547],[-0.028623806436963693,0.13735778262097995],[0.1466610690375672,-0.0812467940338235],[-0.11911439771611416,-0.029200582085699218],[0.03626471563268514,0.007621375489630426],[-0.0631060735945688,0.03648639125755076],[0.14142033222104175,0.10668701910524862],[-0.01507560008531585,0.15105316383425266],[-0.0789455817435961,0.2828572148362452],[0.1212103935715252,0.19193840401630263],[-0.03611815974324358,0.03051257812853113],[-0.16603331325397822,-0.09648133151663972],[0.04326376274005502,0.11187968954383568],[0.21748197432303493,-0.14266215752060046],[0.11598506619679566,-0.06802378097213378],[0.17751553888116253,0.031727786009056506],[0.09201455599557248,0.024386972676839796],[-0.09203498618644732,0.08209296765405738],[-0.04278117301632302,-0.1208613435519824],[-0.06499279383854263,-0.060920683505489605],[0.05856238550510567,0.10747655520879244],[-0.21461829910009417,-0.16142734246266197],[0.07722571974291474,-0.0935890728948634],[0.021891251455284772,0.03629857627693918],[-0.16101696114264394,-0.013789487031445695],[0.11806137811786889,0.16762914966624712],[-0.012880463001465689,-0.1599533871587021],[-0.16132237970336752,0.09183280330420614],[0.00018168188342144426,0.07739351507254863]],[[-0.09232808072916196,-0.12836119530445297],[0.021873162022172453,0.19120280675616075],[0.08432525317926443,-0.0457562147551044],[-0.10454719595746849,0.006391551485022155],[0.24978371503630376,0.07111574890356602],[0.029115563883527273,-0.07470363399829932],[0.11752443376477077,-0.11575860882629702],[0.06742485129284995,-0.1460758851136973],[0.07389199301149756,0.1306296150746077],[0.1835294700130848,0.04809871505236144],[-0.02345860671608617,-0.11876130187099314],[0.06980243530873192,-0.12143734882143382],[0.07921405382695153,0.12487220478307177],[-0.04880764653600054,0.026961334879758134],[-0.10483360074330966,0.1197838942760724],[0.19047906800502123,-0.04134067098884531],[0.04274477054512131,0.045290758415291434],[-0.006539984430939827,-0.11204277465134493],[-0.07674862985817513,-0.2116630430768164],[0.045490314302115295,0.21484586047878784],[-0.09990226629195129,-0.059127869191953945],[-0.0842843652792163,-0.052626975766106074],[0.12254318832191123,-0.05796455434968358],[-0.04714877110782478,-0.10000406112954156],[-0.006389147587169254,-0.06001355366857066],[-0.046885283538682536,0.13703780069302654],[-0.03489085249124976,-0.10493921946544305],[0.03554090451373151,-0.024263006106836984],[0.03485709436121016,0.01407618526341895],[-0.1465350227425018,-0.255555982852612],[0.21739576888551376,0.03512428919453518],[-0.15097844009395509,0.10150427348886855],[-0.11426893174235711,-0.16225067475817398],[-0.047930690980072146,0.08644331992058],[-0.13146603571040535,0.1263677800429914],[-0.18063365567173953,0.03482792384565792],[0.005464470536286137,0.03284276882470196],[-0.086271365610512,0.16413508718186606],[0.04356355684595656,0.024364776252174255],[0.08902723173228226,-0.22653745516667134]],[[0.08768256911274298,0.005178122608495225],[-0.10379806005186135,-0.02824669003555191],[-0.04400132895816236,-0.06578956339851204],[-0.1579090323288888,-0.0620699555016267],[-0.05791340057047974,0.15557985987245135],[0.16923574504110364,0.0023179867865956707],[-0.07909813954004531,-0.10075981218595369],[0.012848029414555751,0.04862036722902406],[-0.01555245798764086,-0.02026463216451296],[0.019460504337358183,0.11791019187655895],[0.020760987604501176,0.057216436507843825],[-0.08445010978904044,-0.0331347907752369],[0.12001178695908102,0.0007501703213070004],[-0.020009027128073387,-0.01727839048842096],[-0.16293740492955644,0.1896905750220706],[-0.10144219573434882,0.16048481142599352],[-0.18265372392187057,-0.10626044059212889],[-0.029993443811570354,-0.07186834322841498],[-0.237799642901315,-0.102765854121876],[-0.11874038894375119,-0.1795008790494203],[-0.009169074232979208,0.2000722588086804],[-0.0798018006862871,0.0651269314237212],[-0.03608337245556268,-0.019838915967263816],[-0.1724526360771969,0.050571810526501025],[0.010552437930601564,-0.011073954848759992],[0.029547216504386065,-0.1638914160711939],[0.07323840896490005,0.10591860881485475],[0.14723670687407,0.16637768557925645],[-0.1461514199135859,-0.07661588430701015],[-0.13152096881129774,-0.19921450668685128],[0.0632853988422182,0.1499733743164353],[-0.031109019735448686,0.04217276609716108],[0.10900867446832072,0.06780673475685155],[0.2726892789480342,-0.08223861528452549],[-0.10347483563034415,0.01929064823640278],[-0.18955427995382934,0.11160351745734873],[-0.09562039085893012,-0.008072581671137436],[-0.04909564817680094,0.1384352468475917],[-0.2137541225433226,-0.0789914414157387],[-0.018813403945158392,0.021531139766028162]],[[0.007839250450980636,0.028906303263059676],[0.16001185006364801,-0.03825162315176231],[-0.37653421459903497,0.2513794006355365],[0.021122041483059052,0.14808423418109842],[-0.007646091149778865,0.05676735350988348],[0.07160985672946237,0.12803822768560397],[-0.013200846960415956,-0.08816864409520297],[-0.014956055366804574,-0.03176617595293438],[0.06962147341749944,0.26218495243457574],[-0.02796305364109243,-0.004791858978119806],[0.058027528627149216,-0.1200442472604568],[0.0716242873696727,0.10601876663525092],[-0.0234704666547557,0.031479288828335665],[-0.045342111696978944,0.01950968549962654],[-0.06343434365640244,-0.1546116995223105],[-0.018832106026188674,0.09225283241163576],[0.030080944391926323,0.013235224823161256],[-0.08252730965493336,0.1882705825840325],[0.03349992652589896,0.11421253166586354],[0.031014000735723656,-0.1806173017419458],[0.10215104922713855,-0.04738710325378302],[-0.03608389639594794,0.10993385120429858],[0.10846027886044071,0.1912440977010012],[0.16636182288228005,0.08665188477557707],[-0.07270505347628176,-0.0237312340608913],[-0.14472311884921849,0.20770636263911604],[-0.039287169006390454,-0.06696402304964377],[0.1005787870264849,-0.10756424876636263],[0.012585895555266543,-0.11955034094839294],[0.009950704455196177,0.028372226543764527],[0.01768319153893489,-0.0822007215085642],[-0.13181520707985633,0.025308542422136867],[0.07908422218828119,0.09952831562382818],[-0.14440256150641229,0.22083636029547168],[0.13237380559049988,-0.10885779786648479],[-0.008824106154798249,-0.212751006258329],[-0.04534989884048476,0.10205266717374276],[-0.13222773729481385,0.02705126618520617],[0.09793122775829141,0.049851667796212876],[-0.14766162670716793,0.10276465457942999]],[[0.17372707300848814,-0.14293493259183948],[-0.013278842444388348,0.05219729130565327],[-0.028323520560423435,-0.02307602849716533],[-0.1453312494662831,0.04885886082271772],[-0.05685751898413394,-0.030192992266269467],[0.009496946750587919,0.07250485066492618],[0.06244533826439092,-0.03466567591390887],[0.031294856052991156,-0.07213980752588399],[0.09858303707431966,0.035013954410173145],[0.043582764301109446,-0.14367607062234453],[-0.1062366917409422,0.07017357707392696],[0.11446554899358215,-0.05515490772506658],[-0.031455368903408255,0.15860069352388662],[-0.052119177041031514,0.1021893267243215],[0.17011107609565881,-0.09769466161192368],[0.009583049355843956,0.1306797527892401],[0.0902089289168198,0.07462023196131992],[0.03207214161898257,0.020298008522127556],[0.07797587123355207,-0.023247262901401902],[-0.001157994861157456,0.02765258756472457],[0.0974990402105782,0.05852533519828569],[-0.1386567985536481,0.07148475665724935],[-0.018109471007324896,-0.2476726805004457],[-0.2218880102633311,0.13940706902089914],[-0.04843677661225875,-0.21789288554115013],[-0.014278446861367875,-0.006221865437159378],[0.12321401759512673,0.05304925081456238],[-0.05915739979672296,0.15466731977432988],[-0.07711894990741186,0.1420988485005204],[-0.046164476543336184,-0.1133670325535481],[-0.06175588374392533,0.0031321121627358476],[0.08432931670894822,0.13853270387977357],[-0.020688841964681765,0.10790689326321923],[-0.04065831343424464,0.08389432191338508],[0.15148468300117476,0.008376314672738215],[-0.13621268492694263,0.06193622130668499],[0.04401731590980835,0.09928140850397855],[-0.0842847772253967,0.09953478294315396],[-0.24719811770253258,-0.22608679331765297],[-0.18128776132028648,0.19557405087272192]],[[-0.031029777000313594,-0.08339224587859065],[0.18609393309316538,-0.10822933008687932],[0.02016688128690469,0.06970840787503424],[-0.05997341112437596,0.016583535942123705],[0.0820975105960999,-0.03555874213769106],[0.30072402073142335,-0.3578414809402445],[-0.09041797374805625,-0.00593264558439204],[0.09569072672975873,0.12391933365969064],[-0.09991746936131475,0.18059871906156888],[0.009202049737376965,-0.04454914356312975],[-0.1075465112504098,-0.1229679860012506],[0.059935960964492996,-0.08705765188649522],[-0.08656283457814637,0.0621571596619395],[-0.031158387217618884,-0.2843049608281616],[-0.02695814865150967,0.060571740347530226],[0.11670832835557877,-0.09590881224058265],[-0.016040857831956707,0.13909687136515525],[0.003049199889645302,-0.048358560391418476],[-0.11147298555684605,-0.030684902113370077],[-0.09171542887345402,-0.12480827293726973],[-0.03317964095914574,0.061784352139029525],[-0.01969469852675952,-0.11986209013908711],[-0.013863201710775517,0.052972939666926885],[0.10084090269543951,-0.058616748576696256],[-0.03309473815432066,0.044404017800341186],[0.04075729092787055,-0.14310650857395293],[0.1198040151133297,0.05936702493746041],[0.037789194015146556,0.15593699812112452],[-0.09020504242299583,-0.065670796255933],[0.15475123589933054,-0.011532932934627978],[0.25011683297968185,0.12406480729005091],[0.044867567159590296,-0.08384513264534545],[-0.007422973987819738,0.1508763546396269],[-0.009757860701101951,0.010469209233648191],[0.19817609692452293,0.06420285012337076],[-0.09377818254816922,0.08862226427587484],[0.18181333928625018,0.16186048583443638],[-0.00043198509195944095,-0.10199625816671325],[-0.14596870532058961,0.03545741472914532],[-0.13091295158159216,0.16316426462517844]],[[0.044736295569626376,-0.11745696538112353],[0.15055098855736745,0.2036593772500845],[-0.06187171493779233,-0.03484831983672233],[0.16476035129240468,0.09337242969549463],[-0.04368149593172205,0.03951909309231192],[-0.11288464121664311,-0.0459035308671933],[0.061690577257070944,-0.06753042602616291],[0.003139497126437076,-0.059117268939231686],[-0.07325494549029686,0.25349804642280677],[-0.02696151680811986,-0.1523271425421414],[0.06601023669001357,0.03686228926508463],[0.024279279741590287,0.13791985061828874],[-0.10804622639464163,-0.11248750346530983],[-0.01320942023423358,0.12064467070409379],[-0.02260075048064454,0.07596673722596721],[-0.024130854573203412,0.14274782558619337],[-0.08101843718994273,0.09161849868613656],[0.028809920745108034,-0.08562961057900549],[-0.11593815506448438,0.03026027682294897],[-0.00865483223149269,0.04274059666293516],[0.08390455598536363,0.053062830059535375],[-0.06986925442588918,-0.14701719286699821],[-0.07809216304567221,-0.023456154565349177],[-0.09502411908979513,-0.04822361436429018],[-0.06965417571551702,0.04694070160382148],[0.17380376842499803,0.050677718397011545],[-0.08705513393626078,-0.2290431915139523],[0.05001342404842339,0.04778282409997095],[0.12001636993774856,0.14400042219137782],[-0.17573404749698732,-0.19137850551810368],[0.12952223061263243,-0.12474643326947527],[0.08005200394911925,0.02381614622450168],[0.04469525849220439,0.1300979404423055],[0.08737127782474734,0.10917975263607636],[0.1134409066353833,0.09390017372769958],[-0.03308313649918143,-0.015155791645823416],[-0.0657214645489169,0.08125078217198185],[-0.19887493255890437,0.11449766061328698],[-0.10566038225647309,-0.07126248467499016],[0.05752622241005246,-0.03235685381532039]],[[0.384597581392138,-0.1968903653520133],[-0.09666703008614369,-0.15105586452859118],[-0.14040939600789423,-0.05445245743684688],[-0.03926004797692915,0.05590190712894993],[0.05909916473175372,0.06468108997941598],[-0.10442082427847092,0.03611855032361728],[0.04940267748681598,-0.19345193593820648],[-0.09347936757159345,-0.1616236350955249],[0.1928096381982438,0.041335710437696745],[-0.008692152926394964,0.12438164920963765],[-0.07416990899791999,-0.19195876934033068],[0.0844047290339763,0.018032706360652052],[-0.11682521119989306,0.11186960066872488],[0.031955455697023905,0.02904857394992151],[0.023008544125461775,-0.055108881644051706],[0.05262888225163338,0.02330037776774846],[0.09082125360937862,0.03965258285436185],[-0.0526176179586509,0.2040813180502846],[0.059513650881231936,0.1724384321519268],[0.07468848739732328,0.16605740869053956],[-0.09118522289304239,0.11033623863044581],[0.018076990950957963,-0.1317396905061889],[0.009048779492909664,-0.07734694150155536],[-0.08136136101249081,-0.07342532046195437],[-0.020574430043230976,-0.07109869276373798],[-0.04668234164181243,-0.06956629963958433],[0.16275398190305207,0.04367065739623748],[0.19277232054814245,0.15421449822090902],[0.11003961604647697,-0.11553251972237932],[-0.11239611555972542,-0.018340203872783678],[-0.1348914238690027,-0.05034010694441612],[0.2611202874940451,0.08655274796460674],[-0.02214614523919756,0.0947339089709693],[-0.12142828790275942,-0.13112713251743563],[0.0006252809066386991,-0.09602737834022211],[-0.1265640402722745,-0.018291679507496474],[-0.0453059761971028,-0.06635819717388165],[-0.07748315206894196,0.17525853624574414],[-0.13438735634310645,-0.13787375206751878],[0.06266107607741195,-0.07763671578010656]],[[0.021246421244213852,0.00020085567859945958],[0.07288103302242606,-0.15683654553106216],[-0.10542992863124538,0.024997306471194587],[-0.08185877505460873,0.12422882540313102],[0.03162085936347849,0.10389057844636918],[-0.10272275415678524,0.02319652670040689],[0.0053325387365704465,0.01056437652565695],[0.13639430881988196,0.0007513860415811629],[-0.0021883341615917917,-0.13859095967939397],[0.10169388185483386,0.15050397692811804],[-0.18491767797487565,0.0260719029764974],[0.07007942586180291,-0.08865902466778698],[-0.06066690840568462,0.11802632651532775],[-0.1401958785229911,-0.06692367397675128],[-0.04192318009431754,0.1082945759697723],[0.07136054678941617,-0.0769940934244752],[-0.06386220809226825,0.034252580980629284],[0.125915125053524,-0.294471008616372],[0.17505090168650836,-0.09215078512425925],[-0.006299912092822461,0.20250877211076265],[0.04421262436859306,0.12249974745768491],[0.19520514560861082,0.23008067052918402],[0.07008758272949822,0.08475821277723962],[0.12182124340958694,-0.004461832795658647],[-0.032297919565732525,-0.03919396337351527],[0.04960511683878138,-0.03809486623393839],[-0.09025200859447449,0.04253633754233752],[-0.06755347157428762,-0.07210602741162661],[-0.09462654278603613,0.19489699124029772],[-0.11403991914303861,-0.07471530404405631],[0.0701910064997083,-0.20767183093683353],[0.11265242432009163,0.0397300485365921],[0.02657189897637432,0.02955809574205325],[0.14966125727732318,0.000406190277089894],[0.03362404520839271,0.05894748971460714],[0.07466765722205017,-0.04438497933813868],[0.22575059511921824,0.0814990262101179],[0.20810384827421144,0.022065078692178344],[0.13058034882461766,-0.043683748755013414],[0.10915306689779683,-0.038557271129435654]],[[-0.04261029265291392,0.10287642278346827],[0.12622296850927503,-0.10484106332560321],[-0.0730027270725125,-0.1290710943141217],[-0.0012593615538415172,-0.12331925946707367],[-0.01575591998068189,-0.03753075360086799],[0.26454626597588565,-0.09132402486359263],[0.13987452510352813,0.14315766534396449],[-0.037931039216576645,-0.0905212409034109],[0.15656289845229426,0.05383527383061181],[-0.11019102468194722,0.014624824473585391],[0.027965262010036015,0.18488646457542812],[-0.14271309506781055,-0.05463900434963628],[-0.03162776525186265,-0.1258444772472956],[-0.11230296097138248,0.08891707057224917],[0.11382512744104148,-0.14851235473512145],[0.1965226853442652,0.05934701752548518],[-0.10865635308627128,0.029642328141766004],[-0.03039137015369848,0.09505905245246493],[0.0951812873976043,-0.07063988923813579],[0.07030815248866396,-0.0021349014907977135],[0.20338092446917844,0.07126203409968533],[-0.13745344000700896,0.1524228026923939],[0.06295627513538855,-0.04383125298984164],[-0.0612710181469826,-0.05062420736907372],[0.015242456991770782,0.1817512680521853],[-0.036066976912648575,0.1469580652589365],[0.1029649284421557,0.12758862549090783],[0.04025906359352068,0.1350593988502395],[0.06811550402870929,0.043599619352122955],[0.08588370200179049,0.06784015155698923],[-0.08145120224609512,0.03499142398974555],[-0.12088254011031464,-0.2938593540619507],[-0.018452658780243176,-0.05864277057267582],[-0.1290906588409374,-0.10330855087737245],[0.007275249433262285,-0.1406000499200905],[0.05244797718393949,-0.18119534078406097],[0.06046381643877908,-0.06711687921861427],[0.11010075704365424,-0.11852729199661445],[-0.033947460734028406,-0.04309917577082403],[0.06991169960991851,0.12188090299134839]],[[0.10861511113778995,-0.01691443439839293],[0.012402802034840094,0.1600761023692868],[-0.012674842405878359,-0.18725593723556874],[0.044797052352264465,-0.06384883769102781],[-0.022643018873869155,-0.09596369958459317],[0.03403020414920446,0.056861291828824476],[0.16989538677708246,-0.002538633354754098],[0.1512642929352642,-0.09299693830919271],[0.19723473760448623,0.03925761563145826],[0.19371458631763314,-0.01915325916732781],[0.08174904810089394,0.10560985910475768],[0.04026931211768274,0.12001345664677707],[-0.20998475337007583,0.1796998962794383],[0.057439505843459485,-0.025005132704285827],[-0.012858777208258258,0.05121848837308092],[-0.19904143557465429,0.24706516621884975],[0.1159532870450083,0.12573287050606885],[0.05659096832155079,-0.2270113788464474],[-0.11492289690529976,-0.027399113366152205],[0.04821981659182019,0.21997338932004634],[-0.10417643556491683,-0.09807928953566812],[-0.02682047268273444,-0.18095899237071306],[-0.014000193242127056,0.013872674385952743],[0.01952908244770093,0.02076488566408536],[-0.047946635256473635,0.06825288294201884],[0.183205502801835,0.000869706869435464],[-0.017145390615157515,-0.04772562923212815],[0.022924303558380214,0.05181544512774541],[0.051316774162374144,-0.2561667514207771],[-0.06830857391632379,-0.059086928035918015],[-0.11586931315791864,0.001961392224055002],[0.22028724924553425,-0.004119661832024163],[-0.1279431692626988,-0.15034161729752202],[-0.07715758315767776,0.06090393147228167],[-0.05348510919929646,0.038065913465486545],[-0.0197663015046458,-0.05653922989442695],[0.23300279704345253,-0.04696803906206474],[-0.08425071678480221,-0.08115918599237541],[-0.1449724133520652,0.10665867820206497],[0.03548996359308868,-0.08590954976826887]],[[0.06799278983849852,-0.06898328117318628],[0.034133547918481874,-0.0413771435032486],[0.005160296376830143,-0.0831559575272242],[-0.007787284326349747,0.09267096710983934],[-0.01604925223110567,0.04008632019505115],[0.25176384103527066,-0.0772463837916595],[0.17612811512203702,-0.040488661809313896],[0.023723497266001523,-0.10166608579704677],[0.10414109207218378,0.06834554820203168],[0.06504845309407803,-0.09915866433122678],[-0.1522980720181148,-0.024832295707014826],[-0.035677370146685074,-0.032479982984695475],[0.007503728405503248,0.1196820396963298],[-0.1999383103028612,-0.165667843465382],[-0.08321544721813146,0.0027847679164722406],[0.028343177912121285,-0.019973786709677654],[-0.059558350954778336,-0.0995372154551383],[-0.044905919956532786,-0.17092775946213],[0.07461243204058791,0.08174212628795949],[-0.20503649848556735,0.06357202846031672],[0.15265936540953226,0.15909880881442104],[-0.10426097612176446,-0.13810346502299817],[0.019194463967490527,0.029306634918872188],[0.11978285790456385,-0.0923322484810255],[0.10454892051497316,0.25711970632269665],[-0.07544142500974597,0.06396915651554576],[0.06419772204548417,0.07462303600602246],[0.06389387943219571,0.10338358741836133],[-0.035047374276675786,-0.009623322029953944],[-0.11616873651125309,0.14326269041965262],[0.16026431216791132,0.29718371856324927],[-0.022807731516678854,-0.12442687186031325],[-0.08935383817346731,-0.10020762621807265],[0.09106198229760766,0.014576178625271928],[0.14794325841767683,-0.01961746858811806],[-0.3077048469260877,0.08563956892055534],[0.1308243304545479,0.027630280758258675],[0.3171439690489597,-0.028629723471150392],[-0.12172569923584033,0.16250243072827542],[-0.060778793698804144,-0.000995947524248822]],[[-0.12260465007400238,-0.05078696849094309],[-0.13528356757475318,0.013718676246173534],[0.005321632006784768,-0.03151211338040714],[-0.14806366241719868,0.025608603482585916],[0.0106932854585847,0.08822098619294232],[0.042699411691505984,0.15564960078749557],[0.08935013245715827,-0.12985773084099242],[0.09912034771453367,-0.08570453347988932],[-0.03943724645821849,-0.03589808668821114],[0.04851905200728334,-0.0567229226961881],[-0.12218184580476206,0.2271329807786964],[-0.02723277749183518,0.15034513105484465],[0.05667557319769067,0.3163455963244389],[-0.05353944506570429,0.1141164070443175],[0.06501666102206712,-0.005171188509112508],[0.11210885481824677,0.1582249236380713],[0.03647002036819904,0.1607256563668353],[-0.0751430470251067,-0.07657923512048305],[0.05541975666717582,-0.04488336835069857],[-0.018808116403896596,-0.014750791107991143],[0.01910863191015122,-0.06962077113452085],[0.02329760457568375,-0.12687571718764368],[-0.024862530535154723,-0.1309056103862841],[-0.011819614081999615,-0.04390980284976101],[-0.17455491219587788,-0.07073601728603213],[-0.09539442810193839,-0.0039500500078262875],[-0.08649006569898081,-0.030354320784122563],[0.19266506249324522,-0.12844025081218632],[0.11419231172277923,0.006948937908671928],[0.03423922253857981,-0.12834008960580978],[0.028386701768091185,0.01954476025365612],[0.051209247780388295,0.1421993490064709],[-0.16366305808995893,0.035245071732554235],[0.09789713299531809,0.038772771001484484],[-0.023663876689867042,-0.013466559724760912],[-0.15251449340149686,0.04175352274457836],[0.01730025145047845,-0.14145108001853549],[-0.09106367064962982,-0.14880514775355222],[0.038290645004284515,-0.11711257430277723],[0.0384986600626162,-0.30891111278914857]],[[0.002951547896776541,-0.09913743464812645],[0.07182762456460919,-0.10413908590332747],[-0.1776304597808818,0.19255256111112284],[-0.10813694023987296,0.0038671377016820684],[0.05987217871675542,-0.2494566421824016],[0.03572757614909748,-0.04984120474243562],[0.023593596960298856,-0.10983085179069776],[0.40839347191264697,0.05371425133715547],[0.16780075038418862,0.10092819957627744],[-0.05202095988461866,-0.1531770916497312],[-0.18928989021095055,-0.15076161477502897],[0.048827237323633386,-0.02855293484011992],[-0.10833835140329856,0.051587761161176804],[0.019688785652803416,-0.1846381889599459],[0.022161595912965244,0.07892518601570687],[-0.06887320209652653,0.04144606337630057],[0.023595140285515376,-0.0634470504744503],[0.19731025919872452,-0.009497428180018197],[-0.013317663059564016,-0.10814496111968805],[-0.07416691906589129,-0.0230976948932097],[-0.04031319865302827,0.029399409553681134],[-0.050703918355420576,-0.047770325399605525],[-0.10524875171091758,0.06057765223587994],[0.07481852546382067,0.2469110558614586],[0.15631372391398446,-0.02847035148160547],[-0.22332484887558257,0.1556519418752496],[0.20223915602864168,0.10686361659784616],[-0.13850576404738646,0.05321996205881889],[0.0017299689705839172,-0.2301768981888472],[0.09482499195771533,0.09282285223268025],[-0.0026632357890961295,0.22609930563215608],[0.05022058345936305,-0.027965012599536876],[-0.1846846174250569,0.17170438451854247],[-0.09713414527696383,-0.055218395378868614],[-0.015039452304186322,0.07987684493091643],[-0.05386390870142975,-0.015300862632278462],[-0.033222424078320587,-0.15680328325315188],[-0.1801708089528358,-0.056812591084251254],[-0.027029131339821787,0.03427018825951965],[-0.06298778167513523,0.12533914953237435]],[[0.03665668794479473,-0.24029666739382696],[-0.020696894154049954,0.024162029174999617],[0.1213979940815489,-0.06445202644226601],[0.012262770505644198,-0.05804967742687233],[0.044721404932400906,0.01315101040210426],[-0.07971949029714774,0.04160784948276734],[-0.05410949349650026,0.1535622121786112],[-0.1203012900993548,0.038362793797430975],[0.03810749559476324,-0.002391948212648001],[-0.011255457659011045,0.04638842549294486],[0.06057426727385926,0.0632685992480788],[-0.26644707794927863,0.1613847783136603],[-0.07276490603245181,0.07938151828183876],[0.13311415701518903,0.11692450098201118],[-0.06256239785289565,0.17464130827830668],[-0.09493661400862527,-0.0870512113948587],[0.0661859887110147,0.01124543827735424],[-0.03472870877612597,-0.200995488808179],[-0.04806729212610088,0.03821121697839318],[0.06296523904676792,0.16743640356626044],[-0.055066414511598986,0.0722031074760086],[-0.02472765337929714,0.027130217445354834],[-0.14152081284204954,-0.1026436537914839],[0.06080302506542334,-0.16575224746578185],[0.09550852124487995,-0.08312336280544204],[-0.00507926372238558,-0.11594877116303255],[0.06859985800640574,0.02591151058430043],[-0.15904871309926366,-0.06552298144641493],[0.035724000429096604,0.05157770392494],[-0.017601003566451622,-0.4107991363360034],[0.026733758768390074,-0.04342525352807061],[0.1304105806098809,0.09803430947372924],[-0.20526390750440693,-0.004083096267267627],[0.08024193335984284,0.004636078699178442],[-0.04827120540298907,-0.09210231382938919],[0.05262514250149237,0.0658660568727105],[-0.08529747826576776,0.006498713513973155],[-0.2753827680163971,0.16732517573828679],[-0.05893486117882857,-0.09195655292901146],[0.006013231382096206,-0.1420890817265084]],[[-0.039540736151336624,0.016845213848467756],[0.19875234828852525,-0.1170490909184427],[-0.08917173272589862,0.07643970701522929],[-0.1590559996276446,0.06920117681983957],[-0.012937726051845082,-0.1320899272082237],[0.1778359641737474,-0.09417585375091271],[-0.04510992171220987,-0.06980992902220756],[0.01210579919077227,0.05951212230292918],[0.24142395487288246,0.12901123701378445],[-0.16522718036858777,0.014293353974709863],[-0.07681175395326395,0.007193689716040397],[0.16806508332388273,0.14743887902824415],[0.04611478501037469,-0.016950380957992325],[-0.08003793416312922,0.006861374552557561],[-0.21015970031035114,-0.24135441823593382],[-0.04568892443133855,-0.01222993995481437],[0.020439357659611985,-0.025846517710760707],[0.021892442016750488,-0.007017299344574451],[-0.12497848851497237,0.06944328352587618],[-0.12878103073276773,-0.05365184160908266],[-0.129686664217402,0.052114148298744216],[0.15708769035487968,-0.27221830591044033],[0.14801538551154356,0.08352939350673545],[0.02667227269898711,0.18285231120335624],[0.24256857382087826,0.06754075280106002],[0.0432167967392494,0.2331070669171633],[0.022693479349959803,-0.24375269776739913],[0.047943158692700494,-0.02161084120030652],[0.12248171682194245,-0.07281780388436798],[0.0032072527318230616,-0.0027932841637148967],[0.14990242421410546,-0.09505672542687152],[-0.13747249234347855,-0.08297993044566826],[-0.3078596690073577,0.13915116180139014],[0.023514388648716165,0.3059583457409538],[0.03330507562120854,0.18908119339708468],[0.004073931681592653,0.1576784762744275],[-0.006288579439561861,0.1917615736568132],[0.06561196047823024,-0.21390176855803997],[-0.09003475179139432,0.053722526122702084],[-0.11623602219011375,-0.21200350653345032]],[[-0.26257429616689715,-0.061430939844060145],[0.07697712764187702,-0.08771204763210502],[-0.011551744469600663,0.10518613066896171],[-0.19103719819274648,0.11803413266990932],[0.06191195921622615,0.06744165593522376],[0.048275243478400974,-0.19222462983823585],[0.024971647334035924,0.2396207655032259],[0.2623668638156414,0.005912357852664488],[-0.09687835433950959,0.05561904392807526],[-0.0067178747444347495,-0.11940911703868272],[0.16485191266978275,0.008049339366140978],[-0.17101437388413399,-0.008812974187092764],[-0.01336529096249424,0.11124721831699175],[0.0747520865583407,0.0011459002917519581],[0.11077435526170828,-0.045231975902671556],[0.11707791132778199,0.07037913787990313],[0.03641805824829866,-0.0437751538555017],[0.07736360808487276,-0.1468402251171994],[0.007655517428345228,0.17686556196250658],[-0.06203806658589697,-0.09441898316545619],[0.039545129072641745,-0.07791687434062225],[-0.08604107118039214,-0.021361216076011286],[0.08891571874243598,0.017622558791275902],[-0.18256977811161804,-0.08623165222044772],[-0.03322873346856845,0.07016383591328905],[-0.21147348351811138,0.06497399862036429],[-0.09676396591578439,0.017941760004909015],[0.000500045314078248,0.027686250270438226],[-0.03745613601085835,0.0820046149696333],[-0.09192133456075278,0.0035672357849755535],[-0.044131898956062024,0.19130144775372668],[0.1412820218476426,-0.054484342724911004],[-0.18956092019420134,0.034392783207923536],[0.1030606073956322,0.15334452909013058],[0.22922375907444698,-0.14843170116787363],[0.23504042029875705,-0.16594747224076495],[-0.00663505498282715,0.10003983340462586],[0.27421509070566097,0.027714932237569906],[0.01009007492302389,0.017050952424769533],[-0.0632933818841273,-0.00681351165728768]],[[-0.0814944352468818,0.15104788886794854],[0.02664443615288506,-0.11061320004997646],[-0.0499981527274302,-0.00026750648294708676],[-0.030597737924611464,0.0027264354645830055],[-0.033958472044215086,0.0410749862959948],[0.17568814873073646,-0.1540359730065085],[-0.062385858583832596,0.09815436687809478],[-0.19442307339964224,0.05092590818113179],[-0.0322167498635831,-0.0867765428741501],[-0.10862972832967914,-0.0003262657055731143],[-0.19601976966754092,0.019220014028067004],[-0.16784366281500782,-0.09159925011170363],[-0.2200527477479162,-0.06274748677526797],[0.0008654700417922832,-0.08447804447919678],[0.03419213022834716,-0.0006417234493125403],[-0.012467185863507434,-0.05710076022115399],[0.043244193485293084,-0.10142865480756127],[-0.011147308950526996,0.04399133211723744],[0.10304818664646828,0.16296763716030188],[0.07225715009554304,-0.15057701238407303],[-0.07598018478885239,-0.08768061260205033],[0.0383164583043315,-0.08854051083152059],[-0.018769524642002964,0.06607505185710616],[0.20686894117154347,-0.03912276175102711],[0.04301362633803253,0.004044675963032759],[0.00540138646319509,-0.0754959208151587],[-0.11286178317412715,0.015049281361883828],[0.0580351318987159,0.05909754913219749],[0.1268381993586306,-0.23981132635602234],[0.027861640129179795,0.14862162024946837],[-0.08685053735074928,0.035382866571587936],[0.05286194957636657,0.03952999229085331],[-0.13476507320744277,-0.12426377627459116],[0.02123288057118335,0.05624630322073989],[0.1859707967493606,0.10582155914801634],[0.011485391806807329,-0.18117813435534566],[0.022004788790896155,-0.009590944476181086],[-0.030346287984882116,0.15005854617419628],[0.39269214386398427,0.1261278817748656],[0.08427237474445841,0.050628613355064994]],[[-0.0928628011444127,0.0011819861614610334],[0.06175065138200634,0.11536101604773422],[0.025739841360147595,-0.014693309940390836],[-0.04485995026980797,-0.05869997270795949],[0.0461106338700383,0.17217041009283743],[-0.018949084401303863,-0.16034032551673122],[-0.004309566067614471,-0.04267440559129123],[0.016705927263796074,0.04566359074420792],[0.05207629535944815,-0.212004277755059],[-0.0014688587092547912,-0.002543853761417458],[-0.007792202699018175,0.11960208499841207],[-0.12308409674420713,0.17326798943159732],[-0.04289550051522081,0.12681690850913335],[0.10101200668166367,-0.07832601940632657],[0.07613340229593825,0.08095447469432596],[0.06357370544037412,0.11053509960758588],[-0.050003763556538836,-0.057953594785193366],[0.2941218073957669,-0.11271469606259911],[0.024958965041200647,0.025307334183000307],[0.14919793531594966,0.01813577834820483],[0.025845610791227755,0.06186273069350659],[-0.04568597497371107,-0.26496848215505775],[0.06759098042919494,-0.2173582867847992],[0.07967018829401844,0.2044677575669369],[0.060169332832085566,0.1608169087392428],[0.09240411098916813,0.2071425957732898],[0.11872534205208166,0.1041460910879832],[0.15317486782535958,-0.04036380102868859],[0.2129296051978552,-0.03241424771754189],[-0.1328528816884502,-0.07225976189883328],[0.1827770761754909,0.022525686035341864],[0.1205808942111385,0.18040495868217968],[0.06470945090873838,-0.14615275891839027],[0.13868531902392905,-0.03962393848028384],[-0.15869260179349046,-0.05630859376145383],[-0.05863553155761214,-0.15162825010098807],[0.08832979425540165,0.0547995001871791],[0.00045381748562268364,0.04640924383219161],[-0.09690585858247759,-0.2694959323976547],[-0.1205620896814068,-0.01673066316002282]],[[0.005971708721433621,-0.05770754537563502],[-0.014421630518631995,-0.08112707527772979],[-0.10934256786240751,0.1141669634172269],[-0.018740691006517336,0.007578380705125763],[0.02717141788426379,-0.0180134246924451],[-0.09274678963911862,0.18035225459304527],[0.08950640716619439,-0.2162038444750621],[-0.11279261579971576,-0.05093861660151537],[0.04942141782101087,-0.11685621260251798],[0.19755763876779464,-0.1714686445650493],[-0.10174773142563047,-0.04336827677428846],[-0.04572523688598603,0.030166727784666548],[-0.025865835778069852,-0.04811101443160175],[0.03156059480910928,-0.009381979369584539],[-0.0031040172059811086,0.17611980551605264],[0.03627178029123319,-0.035300430462424],[0.0747052336288069,-0.022445035460835448],[0.09218723722925472,0.13024290481008058],[-0.2620041138467537,0.09325322790790976],[-0.0609777101112455,-0.0300913120209779],[0.09450652771684803,0.07095977047723648],[0.0425981088523275,-0.3176142905799036],[-0.03520105887494817,-0.09473849299498012],[0.13500750403231415,-0.04132233002559157],[0.026532429769458937,-0.06337532911668037],[-0.024282575783141882,0.2181204462366236],[0.034227441411504744,0.1635920414749488],[0.05854062247682189,0.003768879879085921],[0.010185311140754591,-0.04176603081602145],[0.1390297112861192,0.1592933920687385],[0.05806341987913061,0.06933487426805615],[0.007202915679838178,-0.015735401408442963],[-0.13370890495614166,0.009899474010982847],[-0.15134492093049923,0.026610594890637135],[0.04503624521511773,-0.004918974039676978],[-0.03187129454299717,0.11136559006686897],[-0.0005277523858409814,0.08018465187009674],[-0.05349788396331934,0.12208835187795183],[-0.1979618274895294,0.1999635558517455],[0.059010962172053434,-0.07736637906719784]],[[-0.018992247709612796,-0.058468084717126965],[-0.011738469712610188,-0.0016802718976057975],[-0.13942725797556363,0.09286630850797338],[0.07523393554136953,-0.04329254574155451],[0.03159783168234331,-0.02431558458991939],[0.086525534330655,-0.14069661020431842],[-0.06377508716769635,0.3699428966967733],[0.1046669582617796,0.052266490056741034],[0.08733449551119357,0.04778606997973518],[-0.14142559580098382,-0.07022124528318509],[-0.11138442841276602,-0.031798673937110715],[-0.03721218107855273,-0.3449593738270299],[0.18927888313127839,0.23174590515048507],[-0.07006240251920816,-0.0430821328513794],[-0.1136831455456511,0.12368323023769753],[-0.15153446639687765,-0.08627618787861938],[-0.15861112962174706,-0.024136466514530563],[0.06200380663889923,-0.04808551013552125],[-0.026634564913523465,0.01469080947189954],[0.128084350040192,-0.02977025353143147],[0.003554903011499474,0.010649294915791939],[0.0659241560370982,0.2473874071386286],[0.11230959640427075,0.04561776815862207],[-0.017074033963220773,0.0958296772487041],[0.13834449881730954,0.08012447012897173],[-0.027461506111453496,-0.14466835472232376],[-0.04919658518042013,-0.10156549624947034],[-0.07451546011900292,0.010326625241684326],[0.0766651130002573,0.04633897506746218],[0.007486339050802149,0.06304717546849917],[0.045393035988789666,0.04833908565342905],[-0.17099097498343455,0.038399667589281046],[0.032896767041812824,-0.09759405666404102],[0.06111848599284112,0.07846840557875195],[0.19083975508148956,-0.10520999571747279],[0.04629046653312707,-0.032965595471085865],[0.07020098012282684,0.013568817672521443],[0.12643714147838098,0.04909883545000737],[-0.058867403914902805,0.029420862147013234],[-0.06921328960472516,0.054740711913558705]],[[0.2331667931961709,-0.10529260494452355],[0.2298340439321613,-0.003869626629486057],[0.15380526080988585,-0.06016117911287423],[0.08175457995819602,0.04051111343632891],[0.3008950856095133,-0.2614285346840991],[0.28994035555878367,-0.05149158652728579],[0.17800882574801397,0.11706574821825029],[0.09119445581580503,0.003898084517740176],[0.2645771783132727,0.11811326203596437],[-0.10621867821279996,0.048041167813630034],[-0.14708873960696725,0.14680630627835503],[0.13367651395718025,-0.009159834388477929],[-0.05353047239856938,-0.06771121665509196],[-0.10279621679972666,-0.11208571525565861],[0.14135511395747632,0.07216201222309772],[-0.06863984067895716,0.06613821841499921],[-0.08932362440196773,-0.1262347553744441],[-0.05389521475453288,-0.008533714832806386],[-0.06738482882349286,0.01194890626545835],[-0.23637675304413958,-0.19087973195659427],[-0.14781453887835866,-0.03098760102453841],[0.09371897222757478,0.10856034538499369],[-0.03687026862094174,0.039956389605310325],[-0.007257781232728184,-0.021271784441781866],[0.045133811113278376,-0.013237003767406785],[-0.002507062386599278,-0.07111313459509497],[0.08113363527670331,0.2893422698943296],[-0.002962902740877821,-0.08709019838011398],[0.19009096206971207,-0.2579384826120618],[-0.012016431833987064,-0.0513333463028097],[0.2198225208768641,0.11777651285958146],[-0.06964847012808793,-0.11008363516228939],[-0.009389064567649133,-0.02223261157380476],[0.02367870552091747,0.19646821259879615],[-0.0028358631602560377,0.06756593179932265],[-0.049227180740263735,0.03224801332983591],[-0.0979819182211932,-0.04467755097020095],[0.15735988335996057,-0.21059597787121773],[-0.0579243298997623,-0.036528489047526376],[0.023073614228814435,0.13306660349998262]],[[0.3980582097734402,0.19845345224046854],[-0.04647628345643966,0.0782403460227375],[0.09803938470658644,0.01532540306801098],[0.05918856141735292,-0.07826098670613164],[0.17872677515501414,0.12522743425546426],[-0.04927307556412805,0.07031962648916078],[-0.1194219566736628,-0.16983035413403422],[-0.17741758769507798,-0.1950466340961208],[0.1834887032284323,0.034391698182157614],[0.03429225690457202,0.018082408402629275],[-0.16561308840516065,0.09897453348815916],[-0.059028201404666795,0.015656886213183265],[0.05593752654389698,-0.10500573519841044],[0.09506065369038527,0.07960763372874996],[0.02528832746437604,0.08492843910167204],[0.31248604062477375,0.009538090193236754],[-0.2054724398661019,0.012453430532602342],[-0.16350287873476857,-0.016542780937202208],[0.1103440756875566,0.19442533583961527],[0.04727807484417388,-0.025817530946681932],[-0.1774957513094476,0.021775162955163997],[0.17029158749672846,-0.09591504319316192],[-0.20417107148202399,0.06601528825292255],[0.19839120168437965,0.08805669591182573],[-0.18813741953318078,-0.12509494778664862],[-0.1360110040704343,-0.07426354464577907],[-0.01113546304775604,0.10721319774020724],[0.06465778759421796,0.027849565651653044],[-0.14809593515286484,-0.2093212368653825],[0.10097532045843835,-0.17660573178970634],[0.0018544386998447966,-0.0744251242283238],[0.12287847092623223,-0.09728733471853675],[-0.10554440039148075,0.09082552442877352],[-0.04020336939711148,0.024854889626634027],[0.03027793872292923,-0.06937878600774194],[-0.06889664877799806,0.06291981418366217],[0.08786357603008098,0.006569362567028979],[-0.2136553427353959,0.009952404346655683],[-0.1588253167872393,0.04108391635851081],[0.06235610585672272,-0.025756810015024074]],[[-0.13871118183124925,0.056931536001528484],[-0.12408882166261337,0.05876318601124726],[0.06385667282760916,0.1669517540861621],[-0.0174369315868312,0.10267697170485104],[0.0019670760758461058,-0.24455744984968006],[0.08524888587920615,-0.15933179672496106],[0.05419722147403725,-0.08700047312431373],[0.22768783745809668,0.03575929279288262],[0.20905760074920948,0.02422914704461453],[0.08255433084615424,-0.23465460287816145],[-0.07326103119032872,-0.010156073996319256],[-0.0014794600765615194,-0.04844695416351797],[-0.1182018124802935,-0.14449169211278307],[-0.10305061503548921,-0.0012388640998795821],[-0.047390901332573725,0.014148415654382338],[0.07693665465887763,0.07254877951759632],[-0.02104814945253423,-0.17532763894123674],[0.16646130708588355,-0.16706372380968432],[-0.12843621757656493,-0.11767442645835703],[0.06756112265561576,-0.06722635298843453],[-0.03050095562506083,0.08326915018293042],[0.14619718919167873,-0.04824792645059956],[-0.07973758390506455,0.06895291908284465],[0.10909737416945729,0.06964014926850397],[0.032476653229005864,0.16579201920993974],[-0.07689037777178329,0.006048439693892508],[-0.13672069335673842,-0.1510838055804115],[-0.08073403673173853,0.0727499980543394],[0.06759682621346061,-0.16780248816461257],[0.004707849011538872,0.07535610311850001],[0.11613277787552313,-0.019518489536808296],[-0.11393448824577598,-0.0040473895836892395],[0.02444600378127008,0.060242878444980295],[-0.14311687569312104,-0.04188562582971333],[0.10369153337203176,0.038909418107667744],[0.051028336024712885,-0.017478379567194616],[0.12473437364920621,0.04389422335092505],[0.022249168301004773,-0.08663393682535066],[-0.071622678372162,-0.022204740979541976],[-0.16121360684048264,-0.03481791558408519]],[[0.034809171532925134,0.15086308528542464],[-0.1619471582993782,-0.11997640617147744],[-0.09630174702584815,7.346217749896832e-05],[-0.0736601717486346,0.019841260657565866],[-0.031966256674601394,-0.03987139792812669],[0.03822925337718972,-0.0382746534371264],[-0.10208002915504685,-0.026696766410499766],[0.07054781802161458,0.044273076493881784],[-0.04394340623106375,-0.014488910400375957],[0.12438019251612767,-0.04111722824100747],[-0.14648328709784378,-0.06176916522879056],[0.08210798925747897,-0.04415575007794865],[0.0604775783986341,0.006792258655962381],[-0.054419204631742685,0.041864263946432015],[-0.014943604785129985,-0.07657265372922645],[-0.18008032628599155,-0.10365381134092866],[-0.019855816520063168,0.03788817448266102],[-0.05894958622929291,-0.07447176238964541],[-0.09665579755581025,-0.03319644383634135],[-0.10355847871292287,-0.015549275963608182],[-0.16629620609590395,-0.024385068312899643],[-0.10579709628127228,0.2257558226306454],[0.042400819384730705,-0.002937522476363586],[0.02128021048005371,0.031516891265888615],[-0.08043108937555683,0.14931239112225334],[-0.27903846700077073,0.278612267091178],[0.0011160623428835752,0.17554866227675447],[-0.041558826861733685,-0.07926642745764968],[-0.012662870467029337,-0.2521488726611888],[0.1350526759936142,-0.09933201440105367],[-0.019788179911256365,-0.0010570984040980922],[0.012835091048079577,-0.1002388535158945],[-0.02586880108518249,0.31434314875109726],[-0.16530265004431746,-0.058627804589342476],[-0.0012685499722337988,-0.10984926157506303],[0.2490660236120842,-0.08151246292874385],[0.042230339742612234,0.0595014376021335],[-0.1502637956134221,0.058434708137053815],[-0.015461660537106613,0.06806928312663371],[0.16382234149125652,0.02628144053520505]],[[-0.19836054311072482,0.18391569608315492],[-0.16916847966828719,-0.13414356707823158],[-0.03128070306740199,-0.08621256451683781],[-0.05918578270319276,0.09088519018052765],[0.1213128386221479,-0.06403320676328667],[0.18937242094956733,-0.309185620775021],[-0.15625462396902912,0.06372999465778097],[0.12278256580931317,0.11548126812721446],[0.018877463551293015,0.004838108443715388],[0.13139121974304543,-0.13198724462467554],[-0.0018181058192727137,0.07469984737690795],[0.03386048780420546,0.08584354117198319],[-0.07100867683901005,-0.029630625654277026],[0.018852160455771656,0.1602657273011538],[-0.08303624325589312,-0.14803683658367034],[-0.2383453302458499,-0.08465701186505332],[-0.13607328523128198,0.15224166449756688],[0.07252245988715614,-0.0638605133901437],[0.09558571016908947,-0.13207821842348588],[0.0062854229882635115,-0.1912394453146772],[0.0036683463858143517,-0.04896510920918849],[-0.07482493814019052,0.12991400283886298],[0.0852434727150577,-0.006596058855938025],[0.10086661210426781,0.027195255896734122],[-0.007863265205484605,0.20426497531732646],[-0.11726574248743442,-0.22325528409407355],[-0.030988696362406316,0.02162074793954352],[-0.051410429772732365,0.10062121109112275],[-0.04661507618901551,-0.15663111525635806],[-0.13560291734943938,-0.06603014725933445],[-0.004617177364954239,0.051536315641980954],[0.01438132333051189,0.03535885952981392],[0.07070904143714943,0.030920543823064958],[0.02110627843174698,0.009207511404037022],[-0.05300050401418581,0.18909259291316902],[0.0742263719366834,0.014847880598098176],[-0.019218125798568842,-0.09989755407707945],[0.046079367437822635,-0.10120322961832894],[-0.019828944202858925,0.11358959387885872],[0.004023224377602615,0.04477848031362083]],[[0.10872452442851273,-0.06583240152262258],[0.06455186243173137,-0.016725221060184037],[-0.05537861240745275,0.10383231741854008],[0.05557082626371765,-0.007884924531931204],[0.1693789709156668,0.21942708145595166],[-0.02361277871647137,-0.024562856408519563],[-0.03496842566285298,-0.014809236565186429],[0.021409106140235615,-0.06392410424544122],[-0.004880549086031323,-0.1248222288550042],[0.1529176351260686,0.29019143180728074],[-0.16759825171915044,-0.21694351647779742],[0.043781377980615516,-0.06095691181104489],[0.20565043476087333,0.06143229936944135],[-0.0008786414211600594,0.024612490426893285],[0.10998129805444536,-0.04322470307869926],[-0.13546643656839633,-0.03355025095538743],[0.1558231976803846,0.021435392794776128],[-0.09804239341464537,-0.03304610818909494],[0.11446278358713637,0.029521041667609473],[0.006029379167589143,0.17941182092220728],[0.10588780141519792,-0.0010677888061478766],[-0.11513131658830636,-0.11510746311323403],[-0.01922824178526224,-0.19670445287112817],[0.12170576891516499,0.005175343914216375],[-0.2782489262559802,-0.1344064135909205],[0.03444044156876755,-0.0014963601934597916],[0.11667452507376837,0.014972334415959037],[0.013984999186610088,-0.05308009103876716],[-0.24149150065214506,-0.21273263845588056],[0.0006589812079799848,0.0732235540491059],[-0.017392428253608355,0.08588715486954608],[0.1469265636412782,-0.011705272352466102],[0.19273601016329114,0.15640778301285024],[-0.012776484563729627,-0.07572047809464831],[-0.09912849375633852,-0.09255143800869109],[0.08130974071966487,-0.12425413804342593],[-0.13847839430816458,0.04707032346176092],[-0.009097570191228529,-0.1340285577741229],[0.09696932064483868,0.11495115926121925],[0.09507868232102355,0.08008582755683069]],[[0.0007639673623536251,-0.07838476018460118],[0.08540006969401485,0.012827709068551657],[-0.055122689729228735,-0.08035845688149876],[-0.14880094369454816,0.22014221609317988],[0.012183432108667815,0.09160481045234947],[-0.03449658698180503,0.21295343246080503],[0.08129693169939026,-0.18833443600688016],[0.0704773489939702,-0.015109806038750019],[0.09701132405150055,0.055688510687844],[0.1345864532511698,0.11304892051310461],[0.01000670311930608,0.14712437927625577],[-0.21717837932539352,0.01346302785135975],[-0.07815585192219174,0.005495833878678366],[-0.03775734882005585,-0.11674257645631712],[-0.03663162494815183,0.1572845387622389],[0.00023065539390603956,-0.0010186365467005714],[0.1616446502033327,0.18926842684469053],[0.19087618548734914,-0.145646286991459],[-0.030538470557943134,0.04644420993353203],[0.07849095349061604,0.07352527137255381],[0.053308182423757906,0.11863681651486112],[-0.08325883332837918,-0.03627738569226164],[0.06997862818208991,0.04968060259338142],[0.10472650325106436,0.10512688587542346],[-0.044524423052036396,-0.21060970784316302],[0.17437671613850336,-0.08397278251878237],[-0.04890331283781572,0.034304228365213164],[0.20823422406617387,0.006162148610078104],[0.2034193779688974,-0.027199315591292107],[0.28134753246696975,-0.10168635888012971],[0.10395131983558177,-0.01801092952594567],[0.3009999364678109,0.13726957952795504],[-0.11720418360438509,-0.06901594202674632],[0.2614087159217592,0.1260549389769366],[-0.11209750721354701,0.03492960729833517],[-0.04931350372888279,0.03979800641661863],[-0.06753158766461345,0.18031910205903395],[-0.04383685699427266,0.08118783756593231],[-0.0815501966284702,0.0038618080048263737],[-0.023770158114120536,-0.03265312687915748]],[[-0.12439869941689867,-0.05291275401791953],[0.17198380739513755,-0.07476968173754499],[-0.03318564224770046,-0.04553934195895425],[-0.12110829307939382,-0.014173189660112969],[0.12743498223074648,-0.09752220052570346],[-0.056993545619606116,0.019239889567109793],[-0.05322678710715757,0.029752300284444425],[0.025734831983465233,0.15739164237103037],[0.14445044587547956,0.2570650626427615],[0.11045206894330888,-0.03637585386624372],[-0.2353206719831481,-0.01129706210441524],[0.008538310555644423,-0.11382617678806249],[0.1683158341783765,-0.19236632441000226],[0.061915136152798866,-0.01064675892728568],[-0.07186180628217295,-0.12675977705994915],[0.0813273427123565,-0.005572536381540689],[0.04412837162122152,-0.05861736244875045],[-0.04518159584783885,-0.306545110312316],[-0.0817492783568816,-0.07592701757270434],[0.1440342106967812,0.21070409737475632],[0.0713220645782907,0.06549314022593193],[-0.020854553545773903,-0.050755818128141374],[0.2761796488193092,0.13855845730626176],[0.007772272841563014,0.003309938424077029],[0.1614017777491413,0.06867083596258935],[0.14143762181387698,0.05234012389162755],[0.04302602570425713,-0.0373557919005488],[-0.02262526237638731,-0.003738330657261132],[-0.15615297713769857,-0.020528520884303326],[-0.033967656389362076,0.020558087018601418],[-0.002584399780383301,0.12812803070207238],[-0.10640933824121945,-0.021482100849130794],[0.017779870664124443,-0.1017606217948903],[-0.05247268413973882,-0.1556018874242255],[0.04061632240647855,-0.29670164639496016],[0.11768921534272832,-0.056162221068059716],[0.11847297115068274,0.0770705609836607],[0.18316447099203464,-0.19241893043930142],[0.008851267126415326,0.0907740462165312],[0.07609386139500125,0.12568381448715657]],[[-0.14410300795845016,0.13036382721689654],[0.00972465329120319,-0.14013128120215243],[-0.272529026350135,0.06885302517319887],[0.05026577296750462,-0.05721257703841506],[0.03941298407910649,0.02209453174678622],[-0.023602127466174367,0.029597816460351662],[-0.08704623914748885,-0.0359321612715438],[-0.06081707138506868,0.055320759067281094],[-0.11043386444136606,-0.04805763588390883],[-0.02544377852574957,-0.10259597186556015],[0.020027877412678335,0.08528687963739695],[0.24481337300095896,-0.09214892537663547],[-0.14750533421946094,-0.1752165358009256],[0.048258092994621374,-0.04720565931726541],[-0.09176299785854354,-0.25486133291200197],[-0.13054694490947313,-0.08178224139788492],[-0.08411713381721883,0.04694550928689764],[-0.059822605704155825,-0.056131162217333004],[0.16937782354656053,0.007376495009943226],[0.09314009627005734,-0.21440673779129252],[-0.08059375987127217,-0.02592816372921408],[-0.06422820545663803,-0.0021120365046624614],[-0.07236955549191593,0.0769521762844565],[-0.05775576034016419,-0.012716878791173098],[0.15583312397207816,-0.008814114611491519],[-0.1597811616166199,0.028524551738218672],[0.05690864835251862,0.03707755479888226],[-0.1384623021120775,0.06918184198183909],[0.26240184280891204,-0.07134276202321442],[0.07487747762289275,0.12665914084119884],[-0.0492487251246165,-0.021385734530921338],[-0.046915432252359064,-0.015163499966797063],[0.005074720655658694,0.02039357053065895],[0.011125954051816886,-0.07454060960410527],[-0.0037011660943131017,-0.14325653352782927],[0.04457244679697512,0.005630204512619396],[0.03781088460629826,0.044539569009821346],[-0.030200877750039153,0.030420954707594153],[0.10434962392273354,0.1471566681439107],[0.2459364700977615,0.07672330592342858]],[[-0.03939706314798508,-0.035617270650492895],[-0.06333955597364244,-0.006469447126635575],[-0.09979537157162359,-0.026931062518290246],[-0.054363694019751524,0.10507097763766224],[-0.07728384906842287,0.05687299683496242],[-0.020190846387787325,-0.03741932845646964],[0.016308613667963687,-0.1490265346551923],[0.22301754307264282,0.21175412970009017],[0.11681771491151162,0.006195192691647101],[0.059579157166969585,-0.00785098143952235],[-0.04969764615479531,-0.11913978149862947],[0.1021049123088255,-0.2261001422840856],[-0.022277838907512133,-0.05962134536641692],[0.10976722049945144,0.027629730946851647],[-0.04745464789468356,-0.1967382040918844],[0.09861871769945656,0.033087995078008914],[0.041066946355446714,-0.07508107317239668],[0.020020746959668257,0.03846167793180761],[0.04135430434391094,0.006163207471761527],[-0.0526332847858063,-0.058422713328944734],[-0.03035597947413349,-0.11983107595489076],[0.1227268907942585,0.07039870236924803],[-0.008734309957194637,0.08078184116875631],[0.2005432566528766,0.014331350648200144],[-0.03865122153569061,-0.13503898754462518],[-0.0076015781999316506,0.13869597854282192],[-0.05388932102699282,0.09067999311122882],[-0.14840220315334723,0.023009581069077682],[-0.06330403389058396,-0.09840868601405486],[0.02479447044386622,0.36877701334315366],[-0.1636229867991126,0.08994827239252343],[0.040445904405932716,0.09185576498801538],[0.032986184397206034,0.21126222659021332],[-0.09150450265405578,-0.04106559809903986],[0.1744979308973655,-0.06080922913809161],[0.029931017546863767,0.08455844437215872],[-0.0994311302893218,-0.03390408119735635],[-0.051716348835091845,0.026727203691241385],[-0.07864605426393466,0.00880148039864737],[-0.061385906890510634,0.0005466842605818601]],[[-0.1661327580878182,-0.08052338230000433],[-0.029293469845377566,0.015001570096552492],[-0.18434135493838094,-0.04182587000533111],[0.13693446635962683,-0.11537757344905941],[0.19886320055170076,-0.05516964707226292],[-0.05963444924285273,0.05087444013395928],[-0.009905381210686447,0.22690747625296795],[-0.06512568619801216,0.030039540172966502],[0.049153908896036755,-0.026398417490740535],[-0.02290094044449677,0.16884909331162778],[0.009972459015798497,0.17973128272400177],[-0.12615363070763685,0.0027834701881946644],[-0.0038168212532232364,0.018947701442744356],[0.0459445119984204,-0.026665605208798716],[0.19860113934834941,0.13277457522205469],[0.10866717292828124,-0.16269238700708874],[0.06384576209847258,0.08726634192365924],[0.0865579659639801,0.013977265906912874],[-0.1561584346233005,-0.22530683139501462],[-0.15337886741127368,0.008260666253767517],[-0.023273035848195102,0.1598543527415701],[0.054623420978715025,0.2460349741662154],[-0.15550789582185806,-0.06874797239369686],[0.12835834784065117,0.07007051238924364],[0.08639936190735774,-0.04935241531069151],[-0.005607810255281342,0.060177709726748844],[-0.07535769137701456,-0.018338972182340135],[-0.027982931383731653,-0.06196407888663215],[-0.01014567145753274,-0.031685956036656034],[0.31499435974062395,-0.059215766172750116],[0.018805471093495906,0.0015451396909974557],[0.09070547490500365,-0.06884708119170024],[0.17937536138328394,0.02759369613398081],[-0.053784232084350805,0.1186353629868441],[-0.07873836700215124,-0.09586012570741774],[0.04256826941309712,-0.060667187576602076],[-0.07871885758081686,-0.0965534793252736],[0.1892684931980543,0.0221204549873556],[0.039952046159734994,0.06963330998609026],[-0.09124605360958271,0.0493619671864975]],[[0.06646621768017627,-0.05482617746855904],[-0.08968664964473999,-0.12158343685097121],[-0.1850041871699075,0.10007489409890316],[0.11250817884388052,-0.022194550609715667],[0.1083746548009986,-0.07659429916144764],[-0.10778342905472754,0.008801938952848583],[0.06272310828509729,0.17857909953656215],[-0.009989725209464978,-0.01381112908457949],[0.010752836042299645,0.06551254737040614],[0.06407212110537809,0.11018538696273279],[-0.02608102382723466,0.014617684682128738],[-0.0329969409459708,0.10353986548612426],[0.08935377237498422,-0.1659331352145702],[-0.14697802619278827,-0.05904409900699123],[0.17754504289476003,-0.09474188553147762],[-0.017738047739233233,0.26426386656145295],[-0.0004745176793018709,0.02366690563461535],[0.0028878022247136657,-0.026340336692121005],[-0.11144283172573097,0.08304705163414722],[0.022819974068747268,-0.13887323430134257],[0.1260775980245091,0.05630014570542635],[0.2927337081999112,0.09855768738475829],[-0.006014906473797023,0.2001406452768264],[0.12985649233281796,-0.09834029977032945],[0.10998089779028772,0.20305650569393005],[0.07146002818628826,0.10598673225603313],[-0.10271392124429674,-0.0868024929804153],[0.018216638319932095,-0.2589045120225153],[0.029919194070256932,-0.027633725404559106],[0.10994711956987253,-0.032014090668982545],[-0.03252529921527756,0.1720070821369552],[0.04115150890961392,-0.10348521063390403],[-0.0019197503876212615,0.19955130457262502],[-0.010121404091975972,-0.04022678564360235],[0.08628847216905891,0.017654124874807758],[-0.008196505208660172,0.08602389073123064],[-0.06796880833682821,0.16903620253044221],[0.04873893880495019,0.01728258519842277],[0.2763942164741799,0.08809629487520614],[-0.042398648751498486,0.20090772133499632]],[[-0.0544429149870889,-0.2839027376018449],[-0.061691240942850535,0.09799094822371597],[0.25172610717577965,0.13410252984319926],[0.02094550535454851,-0.21089349308375827],[0.17712907817808193,0.2424492582838972],[0.11370870503932662,0.10138716141651702],[0.06898615709079108,-0.015325663852988485],[0.09383509402557089,-0.06161548423473839],[-0.11571864747903893,0.014001272620842308],[-0.05724405859619283,-0.02783066065933837],[-0.12103470301137882,-0.05314240234730858],[-0.09137351616055152,0.027730926495785846],[-0.11798858656154268,0.03048911956079236],[0.19263118718462846,-0.0804502323829772],[0.040428818775908835,0.2442116876648148],[0.003660659512171564,-0.010878146221449494],[-0.05967301394743573,0.046230248441242835],[-0.15320831236576504,-0.23653678959638824],[0.06671779229535525,-0.022274918327481495],[-0.07564008688873543,-0.007706201632309673],[-0.08498050089808923,-0.15431332872470133],[0.154154412904519,-0.07189676219667301],[-0.05230466944600531,-0.05043050933882948],[-0.11004310010601884,0.04887621113981974],[-0.04370272251002015,-0.06278108070677757],[-0.021767624777389853,0.023406211377246633],[0.00692134328175066,-0.2833841741793695],[0.21241695030808316,-0.044744866269609794],[0.13158872525812285,-0.07406867706470543],[-0.11341823510900735,-0.042752402640395024],[0.02493013053378316,-0.11673365464848963],[-0.18977142080584,0.04148439255436021],[-0.10272386662735074,-0.05476785597479248],[-0.13303161276838107,-0.19518218322702496],[-0.0532822693121905,-0.12324044019202862],[-0.04124817138123918,-0.031013466303455157],[0.08027226179491241,-0.1390554715818788],[-0.08183446054055493,0.10805754351365567],[-0.136898781636143,-0.13457735909159893],[0.047374212805396367,-0.10324271887127406]],[[-0.17495264585040596,-0.034861186111290986],[0.18377646344252824,-0.19565467678658757],[-0.019200809212768,0.0608473664112998],[0.27402038098680154,-0.049374548442260656],[-0.0062020823573042845,0.018071845453664165],[0.27906735202584687,-0.155814534588733],[0.05530363114382044,0.0573116751801464],[-0.004011944360297823,0.08015724496146966],[0.10989802044653209,-0.003634774902521764],[-0.08600521237850717,0.23033221625914274],[-0.04494829737770083,0.11437965534425926],[-0.07414436057710662,-0.0007123876773044622],[-0.10853586606579346,-0.09924674702687787],[-0.15649286376208324,0.023193770272813392],[-0.006078987040429277,0.0707570558168382],[0.12181791589246324,0.028359776574653255],[-0.11656312489060291,-0.019267087278788043],[0.15994185144293885,0.09293497133632891],[-0.12784212257798042,-0.12791984781997232],[-0.027384883352199903,0.007904794814176337],[-0.08442436499029997,-0.1131292238255088],[0.11559098180440822,-0.004073916657189543],[0.04087337292289014,0.07568536387677482],[0.04381568174001806,-0.018418366892286677],[0.047846498238807364,0.013029637551847712],[-0.14050057682192416,0.049900565651608594],[-0.06090921222768833,0.12956830940151853],[0.0021864473285308334,0.0017705617880190375],[-0.11081062259319796,0.06997515697892144],[0.04183795957693526,0.0041830462689263735],[0.10632852655319536,-0.041659876003058094],[-0.05827816547833225,0.0806840321625326],[-0.09896848855228549,-0.061138946729555665],[0.0010273247462455769,0.0019589919891679205],[0.055891629862657104,-0.0879725404386652],[0.1626944322987667,-0.17477237597995998],[0.008437079214835025,0.01574930828183856],[0.28326942236847824,0.15918863947214854],[0.020104876672261848,-0.1616766211210278],[-0.22363199941450437,0.03288729982138866]],[[0.12861459226170546,0.09620619746716877],[-0.13854023772906945,-0.06572814992410114],[-0.22606002058779337,-0.1412592182276715],[-0.05538955073499241,0.018082994675117866],[-0.08930551404474092,-0.05296587626717541],[-0.08798428081495542,0.1461561466442449],[-0.014435329381511524,0.06452068934763275],[-0.049138151776068215,0.2674740200833456],[-0.15259594984215072,-0.11929427481827444],[-0.10501390461440112,0.14162824724322082],[0.07915987574750484,-0.23844414789926144],[0.24946109222223942,0.0345318217377918],[0.0016834822847893033,0.010344130324219786],[-0.0016546943475224604,0.08993044209967094],[0.01875329780691986,-0.01106122091035232],[-0.012944782130852489,0.060472304500546525],[0.14457771386535356,0.227165175189893],[-0.21717653365564699,0.07059527027199626],[0.1321315264890251,-0.004217910023462505],[-0.017412997521039364,-0.07770282208816873],[0.039993021598300274,0.0338520037673172],[0.12499660221007305,-0.04815942232721574],[-0.19246018762097017,0.00584209223821778],[-0.031911288817790893,-0.05544625345381831],[-0.06810713702548435,-0.10368661224798459],[0.05325916802292953,0.03881189598394448],[-0.034153384200209774,0.04242775575806066],[-0.06861002257475683,-0.15638741058425418],[-0.0025187895014771727,0.09069649396148383],[0.06130368573310575,0.16689235490377727],[0.07174020483624101,0.025032534754890815],[-0.05241247480025424,0.04659679944577446],[0.0006273276606419913,0.15345892248431733],[-0.04310296119023194,0.0748909474411901],[-0.04495331788459416,0.11411859348178713],[0.1362604295791833,0.009429264065421659],[0.02162906604331114,0.01750620192173653],[-0.1640766690840108,0.029896930318632938],[0.06187296614333588,-0.06495187153150477],[0.17890430567007296,0.1663820335880333]],[[-0.0001150445721559031,-0.10553112455812591],[0.0932938541181341,-0.1232201042170983],[-0.07699239042286074,-0.14831821997054195],[-0.086402887720917,-0.1220766630349825],[0.1301225112828919,-0.09036098983521014],[-0.032105599617873966,-0.11629584556581257],[-0.045049840716207955,0.07141204431954433],[0.07931849291591817,0.025203049211454064],[-0.12047637605957934,-0.12682999366668155],[0.18729217223425182,-0.004900954649502623],[0.14819524309330517,-0.08034113780377233],[-0.07948678437456588,-0.31328957527488605],[-0.040421774664256005,0.03208716447650306],[-0.0641482289012827,-0.04035975052871966],[0.1455436353192431,-0.32394642888192493],[0.11600045715444515,-0.13641152149155852],[0.013123451891334997,-0.051881061200505396],[-0.054046894984856084,-0.05977334715183626],[0.0025862113152077485,0.09079445318127292],[0.038388415510760346,0.050631976866764246],[-0.16301479056720403,0.01970507543004439],[-0.03528925580257126,0.01605201875306614],[-0.0038321160122653268,0.10224527688854411],[0.2174418483089797,-0.07415783668613514],[0.1528216151749117,0.027810409703219064],[-0.027776384717965247,0.0950172655166634],[0.02854345985029327,0.04612901088590796],[-0.20749383589625872,0.2306246501114607],[-0.06144443770827221,-0.176387680115768],[0.1714348884494551,0.016492747763563645],[-0.04352848762541549,0.11313765500650386],[-0.059651708566947854,-0.04672098849051116],[0.0043009416450083635,0.0124436224736363],[-0.06298872518648287,0.07900927846195525],[0.12271907292559348,0.03713425093745059],[0.03678582404967104,-0.05598218808424631],[0.030271806662730057,0.09560661512862477],[-0.1345293011667466,0.11534578119660854],[0.0017616159318608626,0.19055004277971893],[0.06056983589242227,0.036774897780419404]],[[-0.05432651685504815,0.016821675512497386],[0.1492179219066322,0.22760253025266508],[0.12126667644409421,0.020325003329713588],[-0.003711589921798195,-0.04440457054938621],[-0.038854427271742514,0.03570253282173249],[-0.0701212643016171,0.08916889715768737],[0.0826131013726707,-0.035499128467377336],[-0.0744877155502988,-0.08736500832036675],[0.15938621216245707,-0.06253761490162806],[-0.011878756558109117,-0.017690753846761737],[-0.10437107972029873,-0.1207732118806826],[-0.0777951764473383,-0.029115086582023855],[-0.01680210676079469,0.07392043035488048],[0.13851004611387865,0.009498480434018512],[-0.017471528515786212,0.11516867037751337],[-0.029001901801868145,0.24600285505094283],[0.13564801943312335,-0.10528288818042339],[0.12339049597167673,-0.2537969038850493],[-0.03644195449882668,0.12299071560409745],[-0.08888738927802481,-0.119558132491686],[0.05540172678902814,-0.10041419045090677],[0.07240843324390368,0.013766651328665853],[-0.20196239179029754,-0.07387543512206825],[0.00892484253217853,-0.10986505203454988],[-0.0024271573648369945,-0.03338862811428428],[-0.09197919757984704,0.08863072836336816],[0.053438187445228866,0.046645062033891106],[-0.0016006642814523817,0.007783378241701217],[0.0653427753795814,0.027105674242920454],[-0.023445486914162154,-0.18364750068946945],[-0.03325683292921665,-0.09016620360759611],[0.15591572516171887,0.04231934837896366],[-0.06357273278265516,0.10257619557188151],[0.08650756154684906,0.11323526755252196],[-0.06336908045741181,0.27803090976844513],[0.0035898545428223274,0.024542473985917093],[0.02961434095860944,-0.13407333612267516],[-0.09699751013868253,-0.029584857897012314],[-0.17976975044962426,0.0019193099555841159],[-0.024629221412881076,0.10591432669816411]],[[0.15631992264059832,-0.061077676578872316],[0.026737704213156924,0.031887679125694984],[-0.04109814184146571,0.019298190473092336],[-0.04895542897723226,0.1569473419340494],[-0.10624549786533037,0.04769179646604161],[0.027043848734502194,-0.05331906058157614],[-0.055847522506588164,0.03426615143390633],[0.03967615404938758,0.07270433583036388],[0.03969502524451815,-0.14643659100301037],[0.02284371029433686,-0.22201941736481062],[-0.039005731185563934,0.013107850411267146],[0.12065762026000605,-0.1083729875909907],[0.21400988037864035,0.025362488888655655],[-0.010692073997409264,0.0901723904901256],[-0.2064076207472368,-0.15611785074393267],[-0.04860538946603839,-0.10310984412572463],[-0.023139557432132033,-0.053016774323749453],[0.0770554939650833,0.11652265060095876],[0.04373168043952549,-0.046763476176706315],[-0.05227428366077275,-0.09958986450740978],[-0.04547312892845141,-0.11288080655352738],[0.13174463885336835,-0.07687354796610266],[0.08120818763488101,0.06457637367435928],[0.15625779834276213,0.13817464933746887],[0.14291578564628646,-0.08552838785372541],[-0.2004276037646856,-0.010854762623821557],[-0.006819675649228407,0.1667131460173111],[-0.11588817269249185,-0.04471051992005449],[0.011903046601965254,-0.16574285982637202],[-0.05970801757085324,-0.10331771782366019],[-0.03552954351440503,0.14941770513399158],[0.009028610042913908,0.09878700018931673],[0.07423403755019886,0.10661527441864989],[-0.1399753281277559,0.04718740545982659],[0.261687724685717,0.03998757736457075],[0.2881398096429245,-0.08277536158643406],[-0.0159572224985814,-0.1256228441359624],[0.13406157167019467,0.07487478518289557],[0.0043687642371602825,0.13996785468367237],[0.05051465957693356,-0.046736928935798484]],[[0.0625706007153305,-0.025627680217565604],[0.07642897224880411,0.14018804133859425],[-0.1619175720869279,0.12133269505151738],[0.040534262545589145,0.012027829294516342],[0.22407414291305294,-0.06224304350110367],[0.07812608849690174,-0.24551263493787678],[0.050003694504356815,0.100747870303321],[0.2217907570667189,-0.02796411495390183],[0.1736489904219241,0.1709495976053446],[-0.06321136291434447,-0.17218971728969143],[0.09504868287810007,0.10704468871004195],[0.04417038130759269,0.05368362827056203],[-0.31378001245212345,-0.11561693665563175],[-0.02064209510904714,0.05996947152905725],[-0.08553464571877074,-0.03693240755521765],[-0.12661125960817665,-0.0997888359134884],[-0.032444667391618956,0.17220804805647494],[0.11216676733462409,-0.10847529239012302],[-0.040819466808495464,-0.10456983259398585],[0.027448818474099662,-0.08119863694626546],[-0.014500568400446279,0.051184369578348085],[0.02158553386018807,-0.058594181765657],[-0.08942129100906049,0.05574968341269539],[0.04132641561878901,-0.042266076539138886],[0.15615478057194981,0.24282577372823327],[-0.13184990986809944,0.01549223463546201],[0.11275455262053338,0.014014301156683085],[-0.12012725141390472,0.1829558032432107],[0.17305940043571333,-0.050523030757164605],[-0.040705853105451016,-0.05344129874812588],[0.1601939176721697,-0.10783830189158623],[0.06903670712894734,-0.02623603569279145],[-0.17268637096289113,0.08942940149326772],[0.18244841318969576,0.09444331796184462],[0.11580505173003612,0.04859848638362676],[0.02287418618636972,0.17415230854191516],[-0.016975991037436022,-0.05499628430336929],[0.05814107636733852,-0.08873756117539547],[-0.057718674574946095,0.12438514985837945],[-0.11721381446091494,0.05216249284073554]],[[-0.10409387732637834,-0.15212343053912156],[0.04660426085394985,0.014094473534746882],[0.06266325059933833,-0.020154918671097907],[-0.1951399731159447,0.12158848617550162],[0.02995309027908141,0.078277258550717],[0.05527046664423207,-0.056491703721414925],[0.07467548843995553,0.04618793646409245],[-0.03872846532452469,-0.10827388759507432],[0.18963864533840846,-0.01617869338183834],[-0.006875361799363069,0.008628022161334103],[-0.10146995549092763,0.06906416576335397],[-0.18072053637366617,-0.02517094789997076],[-0.031320996914714565,-0.16010492120303987],[0.09167675813011532,-0.03374338630145188],[-0.0515586628251614,-0.04156384150073521],[0.13352412767023708,0.09123478359800004],[0.009836211677359335,0.09011277160425749],[-0.14606362478927293,0.05039056639005167],[-0.1358044843957165,-0.13033099911923843],[-0.035268304338512434,-0.005057373957321746],[0.052522400032153464,-0.05815722234462364],[0.0510310322640244,0.0862883025858953],[-0.12897827392597902,-0.017908422704139736],[-0.04840955299612484,-0.00687957910579629],[0.07767982841452942,-0.10025736694985286],[-0.0341378833112795,-0.13387316213510017],[-0.00804013740558723,-0.0873506936461164],[0.10864756121910353,0.13029364529384785],[0.1575956574949215,0.12003922147303646],[0.02483507161663926,-0.17973581747225106],[-0.02155725862825205,-0.08406599571992891],[-0.08622464281472247,-0.04949205920554298],[-0.04050544952920508,-0.07132616374827423],[0.023979952768605574,0.05881312121550245],[0.06891514889944295,0.11908930081187646],[-0.0636406307539299,0.13133024019639256],[0.04784031409171592,-0.2147434622751247],[0.04009932245668334,0.05150701366399075],[-0.10102577973599297,-0.16523348619141373],[-0.04550850018060003,-0.06487739639386292]],[[0.055059960882710646,-0.2344439651428663],[-0.11442340936830553,0.019142256910479317],[-0.03620728585411942,-0.10973380138851989],[-0.043155561098204176,-0.19982654230212335],[0.21229634622647303,-0.020803409203330764],[0.16899335279954447,-0.16026552982506692],[0.1405345208403691,0.14317808093123263],[-0.08075114923705021,-0.1565572682230926],[0.003945465108668394,-0.004272947749239169],[-0.10306248346187973,0.05016926169300119],[-0.08043194112763001,0.1692852355304155],[-0.15310933604878765,0.14217505653467938],[-0.1399936048536089,0.15462720083492898],[0.23120449937026863,0.0030680085301714503],[0.1472963266155574,0.01995520863455153],[-0.036389706697407986,0.09513460280514804],[-0.11254133595567276,0.005431058946043282],[0.09246412103747216,-0.006712193666512731],[0.03723905481896125,-0.10463890945671075],[-0.0955429096457906,0.12253456802200961],[-0.17491400300508717,0.1302486832563545],[0.012174312038586679,-0.040384181571777575],[0.08269925560033878,-0.13904692129926813],[0.003890525346250315,0.06772402505496389],[-0.051688014545929514,0.060884361958056264],[-0.07935531673594437,0.06928135062145037],[0.018613138470980978,0.08884939040418408],[-0.018197367225556614,-0.08717663433475874],[0.06095207902824951,-0.13230843306730825],[0.014237460272540005,0.030765232724683244],[0.002667764459731467,0.09244078020914046],[-0.03460087254299532,-0.021301437449419373],[-0.1410065019430085,0.006862822445903607],[0.24365403245310602,-0.17626866038969455],[0.13089983383815826,0.05810782094727091],[-0.11306455970270382,0.0365075751037348],[0.401353982517466,0.033108364794142635],[0.03461807753074208,-0.10915115460981452],[0.11512682871467952,0.1688739229271643],[0.1360501382208556,-0.17416816869527824]],[[0.09695282737265987,0.010121630995320393],[-0.1028359227478536,0.04955087355377396],[-0.04478589872102914,0.05873228879133133],[0.023689385523528377,-0.004901163056287941],[-0.1210533056493752,0.1053961097049702],[-0.041511238236585674,0.005890713595054673],[0.08223389051487284,-0.2654053754505623],[-0.08660967443025804,0.15900852928348605],[0.16753492967395717,-0.059332975811045664],[0.1272652428712578,0.01630052293314944],[0.09485883221144853,-0.01793813133080458],[-0.022196883526570343,-0.14232375199439973],[0.01936588111824427,-0.001708746858111382],[-0.0968244598860451,-0.13930625431402763],[-0.03643480766346822,-0.033825221255568326],[0.03362734955663581,-0.0042610130697476765],[0.18323174296936418,0.12615969668632973],[0.14504711668887757,0.13060917149764414],[-0.04692325659498384,0.07792303900351555],[-0.041765757290988616,0.16965728518572198],[0.14995835506123817,0.1884414995671032],[-0.043342023149327745,-0.020150544557220183],[-0.2767120561980354,-0.04427445620020166],[-0.07692442428386764,-0.21324557778058914],[0.03337060521262995,-0.2392594339496391],[-0.1364237972538028,0.0017026855068295987],[0.06774739145138975,0.197787341567661],[0.18895045569436808,0.09140323352374784],[0.22191398889343128,-0.009082328488517033],[0.14324781603067485,0.07592394636996336],[-0.09988970400573122,0.0819021545124295],[0.1982689093545072,0.1794171208455137],[-0.1265126572931008,-0.04435400305591626],[-0.1658385597800162,0.16154253482905653],[-0.18474754737180676,0.05157331479070843],[-0.06852799672530131,0.07975040474527599],[0.13073764188599063,-0.012446122858815934],[-0.09525805975366383,0.0661641170656542],[-0.08705586065114204,0.16301669764985333],[-0.127881659190258,-0.07375911804303385]],[[-0.013841755475503486,-0.05833479094329339],[0.0539531708892992,-0.1441261936565769],[-0.25720778959390567,-0.05124843086975843],[-0.004392615998674812,-0.037893028634501454],[-0.050536588010559935,0.0052372959035613675],[-0.039814308556846464,0.055410358856600166],[-0.08202690957106,-0.03942378344774273],[-0.03143246675223309,-0.005425530538344978],[-0.19909912114189388,0.03101714127405667],[-0.1288809503900626,-0.0018838041921154787],[-0.022108789719030703,-0.1093981105853783],[-0.03498276784839582,-0.10380262357040765],[-0.1386650781453534,0.12917468927455658],[-0.0020823165664208437,-0.004741671057825759],[-0.08638886354818354,-0.029929202080600098],[0.1021513282376191,-0.008535295914161507],[-0.12705220001908554,0.06116763522204526],[-0.16859544737212168,-0.14455615975629835],[-0.09548024134970867,0.3430034998225186],[-0.019702734876337308,-0.041845975248843335],[-0.10326924168101759,-0.14586147869385616],[0.004229276060405377,0.1256006495482841],[-0.15517255108451408,0.09799384051351549],[0.04543683954036075,0.03797529436088072],[0.12437946144058491,0.006002380415807431],[0.13162755687401956,-0.04161320633755453],[0.06843964186433794,0.2179790868053157],[-0.2673449094823007,-0.020325504405444075],[-0.09276312770590318,0.10860736503849577],[-0.013743920720387057,0.18739164700295005],[-0.1404156707977281,-0.06985556460652294],[-0.1113589771301441,0.05695662778575732],[0.07606983533748866,-0.11918835113216436],[-0.09035142614193727,0.19582272080626661],[0.17640521545429452,-0.024978203642852796],[-0.01306990865585974,-0.03566523699270689],[0.023653244924974014,0.22063697503330046],[-0.023809849245712143,0.15347890549625048],[-0.024908677967256095,-0.14716199661945892],[-0.10175783390419121,0.2888063782406279]],[[0.1181958683515961,0.04482899017960404],[-0.007321333441855905,-0.03163135269034018],[0.08261285551724705,0.035836998060113534],[-0.2602163915774393,0.1774141663316328],[0.12481223022983211,-0.013609641411415864],[0.11711812032621667,-0.006453569748369023],[0.010968062065106414,0.15741676743462654],[0.04417490562975099,0.1494253018613984],[0.028758919560144317,0.021444127103544892],[-0.29262350672426096,0.03051887358274667],[-0.05681379397951746,-0.019423423410571093],[-0.174216545865702,-0.018090920552694328],[0.27417275235956273,-0.04347633058677571],[-0.015448222947043604,-0.06253200789460099],[0.00904276707488882,0.03338245185054316],[-0.0277644498191118,0.23174137943937684],[-0.09700171141188974,-0.16534412549428493],[-0.05565999363582467,-0.0553678162599344],[-0.005727926422564485,-0.02198390686728637],[-0.08245690053103052,0.022661843813225856],[0.2357494670604466,-0.06088089483130512],[-0.11549337028468852,0.2312520451163142],[0.03279611873221038,-0.042519599114165606],[-0.015251599960427504,0.036576325709193815],[0.21686589438161508,0.17752434693154331],[0.03399319898333274,0.1292938202987766],[0.04917580747340552,0.08875734193700147],[-0.0035732134504844358,0.00823375299015562],[-0.007612268339070542,0.009528825652764115],[0.04041248316801796,0.07850484341514379],[0.026633831236921122,-0.11062098068813207],[-0.06714223412096575,-0.07755815195646061],[-0.02168366037665256,-0.0619405244501825],[-0.13924283851692246,-0.06274581530109732],[0.07816830184362093,0.04085470197543566],[0.2418757794551537,-0.14173438697471138],[-0.11746872394395558,0.09205203940351508],[0.12649253252234752,-0.046732347383779474],[0.04258360478474592,-0.23536871399711792],[0.05400891322754009,0.16552715377561084]],[[0.14795122383877668,0.237108986798906],[-0.02326369646521703,0.015962436912325895],[0.006782381863231079,-0.02865614558380068],[-0.08705911935223414,0.13741863627588227],[0.0802399129111621,0.06228669158727893],[-0.036610738620794316,0.032974699969189225],[-0.09653804434428284,0.0930016689600804],[-0.041373231420203424,-0.15768991582436154],[0.028980347645764088,-0.04194177589568811],[0.0681965973718396,0.11592067085170704],[-0.07849627701727933,-0.07674263492654282],[-0.09193005190139175,0.03508533146552444],[0.060339349178411994,-0.1880467481190668],[0.11484993821215225,0.1080604550510502],[-0.014509632168999614,0.03208153564989268],[0.08054107263781679,0.09922914141827459],[0.19116047859068147,0.060687154672593856],[0.173231335709504,0.026008629323417822],[-0.16726770318256917,0.22363057425658311],[0.049824400723792635,-0.019487287413245766],[0.1148303145184054,0.13345852776271686],[-0.10453384784894125,0.15845219402243868],[0.02600859974779668,-0.10123149369844109],[0.11157067209114349,0.12969408795342857],[0.045934391396151235,-0.21043992197383113],[-0.18145782725772056,0.025482793583267965],[-0.04287292963669664,0.07659652964846816],[-0.17847144162905348,-0.15892489862501094],[-0.1504106521248204,-0.057938190504074255],[-0.016841243698864028,-0.06265084505438874],[0.05285450278664202,-0.04271610877524966],[0.062173775462432676,0.05098089138801214],[0.0010668903888433302,0.09360097858671057],[0.04912165752976492,0.09111688191647824],[-0.029397329309878872,-0.06904823494167864],[0.02771099689514316,-0.008286813781207547],[-0.1276251988495872,0.010656021975289738],[0.10994869662643629,0.13028313753985116],[0.22318090080137037,0.0036153406646379357],[0.09376478950447524,0.07529262919454528]],[[-0.12565365775108642,0.1582511630784594],[-0.05753539985533469,0.042579434600587794],[0.09257936416292668,0.17325122946238583],[-0.013130753895117938,0.142153438431202],[-0.030816727241710674,0.18032792035079923],[0.011163187587662864,-0.11872921154749089],[0.05806940200999328,0.12302451333309714],[0.1014539140300167,0.01425273674211666],[-0.0005936512588637112,-0.0009036516961871788],[-0.1026691743315397,-0.009411332433259827],[0.06066917571017381,-0.22342987453973326],[-0.08207092278122749,-0.07911333971855496],[-0.17811399081855134,0.11800680484152637],[0.140713672772423,0.03364214593375053],[0.027061601568438377,0.039414625880399595],[0.1459508095917618,-0.06012636041644705],[-0.022708679852237266,-0.20281688594632705],[-0.05786810868172383,-0.025212741102486235],[0.029154475636813938,0.16524584755798521],[-0.1330761700134747,-0.04935840798455105],[0.090580394653949,0.1703391867250999],[-0.003039122131374451,0.2664696473845074],[0.04554282157843313,0.0867552757353761],[0.15414135461356337,0.041265822842186994],[-0.010579198996036892,0.27461401105292116],[-0.1010634464780373,0.17044147117012154],[0.029316782948159346,-0.05776813992141193],[-0.11081854565930356,-0.09847990586800252],[-0.08177956128571844,-0.017167217479810603],[0.005603637310274779,0.08139598496844216],[-0.05046594429579883,-0.11536617851439142],[-0.022415407961039514,-0.0858372216412098],[-0.05812295721086016,0.13003907729458558],[0.036381156236632975,0.034966531321302896],[0.16944146414361502,0.0014175851322857755],[0.02355161350755131,-0.1414991586340774],[0.01272317583856015,-0.06322636880024436],[-0.08048470200017414,0.012523137179901467],[-0.0005561670889865252,0.00290107433821813],[-0.04002881448639549,-0.1236367045056851]],[[-0.056817538593026407,-0.12911580369557774],[-0.00870248058729113,-0.08990204689509866],[0.17784210671228015,0.012639921738208104],[0.04287495168403989,-0.14147989526875027],[0.05095091791568691,0.07696172823644284],[-0.07141282450072808,-0.02131074751739411],[0.10818488024527166,-0.01093215144827562],[-0.003707996469906091,0.0908345638355167],[0.021817378670393243,0.09115876425784508],[0.08400295366040689,-0.08475250798728867],[0.03261495570599349,0.11134452105583584],[0.1337639116398911,0.16337161648196483],[-0.05753186940200446,0.3277790864565595],[0.097788130575655,0.0656182382256042],[-0.005691158751068372,0.17242043135952295],[0.26775350761576633,0.15003674448043675],[-0.08131459725824713,0.14582100593918562],[-0.07556832728320739,0.053865966313848684],[-0.08647806954546,-0.09822483096881157],[-0.01581638075763481,-0.1305007097116503],[0.059571240587358666,0.0178935153819206],[0.034349151098783684,-0.13770893974954057],[0.012614903080371559,-0.07347890879499683],[-0.07613578150659854,-0.14282676649572482],[-0.10489512651517281,0.20893512260909053],[0.051380672378860674,-0.06555702233609755],[-0.0667719248538949,-0.021308986704500613],[0.005840609791914497,-0.05858767186543025],[0.18147416896183433,0.23763384330061157],[-0.04954606564464251,-0.10094582625338697],[0.05078144469182367,0.06116993934555525],[-0.17657721290682618,0.027879836409253397],[0.030064825267385378,-0.06530532947286521],[-0.1753936170510813,0.04095209080941728],[0.12685365211906424,-0.07177880104939707],[-0.259334999477639,-0.045361080985285615],[0.06812074713057645,0.017728988322955334],[-0.010365533896413443,0.23801098186478567],[-0.015357297444321056,0.01981656553500255],[-0.09878809453537983,-0.0717914419790151]],[[0.0796338158250497,0.02762035686127146],[0.09081708451134543,-0.005668445169588874],[0.06257598152773675,-0.2045507148835595],[-0.09889392921451433,0.13506104766133084],[0.11554220233663814,0.09826586958176821],[-0.12044236360083939,-0.00450418696495527],[0.0009647183950219455,0.08697391108312855],[-0.22233903940040947,0.12493359435233227],[0.06144747886837268,-0.07429084603510117],[0.11418313682432742,0.03464785724908753],[-0.19944150273666028,0.24404035595451354],[0.019559961344421582,-0.04110331732835919],[-0.16280772081814965,0.11576777356809775],[0.019879233700679868,0.0742987123046908],[-0.010092743483531286,0.03908181175761035],[0.038733544117794116,0.12008720434896489],[0.05839898313851089,0.1206387547667102],[0.03319309293014416,-0.07285825199238434],[0.034590316174752375,-0.1387620887310148],[-0.030849523657421513,0.015894610080066974],[0.04689475930561875,0.24592313925416145],[-0.03713283247497757,0.03664651920923],[-0.14196373608664323,0.003947993317502362],[-0.17672316143070346,-0.07116111011469979],[0.11607118077256377,0.14349685890773117],[0.06879246552489493,0.074894537570542],[0.026050116019820095,-0.059033215836945374],[-0.012001081931668196,-0.01181341803147544],[0.0648656776249314,0.12901106954344707],[0.011803917854980245,-0.2467793037398986],[-0.029843652844260483,-0.06397165046078587],[-0.06037198583832644,0.16066560139911457],[-0.10640057918288133,0.06438838913553997],[0.1012749620519614,0.050692699405143316],[0.06405580366564678,0.0710112086825924],[-0.11579415915081732,-0.02233850094986877],[-0.009661298167993094,-0.05283993300904569],[0.07837333745441565,-0.10488587562305299],[-0.28106689014156805,-0.1469929345295077],[-0.029098326693685464,-0.033891368570243115]],[[-0.13221382436938325,-0.08376100750408769],[0.2070440325246091,-0.01699159772308401],[0.07929865881185444,-0.1070575986683126],[0.07858646908599082,-0.07511737614864734],[0.32144970994034067,-0.06867407562463138],[-0.04131580383284286,-0.03270962594785173],[-0.12475252700611665,-0.07087128230461415],[-0.18254793823107038,-0.11464061418521977],[-0.026014492298382014,0.10310271350546991],[-0.1037478883177528,0.04717301499162445],[0.08405238943088453,-0.13566322508755552],[0.02593290355949868,0.11163751191958156],[0.005587476535999298,0.042365829476516334],[0.24340386418949606,0.09211684866296099],[-0.2253294677957655,0.19224323003511276],[0.010669518833544837,-0.016558303773790948],[-0.005162738425913616,-0.017209022100846155],[0.2058664858708736,-0.07733692560615761],[-0.20192170351441877,-0.1035662864115329],[0.003764515981070638,0.12238616716917258],[0.015241092085579798,-0.14920382641732816],[0.02205670492747872,-0.2755928873520365],[0.07954529473387369,-0.07903324042884118],[-0.12480518341311365,0.1561936499237406],[-0.004988105996514492,0.07189281002276793],[0.09427604056709422,0.01528267902742587],[0.03487095353149964,0.017134390479761234],[-0.13678450498370304,0.16439691527969866],[-0.007294115094687495,0.038689271620705776],[-0.02732305516321519,-0.1193361867974116],[0.14961391375195174,0.012763188320892162],[0.07679103802282072,-0.04730169847154579],[-0.004997927215361077,0.024687435056744887],[0.1128611938958433,0.22461529949121434],[0.05636276352661824,-0.13416788645803732],[0.10289003715703826,0.15570104135777496],[0.0690190186361717,-0.008850650818862592],[-0.30319234257010197,-0.08552348028020895],[0.021087004671242863,-0.006007041025025967],[0.00808577547728068,-0.2267978587424406]],[[0.0814078152935251,-0.012876328796127717],[0.03480177431793192,-0.1906778077633452],[-0.006850819393104627,-0.03389725806779931],[0.002252674549675099,0.020305619135381564],[0.0005860915746666548,0.18200727690169505],[-0.07557418415000661,-0.09648297688418211],[-0.0054239814682616886,-0.10271632895607274],[-0.04455127746429641,0.06935151998786425],[-0.08476214425848388,-0.05384905847316655],[-0.10856442662698207,-0.025878431276709878],[0.01708917343312679,-0.16083263302185397],[0.008593870808494462,-0.07516971399993823],[0.03098441894467013,0.009987932887952508],[-0.028611980267451247,-0.050925601702426125],[-0.009808394773418248,-0.1316657263240235],[0.017331317998754963,-0.054312891977210766],[-0.016708769578341852,-0.07178740672472347],[-0.10858302814688572,0.006399035416409017],[0.082509761223668,0.0388516366134217],[0.013461539502077634,-0.24391966941463006],[-0.13169450735242924,-0.1279920025392529],[0.07785795227714984,0.06883346064765866],[0.024668058315294627,0.3215535832555751],[0.19302726312433335,0.12270872300831294],[0.08147429876997889,-0.026847895885730107],[0.0016697627131132063,0.0254356135934534],[0.15614054733007152,0.11976496795208459],[-0.04270064756738903,0.061076659106236796],[0.023342513534618588,-0.09161155029869979],[0.11137588413292651,0.02311386060589032],[-0.01554981275138389,